
\data\
ngram 1=25961
ngram 2=78497
ngram 3=27690

\1-grams:
-1.84957	!	-3.412566
-4.078815	%	-0.570369
-5.309264	&	-0.1681355
-3.160045	'	-0.2587265
-2.56263	(	-0.3734425
-2.580099	)	-0.5699136
-5.309264	)Kväänilä	-0.1642746
-5.309264	)Nykyisin	-0.1681099
-4.531113	*	-0.2166207
-4.832142	+	-0.2724173
-4.610294	+47	-0.725595
-1.287083	,	-0.5316847
-2.537676	-	-0.3093923
-4.195321	---	-0.8177404
-1.206899	.	-4.055121
-2.714871	...	-2.548218
-2.263941	/	-0.2552579
-4.832142	/Hällä	-0.2700993
-5.309264	/Meilä	-0.1658132
-4.832142	/Sulla	-0.2700993
-4.832142	/Teilä	-0.2632943
-5.309264	0-5	-0.1681355
-3.777785	000	-1.218862
-5.309264	000001	-0.1402935
-5.008234	000002	-0.1354826
-4.832142	01.09.2010	-0.2251456
-5.008234	01/09	-0.1654232
-5.309264	02	-0.1657661
-5.008234	02.04.2011	-0.08969554
-5.309264	02/09	-0.1681312
-5.008234	02/10	-0.1654211
-5.309264	02123	-0.1681355
-5.008234	03	-1.184583
-5.309264	03/09	-0.1654253
-5.309264	04.01.2012	-0.1208595
-5.309264	04.02.2013	-0.1208595
-5.309264	04/09	-0.1654253
-5.309264	04/10	-0.1681355
-5.309264	05.06.2012	-0.1208595
-5.309264	05.07.2012	-0.1208595
-5.309264	05.12.12-15.02.13	-0.1590082
-5.309264	05/09	-0.1654253
-5.309264	05/10	-0.1681334
-5.309264	06/10	-0.1681355
-5.309264	06090	-0.1681121
-5.008234	07.06.2012	-1.137309
-5.309264	07/10	-0.1681334
-5.309264	08.02.13	-0.1208595
-5.309264	08.06.2012	-0.1208595
-5.309264	09	-0.1654253
-5.309264	09-12	-0.1402935
-4.707204	09.11.05	-0.3874722
-5.309264	091	-0.1681078
-5.309264	09a/10	-0.1680524
-5.309264	09b/10	-0.1681355
-5.309264	0:05-0:12s	-0.1680609
-5.309264	0:13-0:17s	-0.1680503
-5.309264	0:24-0:32s	-0.1680396
-5.309264	0:33-0:43s	-0.1680439
-5.309264	0:48-0:58s	-0.1680439
-3.675795	1	-0.7430924
-4.832142	1%	-0.2722191
-4.832142	1,4	-0.2724067
-5.309264	1,5	-0.1681312
-5.309264	1,53	-0.1669941
-5.008234	1-2	-1.137309
-5.309264	1-2012	-0.1402935
-4.531113	1-3	-0.2177968
-4.464166	1.	-0.1680631
-5.309264	1.20-1:1:29m	-0.168078
-5.309264	1.32-1:42m	-0.1680439
-5.309264	1.46-1:51m	-0.1680354
-5.309264	1.52-1:59m	-0.1680609
-4.531113	1.8.	-0.2177052
-4.832142	1.”Totisesti	-0.2494007
-3.665811	10	-0.56323
-5.309264	10-vuotisjuhlaa	-0.1402935
-5.309264	10.-	-0.1208595
-4.832142	10.00	-0.1389466
-5.309264	10.000	-0.1679288
-5.008234	10.03.02	-1.156743
-5.309264	10.novemberikuuta	-0.1681185
-4.355021	100	-0.2347097
-5.309264	100%	-0.1681355
-5.309264	100-meeterin	-0.1681312
-4.832142	100.-	-0.2251456
-4.531113	10000	-0.2721936
-5.008234	104	-0.144719
-5.309264	1075	-0.1681355
-3.804114	11	-0.6913278
-5.008234	11-12-vuoti	-0.1680588
-5.008234	11-12-vuotisile	-0.1451101
-5.309264	11.00	-0.1451146
-5.309264	11.novemberikuuta	-0.1681185
-5.309264	1138	-0.1654253
-3.656051	12	-0.6521001
-4.355021	12-13	-0.9999808
-4.832142	12.	-0.1559468
-5.309264	12.00	-0.1208595
-5.309264	12.15	-0.1561374
-5.008234	1200-luvula	-0.1584203
-5.309264	1200-luvun	-0.1681355
-5.309264	121	-0.1402935
-5.309264	125	-0.1681355
-3.601694	13	-1.173715
-5.309264	13-14	-0.1402935
-5.309264	13-jalkanen	-0.1451146
-5.309264	13.03.2011	-0.1208595
-5.309264	13.07.2011	-0.1208595
-5.008234	130	-1.184515
-3.765196	14	-0.8289545
-5.309264	14-15	-0.1679288
-4.610294	14-1500-	-0.7781342
-5.309264	14-16	-0.1669941
-5.309264	14.	-0.1681355
-5.309264	14.-21.09.2012	-0.1402935
-5.309264	144	-0.1680652
-5.309264	14:1-7	-0.1208595
-5.309264	14:56:00	-0.1681099
-5.309264	14:59:00	-0.1681099
-3.752961	15	-0.9754829
-5.309264	15,1-7	-0.1678542
-4.464166	15-1600-luvulta	-1.662302
-5.309264	15-vuotias	-0.1681206
-5.309264	15-vuotisesta	-0.1681334
-4.707204	15.	-0.4172293
-5.309264	15.02.	-0.168029
-5.309264	15.02.13	-0.1208595
-5.309264	15.02.2013	-0.1681334
-5.008234	150	-0.1680609
-5.309264	1500	-0.1668766
-5.309264	1500-1600	-0.1668766
-5.008234	1536-1559	-1.183444
-5.008234	1537	-1.184583
-3.804114	16	-2.007515
-5.309264	16-21	-0.1668766
-5.309264	16.	-0.1679991
-4.610294	160	-0.3301109
-4.832142	1600	-0.5685355
-4.610294	1600-	-0.7781406
-5.309264	1600-luvula	-0.1402935
-4.707204	1600-luvulta	-1.155474
-5.309264	164	-0.1680652
-5.309264	1642	-0.1451146
-5.008234	1645-1715	-1.183326
-4.355021	1680-luvulta	-0.976977
-3.765196	17	-0.8174686
-5.309264	17-vuotisena	-0.1451146
-4.309264	17.	-1.168095
-4.707204	17.00	-0.196627
-5.309264	17.01.2012	-0.1208595
-4.309264	1700-luvula	-1.882304
-5.309264	1700-luvun	-0.1681163
-5.309264	1732	-0.1208595
-5.008234	1734	-1.183397
-4.309264	1740	-1.870333
-5.008234	1740-luvula	-1.183397
-5.309264	1742	-0.1668766
-5.309264	1742–1745	-0.1451146
-5.309264	1745	-0.1677667
-5.008234	1747	-0.1195318
-4.355021	1748	-0.2329338
-5.008234	1750	-1.183397
-5.008234	1751	-1.183444
-5.008234	1770-luvula	-1.184525
-5.309264	1790-91	-0.1402935
-3.832143	18	-0.6426008
-5.309264	18,1-15	-0.1561374
-4.832142	1800-lopun	-0.2724109
-3.69648	1800-luvula	-0.6881774
-4.610294	1800-luvun	-0.7781406
-5.309264	1816	-0.1669941
-5.309264	1820-luvun	-0.1681185
-5.309264	1830	-0.1677348
-4.531113	1830-1860	-0.9438874
-4.531113	1840-luvula	-0.3162858
-5.008234	18482	-1.184523
-5.309264	1850-luvun	-0.1681355
-4.707204	1851	-0.4033161
-4.531113	1860-	-0.2058221
-4.464166	1860-luvula	-0.2101176
-5.309264	1863	-0.1681121
-5.309264	1870	-0.1402935
-5.008234	1871	-1.161564
-5.309264	1880-luvula	-0.1451146
-4.355021	1885	-0.9999808
-5.309264	1887	-0.1661473
-4.610294	1890	-0.3494846
-5.309264	1898	-0.1681185
-3.911324	19	-1.411028
-5.008234	19-20.	-1.184449
-5.008234	19.	-0.1561352
-5.309264	19.-20.	-0.1681291
-5.309264	19.02.2013	-0.1208595
-5.309264	19.05.2011	-0.1208595
-5.309264	19.12.08	-0.1561374
-4.309264	1900	-0.204911
-4.355021	1900-1910-luvula	-0.9721559
-4.832142	1900-luvun	-0.2724173
-4.832142	1904	-0.2722959
-5.309264	1905	-0.1451146
-4.309264	1917	-0.83915
-5.309264	1920-luvula	-0.1642746
-4.195321	1926	-1.203639
-4.707204	1928	-1.160359
-4.355021	1930-luvun	-1.122318
-5.309264	1932	-0.1402935
-5.309264	1933	-0.1673998
-3.283958	1934	-2.00154
-5.309264	1935	-0.1451146
-5.309264	1936	-0.1642746
-5.309264	1939	-0.1669941
-4.610294	1940	-0.1214916
-5.309264	1944	-0.1681185
-5.008234	1945	-0.1678904
-5.309264	1949	-0.1451146
-5.309264	1957	-0.168127
-5.309264	1961	-0.1681057
-5.309264	1962	-0.1679565
-5.309264	1964	-0.1402935
-5.309264	1966	-0.1402935
-5.309264	1967	-0.1561374
-5.309264	1968	-0.1402935
-4.832142	1969	-0.2724173
-5.309264	1970	-0.1661473
-5.309264	1970-	-0.1561374
-5.309264	1970-luvulta	-0.1679565
-5.309264	1975	-0.1677177
-5.008234	1978	-0.167658
-4.610294	1980	-0.2144846
-4.832142	1980-luvula	-0.5368122
-5.309264	1980-luvun	-0.1681163
-5.309264	1981	-0.1669941
-5.309264	1982	-0.1669941
-4.832142	1984	-0.1370007
-4.610294	1985	-0.1876549
-5.008234	1989	-1.184184
-5.309264	1993	-0.1451146
-4.832142	1994	-0.2445796
-4.832142	1995	-0.5397129
-5.309264	1997	-0.1402935
-5.008234	1998	-0.139024
-5.309264	1998-2002	-0.1402935
-5.008234	1999	-0.1658004
-5.309264	1:01-1:15m	-0.1680631
-5.309264	1:6	-0.1669941
-3.553389	2	-0.6253235
-5.309264	2,081	-0.1681206
-5.309264	2,18	-0.1681206
-4.832142	2,6	-0.272379
-4.707204	2-3	-0.2439017
-4.105144	2.	-0.5414233
-4.355021	2.8.	-0.9997741
-3.966841	20	-0.4297515
-5.309264	20-21.5.2010	-0.1402935
-5.309264	20-vuotisjuhlaa	-0.1402935
-4.832142	20.	-0.168078
-4.832142	20.09.12	-0.2724046
-5.309264	20.5.10	-0.1681142
-4.309264	200	-0.4086901
-5.309264	2000	-0.1677625
-5.008234	2002	-1.172587
-4.406174	2003	-0.2034988
-4.707204	2004	-0.3806581
-5.008234	2005	-0.12085
-4.464166	2006	-0.1774431
-4.309264	2007	-0.2499506
-5.309264	2007-2008	-0.1669941
-4.195321	2008	-0.5479848
-5.309264	2008-2009	-0.1657661
-4.230083	2009	-0.5871166
-4.832142	2009-2010	-0.4957474
-5.309264	201	-0.1680503
-3.966841	2010	-0.3587037
-4.230083	2011	-0.2232045
-5.309264	2011-2012	-0.1402935
-3.947536	2012	-0.5003082
-4.267871	2013	-0.3709899
-4.230083	21	-0.7960416
-5.309264	21,1-7	-0.1208595
-4.832142	21.	-0.2704334
-5.309264	21.02.2013	-0.1208595
-5.309264	21.06.2012	-0.1208595
-5.309264	21.07.2011	-0.1208595
-5.309264	21.5	-0.168127
-5.309264	21.6.2012	-0.1208595
-4.531113	21.7.	-0.2175965
-3.832143	21.7.1934	-1.463518
-4.008234	22	-0.6331325
-5.309264	22.00	-0.1402935
-4.832142	22.7.	-0.2723854
-4.355021	22.7.1926	-0.9721559
-3.987045	22.7.1934	-1.314579
-4.832142	22.7.26	-0.2445796
-4.531113	22.7.34	-0.1899783
-3.966841	23	-1.025021
-5.309264	23.	-0.1681355
-4.053991	23.7.	-0.536009
-3.686015	23.7.1926	-1.555027
-3.741062	23.7.1934	-1.551939
-4.832142	23.7.34	-0.2445796
-4.03051	24	-0.6902922
-5.309264	24.	-0.1681334
-5.309264	24.11.2011	-0.1208595
-3.8779	24.7.	-1.226295
-4.832142	24.7.1926	-0.2251456
-4.230083	24.7.26	-1.086099
-4.195321	25	-0.8487576
-4.832142	25.	-0.5687678
-5.309264	25.01.2012	-0.1208595
-3.777785	25.7.	-1.543725
-4.832142	25.7.1934	-0.2445796
-4.832142	250	-0.2723513
-4.053991	26	-0.9721329
-3.929053	26.7.	-0.8195392
-5.309264	261	-0.1681078
-4.309264	27	-0.5765964
-4.832142	27.	-0.2698915
-4.355021	27.7.	-0.2349279
-4.531113	27.7.1934	-0.1899783
-4.195321	28	-0.5628135
-4.832142	28.	-0.1680886
-5.309264	28.01.2012	-0.1681355
-4.832142	28.7.	-0.2723065
-4.355021	28.7.1934	-0.1568289
-4.406174	29	-0.6199504
-4.832142	29.7.	-0.2721978
-4.832142	29.7.1934	-0.2445796
-4.832142	29.7.34	-0.2445796
-3.593261	3	-0.6324474
-4.832142	3.	-0.1679458
-5.309264	3.-4.	-0.1681334
-4.163136	30	-0.348215
-5.008234	30-40	-1.184581
-5.309264	30.	-0.168127
-5.309264	30.-	-0.1208595
-3.929053	30.7.	-1.397714
-4.267871	31	-0.5772301
-5.309264	31.	-0.1681355
-5.309264	31.10.2011	-0.1208595
-4.832142	31.7.	-0.2723065
-4.610294	32	-0.3817595
-5.309264	323	-0.1677667
-4.406174	33	-0.2426837
-5.008234	33000	-1.184523
-3.568901	34	-1.162876
-4.832142	3400-4000	-0.2724173
-4.707204	35	-0.3999079
-5.309264	350	-0.1672995
-5.008234	3500	-1.175458
-4.610294	36	-0.274912
-5.309264	360	-0.1672995
-4.832142	37	-0.4903343
-5.309264	370	-0.1681014
-4.531113	38	-0.1387107
-5.309264	38.40	-0.1669941
-4.531113	3886	-0.2177584
-5.309264	39	-0.1402935
-5.309264	3net:lä	-0.1208595
-3.69648	4	-0.6141165
-5.309264	4,5	-0.1681312
-4.610294	4.	-0.3413429
-4.464166	40	-0.1298077
-5.008234	400	-1.184515
-4.610294	41	-0.274912
-4.406174	42	-0.3435018
-5.309264	427	-0.167658
-4.707204	43	-0.2158455
-5.008234	44	-0.1206266
-4.610294	45	-0.3144071
-5.008234	450	-1.184515
-5.008234	452	-1.184583
-4.832142	46	-0.1207478
-5.309264	47	-0.1681142
-5.008234	476	-1.184547
-5.008234	48	-0.1208547
-5.309264	482	-0.1680737
-5.309264	49	-0.1208595
-3.628023	5	-0.4707053
-5.309264	5,137	-0.1681206
-5.309264	5,7	-0.1681334
-5.309264	5-6	-0.1680801
-4.195321	5.	-0.5249953
-5.309264	5.12.2012	-0.1668766
-3.987045	50	-0.4945415
-5.309264	50-50	-0.1681355
-5.309264	50-60-luvule	-0.1402935
-5.008234	50.-	-1.137309
-4.707204	500	-0.2438313
-5.309264	51	-0.1679288
-5.008234	52	-0.1206266
-5.008234	53	-1.137309
-4.832142	54	-0.08969044
-5.309264	55	-0.1680652
-5.309264	550	-0.1645153
-5.309264	56	-0.1208595
-5.309264	57	-0.1208595
-5.008234	58	-0.1208571
-3.675795	6	-0.6116888
-4.832142	6.	-0.5687593
-5.309264	6.4.1996	-0.1669941
-4.133173	60	-0.9192171
-4.832142	60-	-0.2724173
-5.309264	60-luvun	-0.1681355
-5.309264	600	-0.1680652
-5.008234	60000	-1.181124
-5.008234	61	-1.137309
-5.309264	62	-0.1208595
-5.309264	620	-0.1680652
-3.947536	64	-1.180127
-5.008234	65	-0.1208571
-5.309264	65-vuotihaita	-0.1680695
-5.309264	66	-0.1208595
-5.309264	678	-0.1681334
-5.309264	68	-0.1208595
-3.752961	7	-1.383243
-5.309264	7-8	-0.1681334
-4.832142	7.	-0.5567739
-5.309264	7.-8.	-0.168127
-4.464166	70	-0.4360467
-4.832142	70-	-0.2604235
-4.531113	70-luvula	-0.1899783
-5.309264	700	-0.1680652
-4.610294	7000	-0.4599416
-5.008234	72	-0.1208547
-5.309264	73	-0.1679288
-5.309264	75	-0.1680652
-5.309264	78	-0.1681312
-5.309264	79	-0.1668766
-3.646506	8	-0.6978996
-5.309264	8-10	-0.1679288
-5.309264	8-15.30	-0.1208595
-4.832142	8.	-0.2724131
-4.531113	80	-0.3957125
-4.832142	80-luvuila	-0.2723981
-5.309264	8000	-0.1681078
-5.309264	815	-0.1681334
-5.309264	823	-0.1681078
-5.008234	878	-1.184583
-5.008234	88	-0.1681206
-5.309264	880.000	-0.1681014
-5.309264	89	-0.1451146
-4.832142	890	-0.5683607
-3.862106	9	-0.8366054
-5.008234	9-15	-1.156743
-5.309264	90	-0.1619532
-5.309264	900	-0.1208595
-4.832142	94	-0.2723321
-5.008234	95	-0.1208191
-5.309264	950	-0.168029
-4.707204	9716	-0.4144909
-5.008234	98	-1.184184
-4.832142	99,9	-0.2723875
-2.205802	:	-0.6477114
-4.707204	:/:Annatko	-0.4139505
-4.707204	:/:Kristus	-0.4152545
-4.531113	:/:Kuvasi	-0.208693
-4.707204	:/:Sie	-0.4145507
-4.707204	:/:Vanhaan	-0.4153057
-3.185412	;	-0.5574913
-5.309264	<	-0.1681312
-0.9865485	</s>
-99	<s>	-0.6371099
-3.27584	=	-1.343103
-2.100017	?	-3.162237
-5.008234	@	-1.184583
-4.707204	A	-0.4013826
-5.309264	A-A-AT-JUU	-0.1619532
-4.832142	A4	-0.2604235
-5.309264	A5	-0.1561374
-5.309264	AAA	-0.168127
-5.309264	AAN	-0.1681355
-5.309264	AD	-0.1451146
-5.309264	AI-ministeri	-0.1681355
-5.309264	AIKA	-0.1646743
-5.309264	AIKOMUKSET	-0.1681099
-5.309264	AKT	-0.1619532
-5.008234	ALAS	-0.1157022
-5.309264	ALETHIIN	-0.1681355
-5.309264	ALLA	-0.1208595
-3.379845	ANNAN	-2.335674
-5.309264	AOUUU	-0.1619532
-5.008234	APPUU	-1.178403
-5.309264	APPUUUUUU	-0.1619532
-4.610294	AS	-0.08911573
-5.309264	AS:ssä	-0.1451146
-5.309264	ATSJUU	-0.1619532
-4.053991	AU	-2.104388
-5.309264	AU-AUU	-0.1619532
-4.355021	AU-UU	-1.47767
-4.832142	AUTA	-0.2724173
-4.832142	AUU	-0.2662392
-5.309264	AUUU	-0.1619532
-5.008234	AVASI	-1.184583
-5.309264	Aafrikkhaan	-0.1619532
-4.610294	Aamen	-0.6909698
-4.707204	Aamu	-1.179523
-5.008234	Aamula	-0.1650028
-5.309264	Aamun	-0.1681312
-5.309264	Aamuruoka	-0.1681355
-5.309264	Aamuu	-0.1451146
-5.008234	Aapo	-0.161951
-5.008234	Aapo-faari	-0.1450517
-5.309264	Aarntnasaaresta	-0.1402935
-4.832142	Aaron	-0.2724173
-4.832142	Aaronile	-0.5409186
-4.531113	Aaronniemestä	-0.2058221
-4.531113	Aaronniemi	-0.1947994
-5.309264	Aarret	-0.1451146
-5.008234	Aasen	-0.1679501
-5.309264	Aaslakka	-0.1402935
-5.008234	Aasrud	-1.156743
-5.008234	Abrahaami	-0.156133
-5.008234	Abrahaamille	-1.156743
-5.008234	Adam	-1.184583
-5.309264	Adjunkt	-0.1681206
-5.008234	Adolph	-0.1681291
-4.406174	Agnes	-0.9849601
-5.309264	Agnesin	-0.1681312
-4.531113	Ah	-0.3658654
-4.230083	Ahaa	-1.111416
-5.309264	Ai	-0.1656054
-5.309264	Aijemat	-0.168127
-5.309264	Aijemin	-0.1590082
-4.406174	Aika	-0.9451131
-5.008234	Aikkaa	-1.175458
-4.309264	Aina	-0.2277087
-4.707204	Ainaski	-0.2438676
-5.309264	Ainoa	-0.1681291
-5.008234	Ainua	-1.184532
-5.309264	Ainuasthaan	-0.1681355
-5.309264	Ainuat	-0.1680673
-4.832142	Aitiruthoon	-0.2494007
-4.707204	Aittiruto	-0.3986066
-5.309264	Aivan	-0.1656054
-5.309264	Ajamako	-0.1681291
-5.309264	Ajan	-0.1675108
-5.309264	Ajatelkkaa	-0.1451146
-5.309264	Ajatella	-0.1451146
-5.309264	Ajattelkaa	-0.1681355
-5.008234	Ajattelkkaa	-1.184227
-5.309264	Ajatuksia	-0.1680908
-5.309264	Ajatus	-0.1642746
-5.309264	Ajo	-0.168078
-5.008234	Ajopuut	-1.183273
-5.309264	Akerhusin	-0.1681355
-5.309264	Akerhuussin	-0.1681334
-5.008234	Akerhyysin	-0.1681312
-5.008234	Akerhyyssin	-1.184583
-5.309264	Akerin	-0.1681355
-5.309264	Akersgatanilla	-0.1451146
-5.309264	Akkarviikassa	-0.1561374
-5.008234	Akkusativ	-1.183326
-5.008234	Aksel	-1.184581
-5.309264	Aktiviteeteissä	-0.1451146
-4.832142	Ala-Sammun	-0.2723747
-4.832142	Alala	-0.557273
-5.309264	Alama	-0.1679799
-5.309264	Alapuolella	-0.1661473
-5.309264	Alaskan	-0.1681355
-4.355021	Alat	-1.505865
-4.832142	Alatalossa	-0.2604235
-3.89429	Alattihoon	-0.4100196
-5.309264	Alattiissa	-0.1669471
-5.309264	Alattiista	-0.1668766
-4.707204	Alattio	-0.2208107
-5.309264	Alattio-Kautokeino	-0.1208595
-5.309264	Alattiojoven	-0.1681312
-5.008234	Alattiolaiset	-1.183749
-4.078815	Alattion	-0.5293416
-4.707204	Alattionjoki	-0.2312435
-4.464166	Alattionjoven	-0.8151839
-4.832142	Alattionjovessa	-0.2445796
-5.008234	Alattionjovesta	-1.172587
-3.846866	Alattiossa	-0.8257374
-3.987045	Alattiosta	-0.5502841
-5.309264	Alattiota	-0.1402935
-5.008234	Aldri	-1.184581
-5.309264	Aleksandersenin	-0.1669471
-4.078815	Alf	-0.6524922
-5.008234	Alkuk	-1.18453
-5.309264	Alkukansasana	-0.1590082
-5.309264	Alkukursi	-0.1669471
-5.309264	Alkuperäiskansoitten	-0.168127
-5.309264	All	-0.1681355
-4.531113	Alle	-0.2177947
-5.309264	Allmenn	-0.1681355
-4.832142	Almar	-0.5687572
-5.309264	Alnes	-0.1681099
-4.707204	Alt	-0.2438825
-5.309264	Alta	-0.1681078
-5.309264	Altassa	-0.1669941
-4.707204	Aluksi	-0.4151394
-4.464166	Alussa	-1.671417
-5.309264	Amateus	-0.1681312
-5.309264	Amatsoonassa	-0.1668766
-5.309264	Amatsooninjovessa	-0.1673998
-5.309264	Amazoonassa	-0.1451146
-5.008234	Amen	-1.156743
-5.309264	Ameriikan	-0.1681355
-5.309264	Amerikassa	-0.1680886
-4.309264	Amerikka	-1.140273
-5.008234	Amerikka-feeberi	-1.184568
-5.309264	Amerikkalainen	-0.1681355
-4.531113	Amerikkhaan	-0.2570491
-5.008234	Ammu	-0.1385909
-5.309264	Ampiaissii	-0.1619532
-5.309264	Ampulansi	-0.1590082
-5.309264	Amstidene	-0.1668766
-4.053991	Amtmani	-0.6036061
-5.008234	Amtmaniksi	-1.156743
-5.008234	Amtmanilla	-1.180724
-4.707204	Amtmanin	-1.183884
-4.707204	Amtmanista	-1.132152
-5.309264	Amy	-0.1681355
-4.832142	Anakonda	-0.1365907
-5.309264	Anakondahan	-0.1590082
-5.309264	Analoogisignaalile	-0.1679778
-4.610294	Andersen	-0.4077661
-5.008234	Andreaksen	-1.183326
-5.309264	Andreassen	-0.1590082
-5.309264	Anita	-0.1681355
-5.309264	Ankara	-0.1680481
-5.309264	Ankkuri	-0.1678584
-5.309264	Ann	-0.1681355
-3.628023	Anna	-0.5447881
-5.008234	Anna-Kreetan	-0.1451124
-5.008234	Anna-Kreettaa	-0.1450427
-4.832142	Annama	-0.167056
-4.008234	Annan	-0.9647143
-5.309264	Annapa	-0.1680226
-5.309264	Annasta	-0.1677177
-5.309264	Annatko	-0.1667719
-4.832142	Anne	-0.5163409
-5.008234	Annen	-0.1681312
-4.832142	Anni	-0.5457287
-4.832142	Annijoessa	-0.2494007
-5.008234	Annijokheen	-0.140289
-4.531113	Annijoki	-0.1947994
-5.309264	Annijovessa	-0.1681355
-5.309264	Annin	-0.1681312
-4.832142	Anstein	-0.56877
-4.355021	Antakkaa	-0.2412336
-5.309264	Antasitko	-0.1451146
-5.309264	Antesbyyn	-0.1681078
-5.309264	Antesbyyssä	-0.1451146
-5.309264	Antheeks	-0.167948
-4.406174	Antheeksi	-0.3627387
-5.008234	Antheeksiantaminen	-1.175458
-5.008234	Antheeksiantamisen	-0.1680801
-4.707204	Antheeksianto	-0.4199653
-5.309264	Antheenpyytäminen	-0.1590082
-4.707204	Antile	-0.3874722
-4.531113	Antin	-0.2723022
-5.309264	Antoi	-0.1675918
-4.707204	Antti	-0.4033161
-5.309264	Ap	-0.1681355
-5.309264	Apostoli	-0.1681249
-3.911324	Appuu	-1.408789
-5.309264	Apu	-0.167562
-5.309264	Apuna	-0.1642746
-5.008234	Arba-Kunninga	-1.172587
-4.832142	Arbeids-	-0.5565263
-5.309264	Arctic	-0.1681355
-5.008234	Ariniemen	-1.184528
-5.309264	Aristoteles	-0.1680545
-5.309264	Aristotelheen	-0.1680652
-5.309264	Arkkeolookit	-0.1680098
-5.008234	Arktisk	-0.1681334
-5.309264	Arlöv	-0.1402935
-5.309264	Armatta	-0.1679842
-5.309264	Armhoon	-0.1451146
-4.355021	Armo	-0.2350515
-4.707204	Armon	-0.2437951
-5.309264	Armonpenikän	-0.1681355
-5.008234	Armoo	-1.161564
-5.309264	Arne-Ivar	-0.1681334
-4.832142	Arnesa	-0.1156973
-5.008234	Arnesan	-0.1681249
-5.309264	Arnfinn	-0.1681355
-4.230083	Aronsen	-0.2429432
-5.309264	Aronsenile	-0.1673037
-4.832142	Artsdatabanken	-0.2700522
-4.832142	Artsdatabankenin	-0.2724173
-5.309264	Arvelus	-0.1675108
-5.309264	Arvid	-0.1681355
-5.309264	Arvidsson	-0.1680418
-5.008234	Arvosa	-0.168014
-5.309264	Arvostanko	-0.1659161
-5.008234	Asbestiranta	-0.166945
-5.309264	Aschehougin	-0.1681355
-4.832142	Asena	-0.2724067
-5.309264	Asettua	-0.1681312
-4.406174	Asia	-0.2793378
-5.309264	Asialista	-0.168127
-5.309264	Asian	-0.1680801
-4.832142	Aslakan	-0.2724152
-5.309264	Aslaksen	-0.1681334
-5.309264	Aspnallin	-0.1681355
-4.832142	Assii	-0.2723683
-5.309264	Assuuko	-0.1680524
-5.309264	Assuut	-0.1674723
-4.832142	Astrid	-0.1589821
-5.309264	Astu	-0.167916
-4.832142	Asuminen	-0.2723747
-4.230083	Asutus	-0.7951912
-4.832142	Asutusmalli	-0.2494007
-4.832142	Atlantterinmeren	-0.2724067
-5.309264	Atlantterinmertä	-0.1451146
-4.133173	Attila	-0.2514029
-5.008234	Attilaa	-0.1274869
-5.309264	Attilalle	-0.1681312
-5.008234	Attilan	-0.167867
-5.309264	Attilasta	-0.1451146
-5.309264	Atventinaika	-0.1590082
-3.947536	Au	-2.215739
-5.008234	Au-uu	-1.178403
-5.309264	Auka	-0.1677326
-5.008234	Aukaise	-1.184566
-5.309264	Aukustikuun	-0.1681121
-4.610294	Aukustus	-0.7742882
-5.309264	Auringonsilmhään	-0.1451146
-4.267871	Aurinko	-0.2738901
-5.309264	Australian	-0.1681355
-4.464166	Auta	-0.4504105
-5.309264	Autama	-0.1678755
-5.008234	Author	-1.184583
-4.707204	Autoriteetit	-0.4061869
-5.008234	Auttakaa	-0.1385909
-5.309264	Auttakka	-0.1451146
-5.008234	Auttuuđen	-1.184583
-5.309264	Autuas	-0.1590082
-5.008234	Autuhaat	-1.175458
-5.309264	Auu	-0.1619532
-4.832142	Aviisi	-0.5685568
-4.707204	Aviovaaran	-0.4292087
-5.309264	Avvaa	-0.168127
-5.309264	B	-0.1402935
-4.531113	BULLE	-0.1681163
-5.309264	Baaskifestivaalila	-0.1451146
-4.707204	Baden-Badenhiin	-0.3874722
-5.309264	Badstua	-0.1208595
-5.309264	Ballo	-0.1590082
-5.309264	Band-plaatassa	-0.1402935
-5.309264	Bandin	-0.1681355
-5.309264	Barentsinmeren	-0.1677923
-5.309264	Barentsinmerestä	-0.1451146
-4.531113	Bartimeus	-0.1581784
-5.309264	Beaivvášin	-0.1681334
-5.309264	Beate	-0.168095
-4.707204	Beatles	-0.1667911
-5.309264	Beatles-fenomeenile	-0.1561374
-5.309264	Beatles-showhiin	-0.1677348
-4.832142	Beatlesin	-0.1681142
-5.309264	Beddari	-0.1681334
-5.309264	Beijing	-0.1451146
-5.309264	Beijingissä	-0.1680822
-4.832142	Bente	-0.2724173
-5.309264	Bergset	-0.1657661
-4.832142	Berit	-0.2724173
-4.406174	Berlevågissa	-0.9263985
-5.309264	Berliinissä	-0.1451146
-5.309264	Berlininpulla	-0.1646743
-4.707204	Bertelsen	-0.1021326
-5.309264	Bespalova	-0.1451146
-5.309264	Betesda	-0.1451146
-5.309264	Betleheemhiin	-0.1681163
-5.309264	Betleheemissä	-0.1402935
-4.707204	Betsaidasta	-0.3922933
-5.309264	Biafra-hepo	-0.1677881
-5.008234	Bilbo	-1.184287
-4.707204	Biolooginen	-0.4152801
-4.832142	Bioloogisen	-0.2723854
-5.309264	Birkelund	-0.1680119
-5.309264	Birtaváris	-0.1451146
-5.309264	Birtavárri	-0.1451146
-5.309264	Bissojogas	-0.1402935
-4.610294	Bissojohka	-0.3509761
-5.309264	Bjarne	-0.1681334
-5.008234	Björn	-1.184574
-5.008234	Blackbird	-0.1681185
-5.309264	Blennow	-0.1681355
-5.309264	Bonyttii	-0.1402935
-5.008234	Borch	-1.183397
-5.309264	Borchin	-0.1672995
-5.309264	Brasiilian	-0.1681355
-5.309264	Bravoo	-0.1451146
-5.008234	Braya	-1.184583
-5.008234	Bredahl	-1.184574
-5.008234	Bremeniläinen	-0.1410403
-5.309264	Brenninger	-0.1681355
-5.309264	Brie-juustoa	-0.1402935
-5.309264	Brith	-0.168078
-5.309264	Britt	-0.1681355
-5.309264	Brorson	-0.1681355
-5.309264	Brosyyrin	-0.1590082
-5.008234	Brotherhood	-1.184581
-5.309264	Brundtlandin	-0.1680758
-5.309264	Budjetti	-0.1208595
-5.008234	Bugøynes	-1.137309
-5.309264	Bule	-0.1680183
-5.309264	Bulheen	-0.1402935
-5.008234	Buljo	-0.1208452
-2.676806	Bulle	-0.6015731
-3.718199	Bullea	-0.2730387
-5.309264	Bulleki	-0.168029
-4.832142	Bullela	-0.5645542
-4.309264	Bullele	-0.2918812
-3.752961	Bullen	-0.255509
-5.309264	Bulleoppspinn	-0.1646743
-5.309264	Bullesepitystä	-0.1669471
-4.707204	Bullesta	-0.4012417
-5.008234	Bullile	-0.1157022
-5.309264	Bullin	-0.1681035
-5.309264	Bush	-0.1678371
-5.309264	Bändin	-0.1681227
-5.309264	Börre	-0.1561374
-5.309264	Börren	-0.1678201
-4.610294	Børselv	-0.3060617
-5.309264	Børselvin	-0.1669941
-4.610294	Børsskog	-0.3442116
-4.531113	Børsskogin	-0.1680908
-4.832142	C-vitamiinii	-0.2445796
-5.309264	Cainothioth	-0.166712
-5.008234	Campanula	-1.184583
-5.309264	Can	-0.1678371
-5.008234	Canada	-1.184583
-5.309264	Canal	-0.1681355
-5.309264	Carlo	-0.1681355
-4.707204	Christian	-1.184579
-5.309264	Chrome	-0.1681355
-5.309264	Chrome-	-0.1561374
-5.309264	Chrome-linkin	-0.1680631
-5.309264	Chrome-netinlukijassa	-0.1402935
-5.309264	Chromen	-0.1681249
-5.309264	Cille	-0.1681355
-5.008234	Club	-0.1681334
-5.309264	Cousteau	-0.1590082
-5.309264	Culture	-0.1681355
-5.309264	Cwenas	-0.1451146
-4.832142	Cyclosporinmedisiini	-0.2713784
-5.309264	DA	-0.168127
-4.832142	DER	-0.2445796
-5.309264	DI	-0.1402935
-5.309264	DVD:ile	-0.1652645
-4.832142	Da	-0.2723172
-5.008234	Dag	-1.18454
-4.832142	Dalbakk	-0.5457332
-5.008234	Danielsen	-1.156743
-5.008234	Danmarck	-1.184583
-5.309264	Darffit	-0.1681355
-4.531113	Davvi	-0.2178096
-5.309264	Davvi-Kalohta	-0.1208595
-5.309264	Davvi-Romssas	-0.1402935
-4.832142	De	-0.2723257
-5.309264	Debatti	-0.1680162
-5.309264	Delfiineillä	-0.1590082
-5.309264	Delicious-nettipalveluksheen	-0.1402935
-5.309264	Demokraattiset	-0.1681355
-4.531113	Den	-0.3956848
-4.531113	Denne	-0.2721978
-5.309264	Departementti	-0.1590082
-5.309264	Departtimentit	-0.1680993
-5.008234	Departtimentti	-0.1589429
-5.008234	Desemberikuun	-1.184566
-5.309264	Desperaato	-0.1619532
-4.230083	Det	-0.2436651
-4.309264	Dette	-0.3238131
-5.309264	Digitaali-TV	-0.1681355
-4.832142	Digitaali-TV:n	-0.1679714
-5.309264	Digitaalinen	-0.1681334
-5.008234	Digitaaliset	-1.184583
-5.309264	Digital	-0.1402935
-5.008234	Diskuteeraamma	-1.183749
-5.309264	Divvun-prošektia	-0.1561374
-5.309264	Dix	-0.1681355
-5.309264	Diŋgojumit	-0.1654253
-5.008234	Dnepr-jovele	-1.172587
-5.309264	Dokumentasjon	-0.1678947
-4.707204	Dölgenin	-0.4280458
-4.610294	E	-0.1992503
-5.309264	E-eikä	-0.1681312
-5.309264	E-en	-0.1659161
-5.309264	E-post	-0.1654253
-5.008234	EEVA	-0.1681227
-5.008234	EI	-0.1402913
-5.309264	EIKÄ	-0.1681334
-4.531113	ELEMENT	-0.2154508
-4.531113	ELEMENTTI	-0.1705442
-4.707204	ELLÄIMET	-0.3922933
-5.309264	ELÄMÄ	-0.1681312
-4.008234	ENSIMÄINEN	-0.4395603
-5.309264	EPILOG	-0.1681035
-5.309264	ESTRAA	-0.1619532
-4.707204	ET	-0.4153078
-5.008234	Edison	-1.178403
-5.309264	Eelheenki	-0.1681312
-4.832142	Eesau	-0.1678392
-5.008234	Eesaun	-0.1674382
-5.309264	Eesausta	-0.1451146
-5.309264	Eessä	-0.1680226
-5.309264	Eestinmaata	-0.1451146
-5.309264	Eestistä	-0.1561374
-4.133173	Eeva	-0.2415174
-5.309264	Eeventyyrisistä	-0.1681355
-5.309264	Eeventyytit	-0.1681355
-5.008234	Eggeskall	-1.156743
-4.832142	Egil	-0.56877
-4.832142	Egyptissä	-0.2722426
-5.309264	Ehotethiin	-0.1674403
-5.309264	Ehotuksia	-0.1681355
-5.309264	Ehtoolisessa	-0.1681163
-5.309264	Ehðotus	-0.1680311
-2.906143	Ei	-0.4883563
-5.309264	Eiffelintornin	-0.1681078
-5.309264	Eiffelitornin	-0.1681355
-5.309264	Eih	-0.1681249
-3.862106	Eihän	-0.4249971
-3.72948	Eikä	-0.2829724
-3.987045	Eikö	-0.4545623
-5.309264	Eiköhän	-0.1680801
-4.707204	Eilen	-0.2185464
-5.309264	Einstein	-0.1619532
-5.309264	Einsteininki	-0.1451146
-5.008234	Eipä	-1.183662
-5.309264	Eipäs	-0.1681334
-4.832142	Eira	-0.2724131
-5.309264	Eitsvolin	-0.1681334
-5.309264	Eitsvolissa	-0.1681057
-5.309264	Ekaterina	-0.1681355
-4.832142	Ekkö	-0.2710579
-4.832142	Ekkös	-0.2710579
-5.309264	Ekrehään	-0.1679565
-5.309264	Ekreän	-0.1680886
-5.008234	Eksperttikomitea	-0.1589973
-5.309264	Eksperttikomitean	-0.1681355
-4.832142	Ekyptistä	-0.2723108
-5.008234	Elefantti	-1.184579
-5.309264	Elhoonjäämisen	-0.1680993
-5.309264	Eli	-0.1681312
-5.008234	Eliassen	-0.1451079
-4.230083	Eliisa	-0.8744347
-5.008234	Elisabeth	-0.1680844
-4.832142	Ellen	-0.2724173
-5.309264	Els	-0.1681355
-5.309264	Else	-0.1681035
-5.309264	Elvebåten	-0.1677326
-5.008234	Elä	-0.1671949
-5.008234	Eläkhöön	-0.1681334
-5.309264	Elämä	-0.1590082
-4.531113	Elämän	-0.3237813
-4.406174	Elättämisessä	-0.9542021
-5.309264	Email	-0.1681355
-5.309264	Emm	-0.1680844
-3.987045	Emmä	-0.2890348
-4.267871	Emmäkä	-0.4796168
-4.610294	Emmäkö	-0.4587204
-5.309264	Emmäkös	-0.1667034
-4.406174	Emäntä	-0.4144226
-3.248566	En	-0.7503932
-4.707204	Enets	-0.2437546
-4.355021	Enhän	-0.9977784
-5.309264	Enhään	-0.1658132
-4.610294	Enimet	-0.7781108
-5.008234	Enimmet	-0.1681227
-4.832142	Enimästi	-0.5648661
-4.163136	Enimät	-1.314227
-4.464166	Enkeli	-0.4741463
-5.309264	Enkelit	-0.1681057
-4.707204	Enkä	-0.2416843
-5.309264	Enkö	-0.1659161
-5.309264	Enneminki	-0.1657661
-3.79075	Ennen	-0.9450085
-5.309264	Ennenko	-0.1664575
-4.832142	Enniimet	-0.2723896
-5.309264	Enniimilä	-0.1673913
-5.309264	Enniimiten	-0.1680055
-4.531113	Enniin	-0.2176625
-5.309264	Enniiten	-0.1674041
-4.610294	Ennimmet	-0.2275945
-5.309264	Ennustiko	-0.1681099
-4.133173	Ensi	-0.2330055
-5.309264	Ensiksi	-0.1667034
-5.309264	Ensimmäinen	-0.1670923
-4.531113	Ensimäinen	-0.2079436
-5.008234	Ensimäisen	-0.1681121
-4.267871	Ensimäiset	-0.5840476
-5.309264	Ensin	-0.1681334
-4.355021	Ensisti	-0.1932193
-4.267871	Ensistä	-0.1907826
-5.309264	Entisheen	-0.1679927
-4.230083	Entä	-0.2174856
-5.008234	Entäpä	-0.1667697
-4.707204	Entäs	-1.183271
-4.309264	Enämen	-0.3053278
-5.309264	Enämpi	-0.1681185
-5.309264	Epäonneksi	-0.1677603
-5.309264	Epäselvä	-0.1681334
-5.008234	Eri	-1.184579
-5.309264	Erikoinen	-0.1681355
-5.309264	Erikoisesti	-0.1674318
-5.309264	Erikoista	-0.1679544
-4.406174	Eriksen	-0.2647357
-5.309264	Eriksenin	-0.1681355
-4.832142	Erilaiset	-0.2724109
-4.464166	Erilaisia	-1.671417
-4.832142	Erilaisila	-0.2724173
-5.008234	Eriliikaisesti	-0.1658968
-4.267871	Erittäin	-0.4810382
-4.832142	Erkinpojan	-0.2723768
-5.008234	Erland	-1.184583
-5.008234	Erling	-1.184545
-5.309264	Esauta	-0.1451146
-4.355021	Esbensen	-1.482987
-4.832142	Esekielin	-0.2723129
-4.355021	Esimerkiksi	-0.7721217
-4.832142	Esimerkki	-0.2724173
-4.707204	Esimerkkii	-0.2405692
-5.008234	Essiv	-1.184427
-4.267871	Et	-0.2157083
-5.309264	Etelä-Aafrikkaa	-0.1561374
-5.309264	Etelä-Franska	-0.1669941
-5.309264	Etelä-Ranskassa	-0.1208595
-4.832142	Etelä-Ruijassa	-0.2604235
-5.008234	Etelä-Ruiðassa	-0.1646721
-5.309264	Etelä-Tromssassa	-0.1402935
-5.309264	Etelä-Varengin	-0.1681355
-4.832142	Etelä-Varenkhiin	-0.2632943
-5.309264	Eteläiselä	-0.1680652
-5.309264	Etelänpuolela	-0.1402935
-5.309264	Eteläpuulenilla	-0.1669471
-5.008234	Etelästa	-1.184579
-4.832142	Etheenpäin	-0.5392296
-4.163136	Ethän	-1.176053
-4.355021	Etkö	-0.7746286
-5.309264	Etkös	-0.1681206
-5.309264	Etniset	-0.1681014
-5.309264	Etnisyys	-0.1590082
-5.008234	Etpä	-0.1680908
-4.163136	Ette	-0.453293
-4.531113	Että	-0.9399769
-5.309264	Ettähän	-0.1677006
-5.309264	Ettäko	-0.1677006
-4.832142	Ettäkö	-0.5683265
-5.309264	Ettämitä	-0.1646743
-5.309264	Ettäs	-0.1677006
-5.008234	Euroo	-1.184583
-3.832143	Euroopan	-0.2923647
-4.053991	Euroopassa	-0.4032471
-5.008234	Euroopassaki	-1.184574
-4.832142	Eurooppaa	-0.5687508
-5.309264	Euroopparaati	-0.1590082
-4.832142	Euroopparaatin	-0.1681312
-5.309264	Europaassaki	-0.1681249
-5.008234	Europarådets	-0.1681334
-5.309264	Europas	-0.1681355
-5.309264	Euruupassa	-0.1590082
-5.008234	Evankeliumi	-0.1589973
-5.309264	Evankeliumin	-0.1681355
-5.309264	Evelina	-0.1681355
-5.309264	Expology	-0.1681227
-5.309264	Eyvind	-0.1681355
-5.309264	Eðelisessä	-0.168127
-4.531113	Eðessä	-0.208693
-5.309264	FAARI	-0.1681334
-5.309264	FAARTILA	-0.1681334
-5.309264	FAD	-0.1680098
-4.610294	FORDYPNINGSTEKSTER	-0.7757797
-5.309264	FORT	-0.1681355
-5.309264	FRSPT	-0.1619532
-5.309264	FYSJ	-0.1619532
-4.163136	Faari	-0.5842668
-4.832142	Facebook	-0.5684865
-5.309264	Facebook-kielen	-0.1681355
-5.309264	Facebook.com/Kvenskinstitutt	-0.1681355
-5.309264	Facebookia	-0.1678584
-4.355021	Facebookin	-0.1994342
-4.707204	Facebookissa	-0.3948014
-5.309264	Facebookkia	-0.1590082
-5.309264	Facebookkii	-0.1590082
-5.309264	Fagdeparttimentit	-0.1451146
-4.832142	Fakta	-0.2632943
-4.531113	Falkki	-0.1947994
-5.309264	Fangile	-0.1681291
-5.309264	Fankila	-0.1642746
-4.832142	Fant	-0.2723513
-5.309264	Fantastinen	-0.1681057
-5.309264	Fantastista	-0.1451146
-4.707204	Fariseukset	-0.4151288
-4.832142	Feetun	-0.2722767
-4.832142	Ferskmaten	-0.2723044
-5.309264	Festisalissa	-0.1590082
-5.008234	Festningin	-0.1402913
-5.309264	Fierva	-0.1658132
-4.832142	Figuuri	-0.2723683
-5.008234	Fiini	-0.1681185
-5.008234	Fiinit	-0.1679757
-5.309264	Fil	-0.1681355
-4.707204	Filipin	-0.4149987
-4.406174	Filippi	-0.4147001
-5.008234	Filmi	-0.167916
-5.008234	Filmin	-0.1679224
-5.309264	Finland	-0.1657661
-5.309264	Finmark	-0.1681163
-4.832142	Finmarkhuun	-0.1266461
-4.133173	Finmarkkhuun	-0.9307429
-4.105144	Finmarkule	-1.273989
-3.89429	Finmarkun	-0.6885335
-5.309264	Finmarkun-roomii	-0.1561374
-5.309264	Finmarkunlaki	-0.1642746
-5.309264	Finmarkunominaisuuðessa	-0.1590082
-4.832142	Finmarkuntunturin	-0.2724173
-5.309264	Finmarkuntunturissa	-0.1681291
-3.69648	Finmarkussa	-0.9816419
-4.832142	Finmarkussaki	-0.272249
-5.309264	Finmarkusta	-0.1451146
-5.309264	Finn	-0.1681035
-5.309264	Finnetinka	-0.167643
-5.008234	Finnmarkenin	-1.184583
-5.309264	Finnmarkens	-0.1681355
-5.309264	Fiolettiparta	-0.1590082
-5.309264	Firefox-netinlukijhaan	-0.1402935
-5.309264	First	-0.1681355
-5.309264	Fisj	-0.1619532
-5.309264	Fiskariila	-0.1590082
-5.309264	Fiskaripuunana	-0.1681355
-5.309264	Fisket	-0.1681291
-3.646506	Fisku	-1.211277
-5.309264	Flinkestinke	-0.1646743
-5.309264	Flinkki	-0.1681355
-5.008234	Forbund	-0.1451124
-4.832142	Fordi	-0.2724131
-5.309264	Fordypning	-0.1677326
-5.309264	Forlaaki	-0.1681355
-5.008234	Forlaakit	-1.184574
-4.832142	Fornyings-	-0.2494007
-5.309264	Foto	-0.1654253
-5.008234	Foyn	-0.1642725
-5.309264	Frank	-0.1681355
-5.309264	Franskanmaala	-0.1451146
-5.309264	Franskanmaale	-0.1402935
-5.309264	Franskassa	-0.1451146
-4.464166	Franskasta	-1.648409
-5.309264	Fre-hiwet	-0.1451146
-5.008234	Frederich	-1.184583
-5.309264	Freis-taama	-0.1681355
-5.309264	Freistaa	-0.1674041
-5.309264	Freistaaks	-0.1657661
-5.309264	Freistaama	-0.16769
-5.309264	Freistaan	-0.1679394
-5.309264	Freistaatko	-0.1667719
-5.309264	Freistathaanko	-0.1664575
-4.832142	Frouva	-0.158416
-5.309264	Fräkimppää	-0.1676836
-5.309264	Fund	-0.1208595
-5.008234	Fysj	-1.178403
-5.309264	Fyyrstikki	-0.1681355
-5.309264	Färit	-0.1681355
-5.309264	G.:n	-0.1674403
-4.707204	Galilean	-0.4153078
-5.309264	Gandhia	-0.1673998
-4.832142	Geneettinen	-0.2723875
-5.309264	Generelt	-0.1681334
-5.008234	Genitiv	-1.184427
-5.008234	George	-0.1681014
-5.309264	Get	-0.1654253
-5.309264	Giellateknoa	-0.1645153
-5.309264	Gii	-0.1680204
-5.309264	Giv	-0.1672995
-5.309264	Glomm	-0.168029
-5.309264	Golffinvirralta	-0.1451146
-5.309264	Golffivirrale	-0.1650628
-5.008234	Golfivirrale	-1.181512
-5.309264	Gollegiella	-0.1680886
-5.309264	Golnesas	-0.1451146
-5.309264	Grammatiikkityön	-0.1677603
-5.309264	Gramstad	-0.1657661
-5.309264	Greasemonkey-skripti	-0.1590082
-5.309264	Gro	-0.1681355
-5.309264	Grundtvig-prošektissa	-0.1451146
-5.309264	Grönlanttii	-0.1619532
-5.309264	Guds	-0.1681355
-5.008234	Gunn	-1.184583
-4.707204	Gunnar	-0.4153078
-5.309264	Gustav	-0.1681355
-5.309264	Gute	-0.1681355
-5.309264	Guttorm	-0.1678947
-4.531113	Gyldendal	-1.184549
-5.309264	Gymnaasin	-0.1677348
-4.531113	Gyrodactylus	-0.2601846
-5.309264	GÆRN	-0.1678371
-4.707204	H	-0.4013849
-5.309264	H-hänelä	-0.1590082
-5.309264	HAA	-0.1402935
-5.008234	HAH	-1.156743
-5.309264	HAIJISTA	-0.1619532
-4.707204	HALVAIS	-0.4153078
-4.610294	HANNA	-0.775439
-4.610294	HANNUN	-0.7781406
-4.105144	HANSEN	-1.227737
-5.309264	HATUT	-0.1619532
-5.309264	HEE	-0.1402935
-5.008234	HEH	-1.156743
-5.309264	HEIÐÄT	-0.1451146
-4.832142	HER	-0.2445796
-5.309264	HERRATON	-0.1681355
-5.309264	HERÄSI	-0.1681227
-5.008234	HIH	-1.156743
-5.309264	HII	-0.1619532
-5.309264	HIRMUSEN	-0.1681355
-4.832142	HIV-	-0.2494007
-5.008234	HUH	-1.156743
-5.309264	HUHUT	-0.1681355
-4.832142	HUK	-0.2662392
-5.309264	HURJALA	-0.1681355
-5.309264	HUU	-0.1619532
-5.309264	HUUT	-0.1619532
-4.610294	HUUÐETHAAN	-0.775439
-5.309264	HYVÄN	-0.1681355
-5.309264	Ha	-0.1681121
-4.832142	Ha-ha-haa	-0.2662392
-5.309264	Ha-haa	-0.1619532
-4.355021	Haavisto	-0.8483703
-4.133173	Hah	-1.238172
-5.309264	Hahhaa	-0.1619532
-4.531113	Haiju	-0.1444333
-5.309264	Hajema	-0.1681312
-5.309264	Hakasuluissa	-0.1680098
-5.008234	Hakekkaa	-0.1681291
-5.309264	Halkkeekhoon	-0.1672931
-5.309264	Halkovaara	-0.1681355
-5.309264	Hallitus	-0.1680183
-5.008234	Hallitusherrat	-1.184485
-4.610294	Halloo	-0.3271519
-5.309264	Halluu	-0.1646743
-5.008234	Halluuma	-1.178403
-5.309264	Halluutko	-0.168014
-5.309264	Halluuttako	-0.1681355
-5.309264	Halonen	-0.1208595
-5.309264	Halosen	-0.1681249
-4.267871	Halti	-0.5097464
-5.309264	Haltia	-0.1657661
-5.309264	Haltian	-0.1681355
-4.531113	Haltiin	-0.217143
-5.309264	Haluatkos	-0.1681206
-5.309264	Halvaakko	-0.1667719
-5.309264	Halvaaks	-0.1679714
-5.309264	Halvaatko	-0.1681355
-5.309264	Halvaattakos	-0.1677006
-5.309264	Halvan	-0.1680737
-5.309264	Halvard	-0.1451146
-5.008234	Haminhaan	-1.183647
-5.309264	Hamphaansärkykö	-0.1646743
-5.309264	Hamphaat	-0.1451146
-5.309264	Hamphaitten	-0.1681334
-5.309264	Hampurin	-0.1681355
-5.008234	Hamsunhiin	-1.172587
-5.309264	Han	-0.1681334
-4.531113	Hanna	-0.1947994
-4.531113	Hannun	-0.2178096
-4.03051	Hans	-0.1896731
-4.531113	Hansen	-0.9056381
-4.832142	Hansenin	-0.1681163
-5.309264	Hanseninfierualta	-0.1677518
-5.309264	Hansi	-0.167355
-5.309264	Hansikhaan	-0.1681014
-5.309264	Hansilta	-0.1451146
-4.707204	Hansin	-0.1670047
-5.309264	Hanssen	-0.1677625
-5.008234	Hanti	-1.184434
-5.309264	Har	-0.1681142
-5.309264	Harakankello	-0.1669471
-5.309264	Harakankello*	-0.1669471
-4.832142	Hardangerintunturista	-0.2723875
-5.008234	Harjotukset	-1.184583
-5.309264	Harlem	-0.1681355
-5.008234	Harmi	-1.137309
-4.707204	Harri	-0.4152907
-4.309264	Harriet	-1.041367
-5.309264	Harrisonin	-0.1681355
-5.309264	Hars	-0.1672995
-5.309264	Harstad	-0.1673998
-4.464166	Harvassa	-1.671383
-4.355021	Harvat	-0.9999425
-5.309264	Harvoin	-0.1668381
-5.309264	Hattestaati	-0.1619532
-5.309264	Hattukaupassa	-0.1590082
-4.832142	Haukka	-0.2723001
-5.008234	Hauta	-1.175458
-5.309264	Hauđan	-0.1680332
-5.309264	Havlandet	-0.1657661
-4.355021	Havlanthiin	-0.976977
-5.309264	Havningberg	-0.1642746
-5.309264	Havningberghiin	-0.1402935
-5.309264	Havningbergissä	-0.1402935
-4.832142	Havregrøt	-0.2723854
-5.008234	He	-1.161564
-5.309264	He-he-hee	-0.1619532
-5.008234	Hearts	-1.184583
-5.309264	Heftet	-0.1208595
-5.309264	Heh	-0.1451146
-3.947536	Hei	-0.5269656
-5.309264	Hei-hei	-0.1451146
-4.832142	Heikin	-0.1681099
-5.008234	Heikistä	-1.161564
-4.230083	Heikki	-0.2737446
-5.309264	Heile	-0.1681227
-3.777785	Heilä	-1.329198
-5.309264	Heinike	-0.1681334
-5.008234	Heinsoo	-0.1680396
-4.133173	Heinän	-2.002363
-5.008234	Heittäkkää	-1.184387
-5.309264	Heittääkkää	-0.1681355
-4.309264	Heitä	-0.6591377
-5.309264	Heitämä	-0.1679373
-5.008234	Heivaa	-1.184481
-5.309264	Heivakkaa	-0.1680311
-4.707204	Heiðän	-0.414619
-4.832142	Heiðät	-0.1671351
-4.406174	Heiđän	-0.6590483
-5.008234	Helena	-0.1157022
-5.309264	Helluntaipäivänä	-0.168127
-5.309264	Helmet	-0.168127
-5.309264	Helmimiljonäärit	-0.1658132
-5.008234	Help	-0.1208476
-5.309264	Helpin	-0.1679927
-5.309264	Helpistä	-0.1681334
-5.309264	Helppohan	-0.1652645
-5.309264	Helsinglanthiin	-0.1451146
-4.832142	Hengelä	-0.5330902
-4.309264	Hengen	-0.6622683
-4.355021	Hengessä	-0.4395948
-5.309264	Hengestä	-0.1673037
-4.832142	Henkee	-0.2445796
-4.309264	Henkheen	-1.01837
-4.531113	Henki	-0.3720844
-4.707204	Henkkee	-0.3874722
-4.832142	Hepa	-0.5392296
-4.531113	Hepo	-0.2116379
-5.008234	Her	-1.184583
-5.309264	Herborg	-0.1451146
-5.008234	Herman	-0.1324514
-5.309264	Hermanni	-0.1451146
-5.309264	Hermostunheempi	-0.1645153
-5.309264	Herootes	-0.1619532
-3.099749	Herra	-0.7457525
-4.355021	Herraa	-0.3050022
-4.464166	Herrale	-0.1899031
-3.947536	Herran	-0.770325
-5.309264	Herranen	-0.1680609
-5.309264	Herregud	-0.1646743
-4.267871	Herrhaan	-1.18646
-4.707204	Herrää	-1.160573
-5.309264	Heräsi	-0.1681014
-5.309264	Herätä	-0.1680439
-5.309264	Herätä-mäkö	-0.1674318
-4.832142	Hestaniemi	-0.2723342
-2.862106	Het	-0.5184583
-5.008234	Hetelmä	-0.1588864
-5.309264	Hetelmässä	-0.1652645
-5.309264	Hethän	-0.1681355
-3.929053	Heti	-0.4323875
-5.008234	Hetipä	-1.184583
-5.008234	Hetki	-0.1673763
-5.309264	Hetkinen	-0.1451146
-5.309264	Hevon	-0.1675108
-4.610294	Hevonen	-0.4510156
-5.309264	Hevonenko	-0.1681291
-4.610294	Hevosela	-0.7781406
-5.008234	Hevosen	-1.184376
-5.309264	Hevosenhäntä	-0.1619532
-5.309264	Hevosenkenkä	-0.1681078
-5.309264	Hevosniemessä	-0.1402935
-5.008234	Heät	-1.161564
-5.309264	Heðelmä	-0.1680822
-5.309264	Hi	-0.1451146
-5.309264	Hi-hii	-0.1619532
-5.008234	HiF	-1.183444
-5.309264	Hienon	-0.1681355
-5.309264	Hienot	-0.1681355
-5.008234	Hieromapuu	-1.184583
-5.008234	Hih	-1.161564
-5.309264	Hii	-0.1619532
-5.008234	Hiiri	-0.161951
-5.309264	Hilde	-0.1681312
-5.309264	Hildonen	-0.1561374
-4.707204	Hildur	-0.4062174
-5.309264	Hildurin	-0.1680673
-5.008234	Hiljaa	-0.1441227
-4.707204	Hiljan	-0.4150648
-4.610294	Hiljemin	-0.1409314
-5.309264	Hilkan	-0.1674403
-4.610294	Hilkka	-0.1410312
-5.309264	Hilkka-kulta	-0.1619532
-5.309264	Hilkkaki	-0.1680076
-4.832142	Hilko	-0.5457466
-4.832142	Hilla	-0.2724046
-4.464166	Hillan	-1.671417
-4.355021	Hillankokoaminen	-0.996137
-5.309264	Hilma	-0.1451146
-5.309264	Hilma-muorile	-0.1451146
-5.309264	Hilma-muorilta	-0.1681355
-5.309264	Hilman	-0.1681355
-4.464166	Hinta	-0.3550043
-5.309264	Hip	-0.1561374
-5.309264	Hirmu	-0.1681312
-5.309264	Hirmuisesti	-0.1679757
-5.309264	Hirviön	-0.1681355
-5.309264	Histoorian	-0.1679927
-5.309264	Histuuriako	-0.1681142
-5.008234	Hithaasti	-0.1441227
-5.309264	Hitiis	-0.1619532
-5.008234	Hitis	-1.178403
-4.832142	Hjemmebakt	-0.2724173
-5.309264	Hjyystönhiin	-0.1646743
-4.610294	Hm	-0.3025865
-4.309264	Hmm	-0.9828765
-5.008234	Hmmm	-0.161103
-5.309264	Hogne	-0.1681312
-5.008234	Hoh	-1.161564
-5.309264	Hokkijälmi	-0.1673998
-5.309264	Hoksaakkos	-0.1667719
-5.309264	Hoksaaks	-0.1667719
-4.464166	Hollandista	-1.648409
-5.309264	Holmenes	-0.1681355
-5.309264	Holmenesa	-0.1681355
-5.309264	Holmenesin	-0.1680588
-5.309264	Honningsvågissa	-0.1669941
-4.610294	Hoo	-0.3276606
-4.832142	Hoorepin	-0.2724173
-5.309264	Hopp	-0.1451146
-5.309264	Hoppu	-0.1681312
-4.832142	Hopusti	-0.2662392
-4.267871	Hosianna	-1.895403
-5.309264	Hotel	-0.1681249
-5.309264	Hotell	-0.1680865
-5.309264	Hou	-0.1451146
-5.309264	Houk	-0.166712
-5.309264	Houston	-0.1451146
-5.309264	Houstonhiin	-0.1657661
-5.309264	Hove	-0.1681035
-5.309264	Hovseeteristä	-0.1681163
-5.309264	Hovseetterin	-0.1681355
-5.309264	Hovseetterissä	-0.1402935
-5.309264	Hrrr	-0.1619532
-5.309264	Hu-hulluinen	-0.1681355
-5.309264	Hu-huuuu	-0.1619532
-5.309264	Huff	-0.1619532
-4.267871	Huh	-0.4748685
-5.309264	Huh-huu	-0.1619532
-5.008234	Huhuuu	-1.178403
-4.832142	Hui	-0.2662392
-4.707204	Huiii	-0.4091318
-5.309264	Huippulannaus	-0.1619532
-5.309264	Huitfeldt	-0.1402935
-4.309264	Hukka	-0.7029363
-5.309264	Hullu	-0.1680524
-5.309264	Hullu-Bulleksi	-0.1402935
-5.008234	Hullun	-0.1681312
-5.309264	Hulluutta	-0.1619532
-5.008234	Hummeri	-0.1642725
-5.309264	Hummeri-biilin	-0.1657661
-5.008234	Hummerin	-0.1402526
-5.309264	Hummeristinsa	-0.1674403
-5.309264	Humpuuki	-0.1619532
-5.309264	Hunteeraapa	-0.1680311
-5.309264	Hunteeran	-0.1451146
-4.707204	Huok	-1.177553
-5.008234	Huomaakkaa	-0.1418718
-5.309264	Huomaamako	-0.1650628
-5.309264	Huomaattako	-0.1650628
-4.832142	Huomena	-0.1412512
-5.309264	Huomenaki	-0.1590082
-5.309264	Huomenna	-0.1451146
-5.309264	Huomio	-0.1672995
-5.309264	Huone	-0.1658132
-5.309264	Huonet	-0.1681334
-5.309264	Huonheen	-0.1657661
-5.309264	Huonoin	-0.1681355
-5.309264	Huonoja	-0.1681249
-5.309264	Huonompi	-0.1650628
-5.309264	Huonosti	-0.1652645
-5.309264	Huonot	-0.1681355
-5.309264	Husj	-0.1619532
-5.309264	Huuh	-0.1619532
-5.309264	Huutakkaa	-0.16769
-5.309264	Huuðama	-0.1674873
-4.610294	Hva	-0.3628675
-5.309264	Hvem	-0.1680929
-5.008234	Hvor	-0.1680886
-5.309264	Hvordan	-0.1681355
-5.008234	Hvorfor	-1.184579
-5.309264	Hydrofonit	-0.1681249
-5.309264	Hykset	-0.1681355
-5.309264	Hyp	-0.1619532
-5.309264	Hyppää	-0.1451146
-4.531113	Hys	-0.2116379
-5.008234	Hysj	-0.1385909
-5.309264	Hyttetyy	-0.1451146
-5.309264	Hytän	-0.1667034
-4.832142	Hyv	-0.2724173
-4.406174	Hyvin	-0.9821019
-3.406174	Hyvvää	-1.288619
-4.008234	Hyvä	-0.5612583
-4.406174	Hyväksykkää	-0.3177191
-5.309264	Hyväksythiin	-0.168127
-5.309264	Hyvämieli	-0.1561374
-4.464166	Hyvän	-1.671415
-4.03051	Hyvästi	-0.4281664
-5.309264	Hyvät	-0.1681355
-5.309264	Hyysikkä	-0.1681355
-5.309264	Hyysikkääkö	-0.1646743
-5.008234	Hyät	-0.1681291
-5.309264	Hyökkäys	-0.1681355
-5.309264	HÄYTTYY	-0.1681334
-5.309264	Hálkavárri	-0.1681355
-5.008234	Hä	-1.161564
-4.832142	Häfti	-0.1664233
-4.464166	Häftin	-0.3549724
-4.832142	Häftissä	-0.16625
-4.707204	Häh	-0.2172366
-5.309264	Häihin	-0.1681312
-5.309264	Häirittinkö	-0.1659161
-5.309264	Häivy	-0.1680418
-4.610294	Hällä	-0.7690219
-2.751757	Hän	-0.5604913
-4.707204	Hänele	-0.2438654
-3.966841	Hänelä	-1.348653
-5.008234	Hänelähän	-0.1566343
-3.741062	Hänen	-0.3278704
-5.008234	Hänestä	-1.175458
-5.309264	Hänhän	-0.1590082
-5.309264	Hänki	-0.1642746
-5.008234	Hänkö	-0.158993
-5.008234	Häntä	-1.175458
-4.707204	Häppeekkää	-1.155041
-5.309264	Häppeetä	-0.1652645
-5.309264	Häppyy	-0.1681334
-5.008234	Hävetä	-0.1681291
-4.832142	Hävittäminen	-0.2632943
-5.309264	Häydymäpä	-0.1681035
-5.309264	Häyttyykö	-0.1675108
-5.309264	Häytyykö	-0.1681355
-4.707204	Häyðymä	-0.4283512
-4.707204	Häyðyn	-0.1675598
-4.832142	Hää	-0.1403503
-5.309264	Häätyy	-0.1680822
-5.309264	Hääväkkee	-0.1681355
-5.008234	Håkon	-0.1561352
-5.008234	Hætta	-0.1681227
-5.008234	Höh	-1.178403
-5.309264	Höyhensaaresta	-0.1619532
-5.309264	Höövetsmannin	-0.1681312
-4.105144	I	-0.6663495
-5.008234	ID2	-1.181875
-5.309264	IHMETTÄ	-0.1619532
-5.309264	IHMISEN	-0.1681355
-5.008234	III	-1.183397
-5.309264	III-HAAA	-0.1619532
-5.008234	III:n	-1.184577
-4.832142	IKS	-0.1588994
-5.309264	ILLAN	-0.1208595
-5.309264	ILMAPALJOI	-0.1619532
-5.309264	INTERAKTIIVI	-0.1681355
-4.610294	INTERAKTIIVINEN	-0.7781385
-4.531113	INTERAKTIVT	-0.2178096
-5.309264	IPTV:ksi	-0.1561374
-5.309264	IT	-0.1402935
-5.309264	IT-palvelus	-0.1669471
-5.309264	ITEAN	-0.1208595
-5.309264	IV	-0.1681291
-4.355021	Idar	-0.2005788
-5.008234	Idiotius	-0.1681334
-5.008234	Idiotus	-1.184583
-4.832142	Iesus	-0.2724173
-5.309264	Iha-anaa	-0.1619532
-5.309264	Ihaaaaana	-0.1619532
-5.309264	Ihaaaana	-0.1619532
-4.832142	Ihana	-0.1618256
-5.008234	Ihanaa	-0.1336964
-5.309264	Ihmeelistä	-0.1652645
-5.309264	Ihminen	-0.1681334
-5.309264	Ihmis	-0.1681355
-5.309264	Ihmisela	-0.1680758
-5.309264	Ihmiselle	-0.1678989
-4.406174	Ihmisen	-0.9729353
-3.911324	Ihmiset	-0.2426129
-5.309264	Ihmisillä	-0.1590082
-4.707204	Ihmisjoukko	-0.4144824
-5.008234	Ihmisjoukon	-1.172587
-4.832142	Ihmiskansa	-0.2632943
-5.008234	Ihmissii	-0.1672162
-5.008234	Ii	-1.182055
-5.309264	Iiiiiik	-0.1619532
-5.309264	Iisakki	-0.1402935
-5.309264	Ikaros	-0.1619532
-5.008234	Ikuinen	-1.18457
-5.008234	Ikuisesti	-1.181714
-5.008234	Ikävä	-1.184238
-5.309264	Ilma	-0.1590082
-5.309264	Ilman	-0.1681355
-5.309264	Ilmatooli	-0.1681334
-5.008234	Iloinen	-1.184583
-5.309264	Iloisena	-0.1677006
-5.309264	Iloisissa	-0.1681355
-5.309264	Iloitte	-0.1451146
-5.309264	Iloitten	-0.1679885
-5.008234	Ilokkaa	-1.172587
-5.008234	Ilola	-0.1442308
-5.309264	Iltavalaistus	-0.1681355
-5.309264	Iltavalkkee	-0.1669471
-4.832142	Ilttaa	-0.5384033
-4.832142	Imerslund	-0.1350046
-5.309264	Inarinjärven	-0.1402935
-5.008234	Indian	-1.184583
-5.008234	Inessiv	-1.183397
-5.309264	Infrastruktuuri	-0.1681355
-5.309264	Inger	-0.1681355
-4.406174	Ingeri	-0.1616116
-5.309264	Ingerin	-0.1681163
-5.309264	Ingrian	-0.1681312
-5.309264	Ingrisk	-0.1679842
-4.832142	Inkeri	-0.1450113
-5.309264	Inkeri-rakkhaan	-0.1674403
-5.309264	Inkerisuomalaisista	-0.1680503
-5.008234	Inkeröinen	-1.184434
-4.832142	Insektit	-0.2604235
-5.309264	Institutile	-0.1681355
-4.707204	Institutin	-0.1681014
-5.309264	Institutissa	-0.1590082
-5.309264	Institutt	-0.1681355
-4.707204	Institutti	-0.1666885
-5.309264	Inter	-0.1681355
-5.008234	Interesanttia	-0.1385909
-4.464166	Interessanttia	-0.2958192
-5.008234	Intonaati	-1.175458
-5.309264	Investeeraminen	-0.1680886
-5.309264	Invitasjon	-0.1451146
-5.309264	Iotova	-0.1561374
-4.707204	Irene	-0.2438676
-5.008234	Irlannisssa	-1.184581
-5.309264	Is	-0.1681227
-4.832142	Isak	-0.2724173
-5.309264	Isaraelissa	-0.1402935
-5.309264	Isj	-0.1619532
-3.89429	Iso	-0.8560559
-4.832142	Isoissa	-0.2724046
-5.309264	Isontingan	-0.1681355
-5.008234	Isopukki	-1.184579
-5.309264	Isosilmäsenä	-0.168127
-4.531113	Isot	-0.9462591
-5.309264	Isotinganmellinki	-0.1681355
-5.309264	Isotingassa	-0.1668766
-5.008234	Isotinka	-0.1668723
-5.309264	Isovalet	-0.1672696
-4.309264	Isovuonon	-0.7255459
-4.464166	Isovuonossa	-0.451468
-4.832142	Isovuonosta	-0.5330902
-5.309264	Israelhiin	-0.1680247
-4.163136	Israelin	-0.3017695
-5.309264	Issoimela	-0.1681206
-5.008234	Issoimmela	-1.18457
-5.309264	Issoimmen	-0.1681355
-5.309264	Issuu.com	-0.1654253
-5.309264	Issuu.com/Kvenskinstitutt	-0.1402935
-5.309264	Issuu.comissa	-0.1402935
-4.707204	Issää	-0.3874722
-4.464166	Istu	-0.7097034
-4.832142	Istukkaa	-0.2714681
-5.309264	Istuma	-0.167197
-4.309264	Isä	-0.2616501
-5.309264	Isäkhään	-0.1680204
-5.309264	Isäki	-0.1681035
-5.309264	Isäksi	-0.1402935
-5.309264	Isäle	-0.1451146
-3.911324	Isän	-0.3836422
-5.309264	Isänsä	-0.1678201
-4.464166	Itaaliasta	-1.648409
-5.008234	Itea	-0.1526914
-5.309264	Iteaako	-0.1646743
-5.008234	Iteako	-1.181124
-4.832142	Itte	-0.5687593
-5.309264	Ivan	-0.1677348
-4.832142	Ivar	-0.1681291
-5.309264	Iđut	-0.168127
-5.309264	Iđut-forlaaki	-0.1681355
-5.309264	Iđänmaista	-0.1451146
-5.008234	J	-0.1680055
-4.610294	JA	-0.1681121
-5.309264	JO-HOI	-0.1619532
-5.309264	JOIKU	-0.1677326
-4.707204	JOITA	-0.4153078
-5.309264	JOKA	-0.1681355
-5.309264	JOKO	-0.1672995
-5.309264	JOKU	-0.167562
-5.309264	JOULUT	-0.1681163
-5.309264	JUOMAFONTEENIN	-0.1681355
-5.309264	JUOSKAA	-0.1619532
-5.309264	JUSTHIIN	-0.1680567
-2.456174	Ja	-0.4648725
-3.966841	Jaa	-1.104795
-5.309264	Jaahaa	-0.1619532
-4.195321	Jaako	-0.3126003
-4.610294	Jaakob	-0.1653803
-5.309264	Jaakobista	-0.1561374
-5.309264	Jaakoksi	-0.1402935
-5.309264	Jaakonpäivä	-0.1681355
-4.832142	Jaakoppi	-0.2494007
-5.309264	Jaames	-0.1619532
-5.309264	Jaaniin	-0.1451146
-5.309264	Jaappanissa	-0.1451146
-5.309264	Jacobsen	-0.1561374
-5.309264	Jacques	-0.1681355
-5.309264	Jaha-a	-0.1451146
-4.163136	Jahaa	-0.7575364
-5.309264	Jahaaaa	-0.1672995
-5.309264	Jahhaa	-0.1646743
-4.832142	Jahtaaminen	-0.2604235
-5.309264	Jakakaa	-0.1681291
-5.309264	Jakobsmesse	-0.1681355
-5.309264	Jakola	-0.1451146
-5.309264	Jalat	-0.1681355
-4.832142	Jalka	-0.2685607
-4.406174	Jan	-0.39348
-5.309264	Jatkoksi	-0.1681334
-4.832142	Jatkuuvasti	-0.2724173
-5.309264	Jeesu	-0.1681163
-5.309264	Jeesuksela	-0.1590082
-4.531113	Jeesuksele	-0.5035204
-4.832142	Jeesukselle	-0.5660619
-5.309264	Jeesuksellehan	-0.1681334
-5.008234	Jeesukselta	-0.1450967
-3.359874	Jeesuksen	-0.4335244
-5.008234	Jeesukseni	-1.156743
-5.309264	Jeesuksenki	-0.1674403
-4.464166	Jeesuksessa	-0.1579315
-4.464166	Jeesuksesta	-0.3106698
-5.008234	Jeesuksestani	-1.172587
-4.053991	Jeesuksheen	-0.7284366
-3.037422	Jeesus	-0.6077067
-5.309264	Jeesuski	-0.1402935
-4.707204	Jeesusta	-0.4285625
-5.008234	Jeg	-0.1669514
-4.832142	Jergul	-0.2724173
-5.309264	Jerikhoon	-0.1402935
-5.309264	Jerusaleem	-0.167948
-4.163136	Jerusaleemhiin	-1.148247
-4.610294	Jerusaleemissa	-0.3228104
-5.309264	Jerusaleemista	-0.1681355
-5.309264	Jerusalemhiin	-0.1451146
-4.707204	Jes	-0.4091318
-5.008234	Jesajan	-1.161564
-4.707204	Jesuksen	-0.4152844
-5.309264	Jesus	-0.1681355
-5.309264	Jill	-0.1681355
-3.987045	Jo	-0.5734779
-5.309264	Jo-o	-0.1451146
-5.309264	Jogoperä	-0.1402935
-4.832142	Johan	-0.1451101
-4.832142	Johaneksenpäivä	-0.2724152
-5.309264	Johanes	-0.1680865
-5.008234	Johannesen	-0.1680758
-5.309264	Johansin	-0.1681355
-4.707204	John	-0.2439038
-5.008234	Johnsen	-0.1680567
-5.309264	Johnsenin	-0.1669471
-4.531113	Joila	-0.2139594
-5.309264	Joilekki	-0.1590082
-3.79075	Joka	-0.6814439
-4.707204	Jokhainen	-0.1579298
-5.309264	Jokhaisessa	-0.1680567
-5.008234	Jokhaisesta	-1.184583
-5.309264	Jokhoon	-0.1659161
-5.008234	Jokivenet	-0.1589973
-5.309264	Jokkmokista	-0.1402935
-4.464166	Jokku	-0.2971222
-4.03051	Joko	-0.2312509
-5.309264	Jokopa	-0.1451146
-4.832142	Joksheenki	-0.1402867
-4.309264	Joku	-0.1860206
-5.309264	Jolla	-0.1590082
-5.008234	Jomppa	-1.178403
-4.707204	Jonk	-0.4150158
-5.309264	Jonkulainen	-0.1681185
-4.707204	Jonssot	-0.2439038
-3.390186	Joo	-1.287973
-5.309264	Joo-o	-0.1619532
-5.309264	Joosef	-0.1561374
-5.309264	Joosefin	-0.1674873
-5.008234	Jopa	-0.1680929
-5.008234	Jord	-0.1402913
-5.309264	Jord-joukon	-0.1681291
-5.309264	Jordanes	-0.1680695
-3.182159	Jos	-0.5574787
-4.531113	Josefsen	-0.2697163
-5.309264	Joskhaan	-0.1652645
-3.966841	Joskus	-0.2823977
-5.309264	Joskushan	-0.1667034
-5.309264	Joskusko	-0.1646743
-5.309264	Jospa	-0.1667034
-5.309264	Jossaki	-0.1681185
-5.309264	Jota	-0.1681355
-4.03051	Jotaki	-0.3708694
-4.832142	Joten	-0.1626701
-4.610294	Jotkut	-0.3532646
-5.008234	Jotta	-0.1666735
-5.008234	Joukhaisen	-1.184577
-5.008234	Joukko	-1.184583
-5.008234	Jouko	-1.184583
-5.309264	Joukole	-0.1561374
-5.309264	Joukon	-0.1681355
-5.008234	Joukossa	-1.175458
-4.531113	Joulu	-0.1947994
-5.309264	Jouluaatto	-0.1681355
-5.309264	Joulupäivänniemessä	-0.1208595
-5.309264	Joulut	-0.1681291
-4.531113	Jounin	-0.2723641
-4.531113	Jousepin	-0.9335718
-5.008234	Jouseppi	-0.1680929
-5.309264	Joutsjärvessä	-0.1451146
-5.309264	Jouttihattu	-0.1681312
-5.008234	Jovain	-1.161564
-4.355021	Jovensuu	-0.9721559
-4.163136	Jovensuuhuun	-0.5451484
-4.053991	Jovensuun	-0.6948648
-4.105144	Jovensuussa	-0.5624379
-4.832142	Jovensuut	-0.2604235
-5.008234	Juh	-0.1402913
-5.309264	Juh.16,16-21	-0.1669941
-4.230083	Juhanneksen	-0.707243
-5.309264	Juhanneksenpäivä	-0.1681291
-4.531113	Juhannes	-0.5682669
-5.309264	Juleaften	-0.1208595
-4.309264	Juliette	-0.4522474
-5.309264	Juliettea	-0.1680311
-5.008234	Julietten	-0.1401368
-5.309264	Julius	-0.1681355
-5.309264	Julkaistu	-0.1681163
-5.309264	Jumal	-0.1680076
-3.248566	Jumala	-0.3866835
-3.765196	Jumalaa	-0.7211167
-4.230083	Jumalale	-0.2609547
-5.008234	Jumalalle	-0.1402913
-4.531113	Jumalalta	-0.9230659
-3.359874	Jumalan	-0.4159746
-4.707204	Jumalanpalveluksissa	-0.4152993
-5.008234	Jumalanpalvelus	-1.18457
-4.707204	Jumalassa	-0.09499265
-4.610294	Jumalasta	-0.4077661
-3.987045	Jumalhaan	-1.34384
-5.309264	Jumpan	-0.1681355
-4.832142	Jumpo	-0.5392296
-5.309264	Junosuanosta	-0.1681355
-5.309264	Juovlaruohtta	-0.1681355
-5.309264	Jup	-0.1619532
-5.309264	Juri	-0.1681355
-4.707204	Jussa	-0.3230738
-5.309264	Jussakhaan	-0.1402935
-5.008234	Jussan	-0.1680695
-5.008234	Just	-1.184583
-4.195321	Justhiin	-0.1458742
-5.309264	Justhiinsa	-0.1656054
-4.406174	Juu	-0.1753092
-5.008234	Juuh	-1.178403
-5.309264	Juunikuussa	-0.1681142
-4.610294	Juuret	-0.3319659
-4.267871	Juuri	-0.2202705
-4.464166	Juutalaiset	-0.3459196
-4.531113	Juutinrauma	-0.2139594
-5.309264	Jynaittenissa	-0.1619532
-5.309264	Jyvä	-0.1561374
-5.309264	JÄRVEN	-0.1619532
-5.309264	Jágátbeaivi	-0.1681355
-5.309264	Jäikö	-0.168127
-5.309264	Jäkälää	-0.1681334
-5.309264	Jäljet	-0.1681334
-4.195321	Jälkhiin	-0.2960032
-5.309264	Jälki	-0.1590082
-5.309264	Jällivaarasta	-0.1451146
-4.832142	Jälmesöiä	-0.2494007
-5.008234	Jänis	-0.1681334
-4.464166	Jänkkäheinä	-1.667569
-4.406174	Jänkkäniitty	-0.9541211
-5.309264	Järki	-0.168127
-5.309264	Järkimies	-0.1451146
-5.309264	Järkkeevää	-0.1681334
-4.832142	Järvet	-0.2494007
-5.309264	Jätettyi	-0.1681355
-5.309264	Jätätkö	-0.1667719
-4.610294	Jää	-0.4549606
-4.531113	Jääkkää	-0.2178053
-5.309264	Jääm	-0.1681355
-5.309264	Jäämereksi	-0.1451146
-4.163136	Jäämeren	-0.9366872
-5.309264	Jäävalkkeet	-0.1681355
-5.309264	Jösse	-0.1451146
-4.610294	K	-0.1653953
-5.309264	KAAÐUMA	-0.1619532
-4.309264	KAIKKI	-1.03867
-3.411637	KAISA	-1.900378
-5.008234	KAISA:Istukkaa	-1.183632
-5.008234	KAISA:Jaa	-1.156743
-5.008234	KAISA:No	-1.183542
-5.309264	KAPTEININ	-0.1681355
-4.531113	KARJUU	-0.2116379
-5.309264	KESÄ-O-L-HIIN	-0.1402935
-5.309264	KIERTÄMHÄÄN	-0.1657661
-5.008234	KIINHAAN	-1.178403
-5.309264	KIINIOTEUSTA	-0.1681355
-5.309264	KILJ	-0.1619532
-5.309264	KLUAKKIRÖÖRISSÄ	-0.1681355
-4.610294	KO	-0.1680737
-5.309264	KO/-KÖ	-0.1646743
-5.309264	KOHI	-0.1681249
-4.531113	KOIVULEHTO	-0.1705442
-4.531113	KOLMAS	-0.217784
-5.309264	KOP	-0.1619532
-5.309264	KORKEALLA	-0.1681355
-5.309264	KOSKHAAN	-0.1681334
-5.309264	KOTHIIN	-0.1680801
-5.309264	KOTHIINPÄIN	-0.1657661
-5.309264	KOTIA	-0.1681355
-5.309264	KR	-0.1681355
-4.832142	KREETA	-0.2697114
-5.008234	KRRR	-1.178403
-5.309264	KRRRR	-0.1619532
-5.309264	KULKEMHAAN	-0.1681334
-5.309264	KULLAN	-0.1680993
-5.309264	KULTAssa	-0.1451146
-5.309264	KUOLEMAA	-0.168127
-5.309264	KUTTU	-0.1619532
-5.309264	KUVVII	-0.1208595
-5.309264	KUÐO	-0.1619532
-5.309264	KVE-1120	-0.1681355
-5.309264	KVENSK	-0.1654253
-5.309264	Ka-kaikki	-0.1681185
-5.309264	Ka-katto	-0.1681206
-5.309264	Kaaby	-0.1681334
-5.309264	Kaajan	-0.1681355
-5.309264	Kaapeli-TV	-0.1681355
-5.309264	Kaappi	-0.1590082
-5.309264	Kaarasjokheen	-0.1561374
-5.309264	Kaarasjovela	-0.1402935
-4.531113	Kaarasjoven	-0.2880464
-5.008234	Kaarasjovesta	-0.1324514
-5.309264	Kaare-suanthoon	-0.1451146
-4.406174	Kaaresuanthoon	-0.9312195
-4.406174	Kaarnheita	-0.9525625
-5.309264	Kaatunu	-0.1681249
-5.309264	Kaaða	-0.16769
-5.309264	Kaađa	-0.1681355
-5.008234	Kaffi	-1.175458
-5.309264	Kaffii	-0.1451146
-5.008234	Kah	-1.184568
-5.309264	Kaheksantoista	-0.1681249
-5.309264	Kahðen	-0.1678137
-5.309264	Kahđesta	-0.1681355
-5.309264	Kaihnuunmata	-0.1590082
-5.309264	Kaihnuunmeri	-0.1402935
-5.309264	Kaijule	-0.1402935
-5.309264	Kaiken	-0.1681291
-5.008234	Kaikhiin	-0.1451124
-3.911324	Kaikila	-0.8944524
-5.008234	Kaikilahan	-1.175458
-5.309264	Kaikile	-0.1681312
-5.309264	Kaikilta	-0.1679693
-3.765196	Kaikin	-0.3162636
-4.832142	Kaikissa	-0.1681249
-4.531113	Kaikista	-0.3163285
-5.008234	Kaikk	-0.1678201
-3.445941	Kaikki	-0.4835016
-5.309264	Kaikkien	-0.1680929
-5.309264	Kaikkihan	-0.1642746
-5.309264	Kaikkiin	-0.1681334
-5.309264	Kaikkiko	-0.1646743
-4.832142	Kaikkin	-0.2723555
-5.309264	Kaikkivaltihaale	-0.1681355
-4.406174	Kaiku	-0.1936318
-4.832142	Kainhuun	-0.5683522
-5.309264	Kainhuunkieli	-0.1590082
-4.832142	Kainhuunmaa	-0.5649112
-5.309264	Kainhuunmaahaan	-0.1402935
-4.832142	Kainhuunmaan	-0.1681291
-4.832142	Kainhuunmaasta	-0.5163409
-4.464166	Kainu	-0.2090012
-5.008234	Kainulainen	-1.184528
-5.008234	Kainulaisen	-1.184574
-4.610294	Kainulaiset	-0.2185137
-5.008234	Kainulaissii	-1.180724
-5.309264	Kainulaisten	-0.1681355
-3.03051	Kainun	-1.414059
-5.309264	Kainunkielinen	-0.1681334
-5.309264	Kainunkielisessä	-0.1681355
-5.309264	Kainunkielisissä	-0.1681334
-5.309264	Kainunmaan	-0.1561374
-5.008234	Kainunmerheen	-1.184459
-4.832142	Kainuulainen	-0.558359
-5.309264	Kainuulaiset	-0.1680972
-5.309264	Kaippaan	-0.16769
-5.309264	Kairo	-0.1681355
-5.309264	Kairon	-0.1681355
-3.862106	Kaisa	-0.6227624
-5.309264	Kaisat	-0.1681334
-5.309264	Kaitasen	-0.1681291
-5.309264	Kaiussa	-0.1669471
-4.832142	Kaivaukset	-0.272396
-5.309264	Kaivot	-0.1677348
-4.610294	Kaivuonhoon	-0.6723481
-5.309264	Kaivuonolainen	-0.1681355
-4.610294	Kaivuonon	-0.3533413
-5.309264	Kaivuonoo	-0.1402935
-4.832142	Kaivuonossa	-0.2494007
-4.707204	Kaivuonosta	-0.376605
-5.309264	Kajaani	-0.168127
-5.008234	Kajano	-1.184583
-4.832142	Kajasaaren	-0.2724003
-5.309264	Kajavanpaskassa	-0.1561374
-5.309264	Kakase	-0.1657661
-5.309264	Kakko	-0.1590082
-5.309264	Kakkoi	-0.1646743
-5.309264	Kakkoparaati	-0.1619532
-5.309264	Kakot	-0.1590082
-4.309264	Kaks	-0.2854612
-4.464166	Kaksi	-0.1680674
-5.309264	Kaksituhattakuusisattaajakaheksankymmentäyksi	-0.1451146
-5.309264	Kakskielisyy	-0.1680439
-5.309264	Kakskymmentä	-0.1679288
-5.309264	Kakskymppikö	-0.1646743
-4.832142	Kalakanttoin	-0.2724088
-5.309264	Kalakratenkiä	-0.1451146
-4.832142	Kalanielu	-0.2445796
-5.309264	Kalanpyytövenet	-0.1681206
-4.832142	Kalansuljuja	-0.2604235
-4.230083	Kalastaja	-0.8220482
-5.309264	Kalastaminen	-0.1590082
-5.309264	Kaleandara	-0.1681355
-4.309264	Kalenteri	-0.3190055
-4.267871	Kalenterin	-0.2735344
-5.309264	Kalenterissa	-0.1590082
-4.832142	Kalileehaan	-0.2604235
-4.531113	Kallijoki	-0.2058221
-5.309264	Kallijovessa	-0.1451146
-5.309264	Kallileehaan	-0.1561374
-5.309264	Kallioitten	-0.1681078
-5.309264	Kalliole	-0.1681334
-5.008234	Kallis	-1.184583
-4.832142	Kallistakkaa	-0.2724152
-5.309264	Kalmankolhoon	-0.1402935
-5.309264	Kalmankolo	-0.1451146
-4.832142	Kalmankolon	-0.1680972
-4.832142	Kalmankolossa	-0.5343352
-4.832142	Kalmankolosta	-0.1329762
-5.309264	Kamala	-0.1619532
-5.309264	Kammarissa	-0.1679672
-5.309264	Kan	-0.1681142
-5.309264	Kanadalainen	-0.1681334
-5.309264	Kangenissa	-0.1672226
-4.406174	Kankeaa	-0.9541957
-5.309264	Kankeata	-0.1680908
-4.610294	Kansa	-0.2273686
-5.309264	Kansainvälini	-0.1681227
-5.008234	Kansalinen	-0.1681163
-4.832142	Kansalisteatterin	-0.2724046
-5.309264	Kansimansi	-0.1619532
-4.531113	Kansoittenvälinen	-0.2178075
-5.309264	Kanuunatie	-0.1402935
-5.309264	Kanuunatiele	-0.1679565
-5.008234	Kanuunatieltä	-1.161564
-4.610294	Kanuunatielä	-0.1626981
-4.406174	Kanuunatien	-0.1677092
-4.464166	Kanuunatietä	-0.4302305
-5.309264	Kanuunitien	-0.1681355
-5.309264	Kaottinen	-0.1681355
-4.053991	Kapitteli	-0.2302946
-5.008234	Kapteini	-0.1354826
-4.707204	Kapteinin	-0.429215
-5.309264	Karamerele	-0.1561374
-5.008234	Karasjok	-1.184574
-4.832142	Kareli	-0.2685607
-5.309264	Karen	-0.1681334
-5.309264	Karigasniemen	-0.1681249
-5.008234	Karigasniemestä	-0.1669385
-5.309264	Karin	-0.1681334
-5.008234	Karittalle	-1.137309
-4.610294	Karittan	-0.7256056
-4.832142	Karjala-Norja	-0.56877
-5.309264	Karjalaiset	-0.1681291
-5.309264	Karjalan	-0.1681355
-4.610294	Karjalassa	-0.1752032
-4.832142	Karjalasta	-0.2445796
-5.309264	Karjalašša	-0.1402935
-5.309264	Karl	-0.1681355
-5.309264	Karolius	-0.1619532
-5.309264	Kassin	-0.1681355
-5.008234	Kastaaja	-0.1590039
-5.309264	Kastakkaa	-0.1680673
-5.309264	Kastheesseen	-0.1667719
-4.832142	Kasvissa	-0.2632943
-4.832142	Kasvit	-0.2709981
-5.309264	Katastroofinen	-0.168127
-4.832142	Kategoori	-0.2723513
-4.832142	Kategooridaataapankko	-0.272315
-4.610294	Kategooriin	-0.4601675
-4.832142	Kategoorimonikertaisuus	-0.2724067
-5.309264	Kategoorin	-0.1681163
-5.309264	Katossa	-0.168127
-5.309264	Katovuođet	-0.1679416
-4.531113	Kattelema	-0.1947994
-5.309264	Katteli	-0.1681312
-3.637166	Katto	-0.7860273
-3.846866	Kattokkaa	-1.258309
-4.832142	Kattokkaas	-0.2494007
-4.832142	Kattoma	-0.1665131
-5.008234	Katton	-1.184555
-4.832142	Kattopa	-0.1383947
-5.309264	Kattoppa	-0.16769
-4.832142	Kattos	-0.2494007
-5.008234	Kattossie	-0.1385909
-5.309264	Kau	-0.1681355
-5.309264	Kauemmaksi	-0.1451146
-4.406174	Kaunista	-0.2044489
-4.610294	Kauppamiehet	-0.3533157
-5.309264	Kaupungissa	-0.1667034
-5.309264	Kaupungit	-0.1561374
-4.355021	Kaurapuuroa	-1.121574
-5.309264	Kautokeino	-0.1657661
-5.309264	Kautokeinoa	-0.1561374
-5.309264	Kautokeinojovessa	-0.1402935
-4.610294	Kautokeinon	-0.3629208
-5.309264	Kautokeinonjoki	-0.1451146
-5.309264	Kautokeinossa	-0.1402935
-5.309264	Kauvempana	-0.1681206
-5.309264	Kauvoin	-0.1681334
-5.309264	Kaveri	-0.1681163
-5.309264	Kavule	-0.1590082
-5.309264	Kaðonheetko	-0.1646743
-5.008234	Keedarin	-1.161564
-4.832142	Kehtolaulu	-0.2445796
-5.008234	Keitten	-0.1681312
-5.008234	Keitä	-0.1676964
-5.008234	Kekkosen	-1.184579
-4.230083	Kekkä	-0.4616621
-5.309264	Keksijän	-0.1680098
-5.008234	Kelhään	-1.182263
-5.309264	Kellastunko	-0.1451146
-4.355021	Kello	-0.7683218
-4.531113	Kelsenin	-0.2175048
-5.309264	Kemijoki	-0.1680908
-5.309264	Kemppitarjous	-0.1451146
-4.464166	Ken	-0.2417075
-5.309264	Kene	-0.1679842
-5.008234	Kenele	-0.1659118
-4.832142	Keneltä	-0.1632911
-5.008234	Kenelä	-0.1590039
-5.008234	Kenen	-0.1680226
-5.008234	Kenessä	-0.1676964
-5.008234	Kenestä	-0.166143
-5.309264	Kengät	-0.1561374
-5.008234	Kenheen	-0.166143
-4.531113	Kenia	-0.2166788
-5.309264	Kenkki	-0.1681206
-4.531113	Kentälä	-0.2177883
-4.832142	Kentän	-0.2723939
-4.832142	Kentässä	-0.2445796
-5.309264	Kepardin	-0.1681227
-4.832142	Keripukinyrttii	-0.2721893
-4.531113	Kerkisin	-0.2156008
-5.008234	Kerkkii	-1.183647
-5.309264	Kerkkiin	-0.1674873
-4.610294	Kerran	-0.3610629
-5.309264	Kerranhan	-0.1681142
-3.987045	Kert	-1.314579
-4.832142	Kertonut	-0.2723981
-5.309264	Keskipukki	-0.1681291
-5.008234	Keskitalo	-0.1681227
-5.309264	Keskiviikkona	-0.1451146
-5.309264	Keskiyö	-0.1668766
-5.008234	Kessæ	-0.165599
-5.008234	Kesä	-0.156422
-5.008234	Kesäkoulu	-1.184182
-4.832142	Kesälä	-0.1627823
-5.008234	Ketä	-0.1667676
-5.309264	Kevhäälä	-0.1681355
-5.008234	Kevin	-0.1681334
-4.610294	Kevväälä	-0.7781108
-5.309264	Keväilä	-0.1680972
-5.008234	Kevättulva	-0.166945
-5.309264	Khanti	-0.1679842
-5.309264	Khanty	-0.1681334
-5.008234	Kieldsen	-1.184568
-4.531113	Kielen	-0.3116378
-5.309264	Kielentutkiijat	-0.1590082
-5.309264	Kielet	-0.168127
-4.355021	Kieli	-0.7545077
-5.309264	Kieli-	-0.1561374
-5.309264	Kielikeskus	-0.1590082
-5.309264	Kielikonsulentti	-0.1681355
-5.309264	Kieliraatissa	-0.1402935
-5.309264	Kielisentterin	-0.1680822
-5.309264	Kielisuunittelun	-0.1561374
-5.309264	Kielitingan	-0.1681291
-5.008234	Kielitinka	-1.184583
-5.309264	Kielivuosi	-0.1681142
-5.309264	Kielivuođen	-0.1681142
-4.707204	Kiikkuu	-0.3922933
-5.309264	Kiikoksii	-0.1451146
-5.309264	Kiinan	-0.1681312
-5.309264	Kiinapyttii	-0.1619532
-5.008234	Kiinhaan	-0.1546717
-4.267871	Kiini	-0.6556934
-4.406174	Kiiperissä	-0.9312195
-5.309264	Kiitokset	-0.1679416
-4.406174	Kiitoksia	-0.9312195
-4.03051	Kiitoksii	-0.6048855
-4.309264	Kiitos	-0.4707122
-5.309264	Kiitosvirsi	-0.1681355
-5.309264	Kiitämä	-0.1451146
-4.053991	Kiitän	-1.079372
-5.309264	Kilpailun	-0.1681312
-5.309264	Kilpailut	-0.1680993
-5.309264	Kilpi	-0.1619532
-5.309264	Kipu	-0.1681078
-5.309264	Kiraffi	-0.1681291
-5.309264	Kirahvi	-0.1681291
-5.309264	Kirja	-0.1642746
-4.832142	Kirjailiija	-0.1679224
-5.309264	Kirjailiijahäfti	-0.1681185
-5.309264	Kirjailiijala	-0.1642746
-4.832142	Kirjailija	-0.168095
-4.406174	Kirjailijat	-1.173059
-5.309264	Kirjaliset	-0.1681312
-5.008234	Kirjan	-0.1681142
-5.309264	Kirjanoppinheet	-0.1658132
-5.309264	Kirjanpito	-0.1681355
-5.309264	Kirjapyssissä	-0.1681057
-5.309264	Kirjat	-0.1590082
-5.008234	Kirjoitammako	-1.184566
-5.008234	Kirjoitettu	-1.184572
-5.008234	Kirjoituksen	-1.184583
-4.832142	Kirjota	-0.5647564
-5.309264	Kirjotukset	-0.1681291
-5.309264	Kirkerådet	-0.1561374
-4.707204	Kirkhaana	-0.4151629
-5.309264	Kirkhoon	-0.1667034
-4.531113	Kirkkoniemen	-0.2178096
-5.309264	Kirkvaagin	-0.1681355
-5.309264	Kirottua	-0.1619532
-5.008234	Kirrouksen	-1.184583
-5.008234	Kirsti	-0.1354826
-5.008234	Kirstilä	-1.175458
-4.707204	Kirunan	-0.2438953
-5.309264	Kirunasta	-0.1561374
-5.309264	Kissahan	-0.1658132
-5.309264	Kitooos	-0.1451146
-5.309264	Kivijäkälä*	-0.1681334
-5.309264	Kivikoskheen	-0.1561374
-5.008234	Kiviväki	-0.1565862
-5.309264	Kivusta	-0.1561374
-4.832142	Kjell	-0.5687657
-5.309264	Klarinetti	-0.1681185
-5.309264	Klasikaarissa	-0.1642746
-5.309264	Klasin	-0.1657661
-5.309264	Klasinreunala	-0.1657661
-5.309264	Klassista	-0.1451146
-5.008234	Klemet	-1.184583
-5.309264	Klikkaa	-0.167182
-5.309264	Klossi	-0.1681249
-5.309264	Klossit	-0.1681355
-5.309264	Klovni	-0.1619532
-5.008234	Kluakki-	-1.172587
-5.309264	Kluakkiröörissä	-0.1451146
-5.309264	Kluakkisysteemi	-0.1590082
-4.832142	Klubbviikissä	-0.2604235
-4.464166	Kläpilä	-1.667569
-4.610294	Kläpit	-0.1400481
-5.309264	Klær	-0.1208595
-4.267871	Knud	-1.447775
-5.309264	Knut	-0.1681185
-2.957081	Ko	-0.6073391
-5.309264	Kohta	-0.1681355
-4.707204	Kohtaama	-0.1673528
-5.309264	Kohtaaminen	-0.1681334
-4.707204	Koivulehto	-0.4035559
-5.309264	Kokkointumisen	-0.1681334
-5.309264	Kokkouksessa	-0.1681312
-5.309264	Kokkouspaikka	-0.1590082
-3.966841	Koko	-0.365715
-4.707204	Kokonhaansa	-0.4290381
-5.309264	Kokonhans	-0.1680673
-5.309264	Kolezhman	-0.1681355
-5.309264	Kollajärvi	-0.1681142
-5.309264	Kollökhaan	-0.1402935
-4.531113	Kolmas	-0.5644359
-5.309264	Kolmasosan	-0.1681142
-4.464166	Kolme	-0.1402004
-5.309264	Kolmekieliset	-0.1681355
-5.309264	Kolmen	-0.1681355
-5.008234	Kolossaluksela	-0.11655
-5.309264	Kolossalus	-0.1451146
-5.309264	Kolossalusta	-0.1402935
-5.309264	Komitea	-0.1672995
-5.309264	Kommandante	-0.1669941
-5.309264	Kommandantiksi	-0.1669471
-5.309264	Kommandantin	-0.1681121
-4.832142	Kommandantti	-0.1680822
-5.309264	Kommuniseeraamisessa	-0.1664575
-5.008234	Komuuni	-1.137309
-5.309264	Komuunilla	-0.1590082
-5.309264	Komuunitten	-0.1681334
-4.406174	Konferansi	-0.6272898
-5.008234	Konferansiprogramin	-1.1845
-4.832142	Konferansissa	-0.5686613
-5.309264	Konsertissa	-0.1680908
-5.008234	Konsertti	-0.1680162
-5.309264	Konstaapeli	-0.1451146
-5.309264	Konstintekijöitten	-0.1680886
-5.309264	Kontaktit	-0.1654253
-5.309264	Kontaktperson	-0.1654253
-5.309264	Konto	-0.1681355
-5.309264	Kophaata	-0.1681334
-5.309264	Korjaa	-0.1681355
-5.309264	Korkkeeteknuloginen	-0.1681355
-5.309264	Kornet	-0.1678947
-4.707204	Korpilompolossa	-1.175454
-5.309264	Korritoorin	-0.1680758
-4.610294	Korrui	-0.7780916
-5.309264	Korsika	-0.1669941
-5.309264	Korsikalla	-0.1208595
-5.309264	Korstog	-0.1681249
-5.309264	Kortinpellaamisheen	-0.1619532
-5.008234	Kortit	-0.1590039
-5.309264	Korttipakka	-0.1590082
-4.464166	Koska	-0.2068241
-5.309264	Koskapa	-0.1646743
-5.309264	Koski	-0.1669471
-5.008234	Kosto	-0.1590017
-5.309264	Kostoksi	-0.1681355
-5.309264	Kostoo	-0.1619532
-5.309264	Kothiin	-0.1681355
-4.355021	Kotileivottua	-0.9999744
-5.309264	Kotkovitc	-0.1402935
-4.707204	Kotona	-0.4114533
-5.309264	Koulaa	-0.1681312
-4.832142	Koulu-Anna	-0.2685607
-5.309264	Koulukirjoissa	-0.1681099
-5.309264	Koulupäivän	-0.1677348
-4.355021	Koutokeinhoon	-0.2081737
-5.309264	Koutokeinon	-0.1681355
-5.008234	Koutokeinoo	-1.184551
-4.832142	Kova	-0.1680375
-5.309264	Kovila	-0.1451146
-5.309264	Kr	-0.1402935
-5.309264	Kraakkeni	-0.1680631
-5.309264	Kraakkenii	-0.1451146
-5.008234	Kraakkenin	-0.1450922
-4.707204	Kraakkenista	-0.4023131
-5.309264	Kraken	-0.1646743
-5.309264	Krakkenista	-0.1451146
-4.309264	Krampenes	-1.013549
-4.832142	Kramppiniemessä	-0.2494007
-5.309264	Krapuko	-0.1646743
-4.163136	Kreeta	-1.635746
-5.309264	Krimmiromaani	-0.1642746
-5.309264	Kristel	-0.1681206
-4.133173	Kristiansen	-0.4268233
-5.309264	Kristiansenhiin	-0.1681355
-5.309264	Kristiansenileki	-0.1402935
-4.832142	Kristiansenin	-0.1681249
-5.309264	Kristiansenista	-0.1590082
-5.309264	Kristiina	-0.1451146
-5.309264	Kristiinan	-0.1681227
-5.309264	Kristin	-0.1681334
-5.309264	Kristinusko	-0.1590082
-5.008234	Kristityt	-0.1644917
-3.929053	Kristuksen	-0.6722397
-5.008234	Kristuksessa	-1.184572
-4.195321	Kristuksheen	-1.229645
-4.053991	Kristus	-0.5089095
-4.464166	Kristuski	-1.643588
-5.008234	Kristusta	-1.161564
-5.309264	Kritikin	-0.1681334
-5.309264	Kronpr	-0.1402935
-5.309264	Kroppa	-0.1681334
-4.832142	Krr	-0.2662392
-5.008234	Krrr	-1.178403
-5.309264	Krrrr	-0.1619532
-5.309264	Kruunulaki	-0.1590082
-5.309264	Kruunun	-0.1681355
-5.309264	Kruununpr	-0.1402935
-5.309264	Kruununpäälikötkö	-0.1561374
-5.309264	Kruununsa	-0.1590082
-5.309264	Kruununsekretääri	-0.1681291
-4.832142	Kruunussa	-0.2724173
-5.309264	Kruuti	-0.1642746
-5.309264	Kruvnnapr	-0.1402935
-5.309264	Kräsh	-0.1619532
-5.309264	Kt	-0.1402935
-5.309264	Kuinka	-0.1652645
-4.832142	Kuitenki	-0.1619207
-3.458005	Kuka	-0.6313695
-5.309264	Kukakhoon	-0.1590082
-4.832142	Kukapa	-0.5674063
-4.707204	Kukas	-0.4262774
-4.406174	Kukhaan	-0.9519181
-4.195321	Kukka	-0.2739792
-5.309264	Kukkasymbolikkii	-0.1590082
-4.832142	Kuljethiin	-0.2695506
-5.309264	Kulleselvalaiset	-0.1680865
-5.309264	Kultainen	-0.1681355
-5.309264	Kultakallaa	-0.1619532
-5.309264	Kultakaupunkhiin	-0.1451146
-5.309264	Kultatukkaa	-0.1619532
-5.309264	Kulttuuri-	-0.1561374
-5.008234	Kulttuuripalkinon	-0.1680801
-5.309264	Kulttuuripäivitten	-0.1679949
-5.309264	Kultur-	-0.1678947
-4.832142	Kulturdepartementet	-0.5361214
-5.309264	Kulturpris	-0.1680908
-5.309264	Kulturrådet	-0.168127
-5.309264	Kulturrådista	-0.1451146
-5.309264	Kummalinen	-0.1681206
-5.309264	Kummalista	-0.1652645
-5.309264	Kumman	-0.1681355
-5.008234	Kummitus	-1.172587
-5.309264	Kumpanenki	-0.1681227
-5.309264	Kumpi	-0.1681078
-4.832142	Kun	-0.2720678
-5.008234	Kuninga	-1.184583
-4.230083	Kuningas	-0.07419426
-5.309264	Kuningassaluttia	-0.1680311
-5.309264	Kuninkhaala	-0.1642746
-5.309264	Kuninkhaalinen	-0.1681355
-4.707204	Kuninkhaan	-0.4292065
-5.309264	Kuninkhaanriikki	-0.1681334
-5.309264	Kuninkhaansaluuttia	-0.1678627
-3.707204	Kunka	-0.6000261
-5.008234	Kunkas	-0.1649706
-4.267871	Kunnia	-1.915718
-5.008234	Kunnian	-1.184568
-5.309264	Kunniapalkinon	-0.1402935
-5.309264	Kunnikas	-0.1590082
-5.309264	Kunnioita	-0.168127
-4.832142	Kunnskapsdepartementet	-0.5567542
-5.008234	Kuolema	-1.184457
-5.309264	Kuoleman	-0.1681355
-5.309264	Kuollut	-0.1681355
-4.230083	Kuoppa	-0.4726273
-5.309264	Kuori	-0.1561374
-5.309264	Kuoron	-0.1681334
-4.610294	Kuosuvaaran	-0.3060071
-5.309264	Kurfyrstendammissa	-0.1451146
-5.309264	Kurkkii	-0.1669471
-5.309264	Kurre	-0.1658132
-5.309264	Kuttu	-0.1590082
-5.309264	Kuu	-0.1677177
-5.008234	Kuuba	-1.183444
-5.008234	Kuubalainen	-0.1680758
-3.966841	Kuule	-0.9451349
-5.309264	Kuulehan	-0.1667719
-5.309264	Kuulekko	-0.1667719
-5.309264	Kuulema	-0.167182
-5.309264	Kuulen	-0.1668381
-5.309264	Kuulenko	-0.1659161
-5.008234	Kuulettako	-0.1385909
-5.309264	Kuuli	-0.1681355
-5.008234	Kuulikko	-1.183221
-5.008234	Kuulima	-0.166357
-5.309264	Kuulin	-0.1680929
-5.309264	Kuulinko	-0.1659161
-5.309264	Kuulitko	-0.1667719
-5.309264	Kuulkaahan	-0.1675684
-4.406174	Kuulkkaa	-0.2970355
-5.309264	Kuulostaa	-0.1681355
-5.309264	Kuulustaa	-0.1681355
-5.309264	Kuuntele	-0.1619532
-5.008234	Kuurttoo	-1.184549
-5.309264	Kuus	-0.168127
-5.309264	Kuusamon	-0.1680609
-5.309264	Kuusi	-0.1402935
-4.832142	Kuva	-0.5687082
-5.008234	Kuvasi	-1.175458
-5.008234	Kuvassa	-0.1589582
-4.707204	Kuvat	-1.175401
-5.309264	Kuvatapattuma	-0.1654253
-5.309264	Kuvatekstit	-0.1590082
-4.610294	Kuvattu	-0.3629528
-5.309264	Kuvvaajat	-0.1590082
-4.355021	Kv	-1.121234
-5.008234	Kvartissa	-1.175458
-5.309264	Kvarttia	-0.1677923
-5.309264	Kveana	-0.1681355
-5.008234	Kveeni	-0.1676836
-5.309264	Kveeniliiton	-0.1681163
-5.008234	Kveeniliitto	-0.1646163
-5.309264	Kveenimaayhistys	-0.1657661
-5.008234	Kveeninuoret	-0.1667163
-5.309264	Kveeninuoret-Kvensk	-0.1681312
-5.008234	Kven	-0.1680844
-5.008234	Kvener	-1.137309
-4.707204	Kveners	-1.184575
-5.309264	Kvenidol-kilpailun	-0.1680993
-5.309264	Kvenland	-0.1402935
-5.008234	Kvenlandsforbundet	-0.1467494
-3.318038	Kvensk	-1.2854
-5.309264	Kvensk-sjøsamisk	-0.1681355
-4.832142	Kvenske	-0.56877
-5.309264	Kvinne	-0.1657661
-5.309264	Kvinnenettverk	-0.1668766
-5.309264	Kvää	-0.1681355
-4.610294	Kvääneilä	-0.3434624
-4.053991	Kvääni	-0.761509
-5.309264	Kvääni-	-0.1561374
-5.309264	Kvääni-idoli	-0.1668766
-5.309264	Kvääniaviisi	-0.1679224
-5.008234	Kvääniilä	-1.184353
-5.309264	Kvääniin	-0.1678307
-4.610294	Kväänilä	-0.7774049
-4.707204	Kväänimarkkinoiksi	-0.4152737
-3.846866	Kväänin	-0.4237622
-5.309264	Kvääninkielen	-0.1679863
-4.406174	Kvääninkieli	-0.6154531
-4.832142	Kvääninkielinen	-0.5687657
-4.832142	Kvääninuoret	-0.5566885
-5.309264	Kvääninuorile	-0.1681312
-5.309264	Kväänisyys	-0.1590082
-3.8779	Kväänit	-0.3544284
-4.531113	Kväänitki	-0.2175879
-4.610294	Kväänitten	-0.3533179
-4.531113	Kvääniviikkoa	-0.1947994
-5.309264	Kväänlantina	-0.1402935
-4.707204	Kväännös	-0.412604
-5.008234	Kvääntäny	-0.1653782
-5.309264	Kvænland	-0.1561374
-5.309264	Kvænsk	-0.1402935
-5.309264	Ky-ylmää	-0.1680055
-5.309264	Kyky	-0.1681334
-4.355021	Kylitten	-0.9999126
-3.464166	Kyllä	-0.6434839
-4.531113	Kyllähän	-0.2156008
-5.309264	Kyllästynykö	-0.1646743
-4.832142	Kylmä	-0.5673229
-5.309264	Kylmäkaappi	-0.1681334
-5.309264	Kylttyyrin	-0.1679863
-5.008234	Kylä	-0.1560848
-5.008234	Kyläläiset	-1.18456
-5.309264	Kylän	-0.1680908
-5.309264	Kylät	-0.1590082
-4.531113	Kymmenen	-0.395237
-5.309264	Kymmentä	-0.168127
-5.309264	Kynsi	-0.1681355
-4.406174	Kyrie	-0.4152992
-5.309264	Kyrössä	-0.1667034
-5.309264	Kysheessä	-0.1590082
-5.309264	Kysy	-0.168127
-4.230083	Kysykkää	-1.113901
-4.832142	Kysymyksessä	-0.2632943
-4.832142	Kysymys	-0.1444288
-5.008234	Kyynelt	-1.184398
-5.309264	Káffe	-0.1561374
-5.309264	Kälminnäköset	-0.1681355
-5.309264	Kälmit	-0.1619532
-5.309264	Kärsivälisyyttä	-0.1451146
-5.309264	Käykhöön	-0.1681312
-5.309264	Käyny	-0.1680865
-5.309264	Käyrä	-0.1451146
-5.309264	Käytä	-0.1678179
-5.309264	Käänny	-0.1681334
-4.531113	Käännykkää	-0.2979498
-5.309264	Käänöksiä	-0.167372
-5.309264	Käänös	-0.1561374
-5.309264	Käänösfiilin	-0.1681355
-5.008234	Käärmheen	-1.184572
-5.309264	Kåfjord	-0.1208595
-4.355021	Kåre	-0.4182305
-5.309264	Kårele	-0.1561374
-5.309264	Kåren	-0.1561374
-4.707204	Kåven	-0.4251281
-5.309264	Kåvenia	-0.1681355
-5.309264	Kåvenin	-0.1668766
-5.309264	Kåvenista	-0.1451146
-5.309264	Köyhyyđen	-0.1681355
-5.008234	Köyhä	-0.1402913
-5.309264	Köyhäkö	-0.1659161
-4.832142	Köyhät	-0.2723342
-5.309264	Köynnöskrassia	-0.1681355
-4.531113	Kööpenhaminaa	-0.1899783
-3.987045	Kööpenhaminassa	-0.2236116
-4.406174	Kööpenhaminasta	-0.2994457
-4.309264	Kööpenhaminhaan	-0.3792689
-5.008234	LA	-1.183326
-5.309264	LAUKKOKKAA	-0.1451146
-4.610294	LEENA	-0.775439
-5.309264	LENNETHÄÄN	-0.1657661
-4.406174	LIISA	-0.204839
-4.309264	LIISAN	-1.168116
-4.832142	LITT	-0.2724173
-5.309264	LP	-0.1680908
-5.309264	LP:ssä	-0.1451146
-5.309264	LPO	-0.1681355
-4.707204	Laasaruksen	-0.4153078
-4.832142	Laasaruksenki	-0.2445796
-4.832142	Laasarus	-0.2685607
-5.309264	Laata	-0.1619532
-3.987045	Laathaan	-1.342378
-5.309264	Laavuseminaarin	-0.166712
-5.309264	Lainaaika	-0.1590082
-5.309264	Lainaan	-0.1451146
-5.309264	Lainaatko	-0.1681355
-4.707204	Laiska	-0.4152972
-4.832142	Laiskan	-0.2722681
-5.309264	Laiskat	-0.1681355
-3.172543	Laita	-0.3517571
-5.309264	Laitila	-0.1451146
-5.309264	Laittaa	-0.1681227
-4.832142	Laittakkaa	-0.5679339
-5.309264	Laiva	-0.1681334
-5.008234	Laivassa	-1.180724
-5.309264	Lakaskaa	-0.167197
-5.309264	Laksebybuktassa	-0.1451146
-5.309264	Lakselvin	-0.1669941
-5.309264	Lammasvörräjän	-0.1680503
-4.832142	Lampaita	-0.2717115
-4.531113	Lamphaita	-0.2176135
-5.309264	Lamppu	-0.1681355
-4.707204	Lane	-0.06968704
-5.309264	Lanen	-0.1681355
-4.707204	Lannan	-1.184562
-5.309264	Lannasin	-0.1681355
-5.309264	Lapin	-0.1681355
-5.008234	Lapista	-1.172587
-5.309264	Lapland	-0.1208595
-4.832142	Lappalainen	-0.2685607
-5.309264	Lappalaisten	-0.1681355
-5.309264	Lapphiin	-0.1402935
-4.832142	Laps	-0.2722341
-5.309264	Lapsela	-0.1680758
-5.309264	Lapsen	-0.1681355
-5.309264	Lapsena	-0.1680226
-4.531113	Lapset	-0.3020625
-4.464166	Lapsi	-0.2056602
-5.309264	Lapsila	-0.1590082
-5.309264	Lapsile	-0.1561374
-5.309264	Lapsuuđen	-0.1561374
-5.309264	Laptevinmerele	-0.1679565
-5.008234	Lars	-0.1681291
-5.008234	Larsen	-0.1354826
-5.309264	Lasersätheet	-0.1657661
-5.309264	Lasersätheitten	-0.1681355
-4.610294	Laske	-0.3333115
-5.309264	Laskek-kaa	-0.1672931
-5.008234	Laskekkaa	-1.183743
-5.309264	Lasse	-0.1681355
-5.309264	Lassi-kuninkhaaksi	-0.1619532
-5.309264	Lastenseinä	-0.1654253
-5.309264	Lastentarhaasa	-0.1561374
-5.309264	Lastipiili	-0.1451146
-5.309264	Lattuuta	-0.1619532
-5.008234	Latviassa	-1.172587
-5.309264	Lauantaimakkeita	-0.1402935
-5.309264	Lauga-jo	-0.168046
-5.309264	Lauhakangas	-0.1208595
-5.309264	Laukhaan	-0.1619532
-4.707204	Laukkokkaa	-0.2143656
-4.464166	Lauko	-0.226329
-5.309264	Laukomako	-0.1681355
-4.832142	Laulanut	-0.2723981
-5.008234	Laului	-1.184583
-5.008234	Laulun	-1.184583
-5.008234	Laulut	-0.1651079
-5.309264	Lauritsin	-0.1672995
-5.309264	Lauseet	-0.1681355
-5.309264	Lauvantaina	-0.1681312
-5.309264	Lea	-0.1561374
-5.309264	Lean	-0.1561374
-4.531113	Leemin	-0.2177968
-4.03051	Leena	-0.6142502
-5.309264	Leenala	-0.1561374
-4.464166	Leenan	-1.728507
-5.309264	Legg	-0.1678947
-5.309264	Legomaa	-0.1677177
-5.309264	Legomaalta	-0.1402935
-4.531113	Lehmät	-0.2176583
-5.008234	Leht	-1.184574
-5.309264	Lehti	-0.1590082
-5.008234	Lehđet	-1.184583
-5.008234	Leif	-0.1681334
-5.309264	Leikhiin	-0.1681227
-5.309264	Leikimäkö	-0.1451146
-5.309264	Leikkaa	-0.1681334
-5.008234	Leipovuonosta	-1.175458
-5.309264	Leipäloovan	-0.1681035
-5.309264	Lemmijoessa	-0.1669471
-4.832142	Lemmijokheen	-0.5685909
-5.309264	Lemmijoki	-0.1451146
-5.309264	Lemmijokilainen	-0.1681355
-5.008234	Lemmijokilaiset	-1.183444
-4.309264	Lemmijoven	-0.3617088
-4.163136	Lemmijovessa	-0.0638147
-4.832142	Lemminjoesta	-0.2494007
-5.309264	Lemminkäisen	-0.1681355
-5.309264	Leningradin	-0.1681355
-4.832142	Lennon	-0.1518914
-5.309264	Lentelee	-0.1656054
-5.309264	Lenttäävä	-0.1681355
-5.309264	Lenttäävän	-0.1681355
-5.008234	Leoparti	-0.1680929
-4.832142	Leppäämä	-0.2604235
-5.008234	Leski	-0.1402844
-4.707204	Lestadiolaisuus	-0.4153078
-5.008234	Let	-1.184574
-5.309264	Leukaluut	-0.1678158
-5.008234	Leuvassa	-1.180724
-5.309264	Leveä	-0.1681312
-5.309264	Levi	-0.1681355
-5.309264	Levveeväylä	-0.1681355
-5.008234	Liekkikielii	-1.184167
-5.309264	Liekkiraito	-0.1681078
-5.309264	Life	-0.1451146
-5.309264	Lihakakkuja	-0.1451146
-5.309264	Lihaläjähän	-0.1681163
-4.832142	Liian	-0.1680226
-5.309264	Liikkaa	-0.1680247
-5.309264	Liiku	-0.1681206
-5.309264	Liima	-0.1673037
-2.9912	Liisa	-0.4867227
-5.309264	Liisa-nimen	-0.1674403
-4.309264	Liisaa	-0.4372456
-5.309264	Liisala	-0.1590082
-5.309264	Liisalta	-0.1646743
-3.79075	Liisan	-0.1922539
-5.309264	Liisasta	-0.1681163
-5.309264	Liishaan	-0.1561374
-4.309264	Liisäksi	-1.167916
-5.309264	Liitto	-0.1657661
-5.008234	Liivi	-1.184434
-5.309264	Likele	-0.1681291
-5.309264	Likennemä	-0.167372
-5.309264	Liker	-0.1681142
-5.008234	Likkiin	-0.1681312
-4.707204	Lillebo	-0.3818812
-5.309264	Lillukka	-0.1669471
-5.309264	Lina	-0.1681355
-5.008234	Lindbach	-0.1106677
-5.309264	Linkki	-0.1654253
-4.406174	Linnea	-0.9542255
-5.309264	Linnut	-0.1681163
-4.832142	Linttuin-	-0.2494007
-4.707204	Lintu	-0.4152907
-5.309264	Lintukka	-0.1669471
-5.309264	Lis	-0.1681206
-4.707204	Lissää	-0.2438441
-3.765196	Lisäksi	-0.4643301
-4.832142	Lisätä	-0.2723193
-5.309264	Litteratuuripalkinnole	-0.1451146
-5.008234	Liturg	-1.184304
-4.531113	Liturgi	-0.5529583
-5.008234	Liverpoolissa	-1.156743
-5.309264	Livisk	-0.1679842
-5.309264	Livonian	-0.1208595
-4.832142	Livvi	-0.5686144
-5.309264	Livvisk	-0.1679842
-5.309264	Lofootiilta	-0.1677518
-4.832142	Lohenpyytäminen	-0.2724046
-4.832142	Lohenpyytö	-0.2632943
-5.008234	Lohtivaarassa	-1.183397
-5.008234	Lohutusta	-1.182597
-5.309264	Loistaava	-0.1681249
-5.309264	Loisto	-0.1681185
-5.309264	Loistot	-0.1681355
-5.309264	Lokin	-0.1681355
-5.309264	Lokki	-0.1681355
-4.531113	Lomassa	-0.208693
-5.008234	Lonely	-1.184583
-5.309264	Lophuunmyyty	-0.1451146
-5.008234	Loppurukkous	-1.184583
-4.163136	Lopuksi	-0.7972634
-5.309264	Lopulisesti	-0.1561374
-5.309264	Lopulta	-0.1664575
-5.309264	Lopun	-0.167997
-5.309264	Loput	-0.1681312
-5.309264	Loukkaminen	-0.1590082
-5.309264	Loukkasitko	-0.1681121
-5.309264	Loukkaus	-0.1619532
-5.309264	Loukon	-0.1681355
-5.309264	Lounas-Suomessa	-0.1402935
-5.008234	Lounatuuli	-1.184583
-5.309264	Lovttas	-0.1681355
-5.309264	Ludviiki	-0.168029
-5.309264	Luja	-0.1681291
-4.610294	Luje	-0.353077
-5.008234	Lukekkaa	-1.184451
-5.309264	Lukeminen	-0.1674873
-5.309264	Lukitte	-0.1680716
-5.008234	Lukkari	-1.181875
-5.309264	Lumipallo	-0.1646743
-5.008234	Luoja	-1.161564
-4.133173	Luonnon	-0.2723512
-5.309264	Luonnonkategooriin	-0.1681014
-4.832142	Luonnonkategoorin	-0.2604235
-4.832142	Luonnonsuojelu	-0.2632943
-5.309264	Luononhallintadirektoraatti	-0.1451146
-4.832142	Luonto	-0.2724173
-5.309264	Luostijoki	-0.1561374
-5.008234	Luota	-0.1680055
-5.309264	Luottakkaa	-0.1680183
-4.832142	Lupasivat	-0.2724173
-5.309264	Luppaakkaa	-0.1650628
-5.309264	Luukkas	-0.1681355
-5.309264	Luuksa	-0.1561374
-5.309264	Luulajassa	-0.1681334
-5.309264	Luuleks	-0.1451146
-4.832142	Luulen	-0.5653495
-4.707204	Luuletko	-1.180137
-5.309264	Luulin	-0.1650628
-4.832142	Luulttaavasti	-0.2723577
-5.309264	Lydutstilling	-0.1451146
-5.008234	Lyhykäinen	-1.184583
-5.309264	Lyhykäiseksi	-0.1681291
-5.309264	Lyhykäisesti	-0.1681334
-5.309264	Lyhykäisilä	-0.1681355
-5.309264	Lykkyy	-0.1680375
-5.309264	Lymmyymä	-0.1451146
-4.707204	Lyngtorv	-0.4141258
-5.309264	Lyra	-0.168127
-5.309264	Lyö	-0.1668381
-4.832142	Lyömäkö	-0.5457466
-5.309264	Lyönkö	-0.1659161
-5.309264	Lágideaddjit	-0.1654253
-5.309264	Lähe	-0.1681206
-5.008234	Lähteekö	-0.1673059
-4.832142	Lähtheet	-0.5657638
-5.309264	Lähättää	-0.167197
-5.309264	Lähðe	-0.1675108
-4.355021	Lähðemä	-0.1995056
-5.309264	Lähðet	-0.166712
-5.309264	Lähđetkö	-0.1681355
-5.309264	Lämmitä	-0.1681334
-5.309264	Lämmön	-0.1681334
-5.309264	Läntisessä	-0.1679032
-5.309264	Læstadius	-0.1681014
-5.309264	Löydetty	-0.1681355
-5.008234	Löysittäkö	-1.161564
-5.309264	Löyttyykö	-0.1677348
-5.309264	Löytyny	-0.1681099
-4.406174	M	-0.3972051
-5.309264	M-methän	-0.1451146
-5.309264	M-mi-inun	-0.1681163
-4.832142	M-mutta	-0.1449528
-5.008234	MAAILMASSA	-1.156743
-4.832142	MAIJAN	-0.2724173
-5.309264	MAITOVAL	-0.1681291
-4.355021	MATTI	-0.9972877
-5.309264	MEITÄKÖ	-0.1661473
-5.309264	MEIÐÄN	-0.1681355
-5.008234	MET	-0.1679096
-5.309264	METKI	-0.167965
-5.309264	MIAU	-0.1619532
-4.531113	MIE	-0.1899783
-3.777785	MIES	-1.541356
-4.163136	MIKKO	-1.173379
-5.008234	MINUN	-0.1681334
-5.008234	MISTHÄÄN	-1.184583
-5.008234	MITÄ	-0.1584399
-4.832142	MInun	-0.2723705
-5.309264	MMM	-0.1619532
-5.309264	MUITAKI	-0.1673913
-5.309264	MUORI	-0.1619532
-5.309264	MUTTA	-0.1681312
-5.008234	MUUSTA	-1.184583
-4.230083	Maa	-0.9357668
-5.309264	Maailmankuulua	-0.1681355
-5.309264	Maailmankuulusia	-0.1681355
-5.309264	Maaleko	-0.1672995
-5.309264	Maali	-0.167372
-4.832142	Maanalhaiset	-0.2445796
-4.832142	Maanalhaisia	-0.2717115
-3.619068	Maanantai	-1.858225
-5.309264	Maanpruukia	-0.1642746
-5.309264	Maanrajat	-0.1561374
-5.309264	Maanselänvaaroin	-0.1681355
-5.309264	Maantienryöväys	-0.1619532
-4.707204	Maapruukia	-0.4114533
-4.464166	Maaria	-0.5627272
-5.309264	Maariaki	-0.1590082
-5.309264	Maariala	-0.1561374
-4.195321	Maarian	-0.379266
-4.464166	Maassa	-0.2012201
-4.406174	Maata	-0.1752841
-5.309264	MacDonald	-0.1208595
-5.309264	Madeirasta	-0.1619532
-5.008234	Maha	-0.1354826
-5.309264	Mahatma	-0.1681355
-4.133173	Maiala	-0.1808042
-4.707204	Maialan	-0.2435905
-5.309264	Maijala	-0.1681334
-4.531113	Maijan	-0.2177925
-5.309264	Maijanen	-0.1654253
-5.309264	Maikuu	-0.1681121
-5.309264	Maikuussa	-0.1681142
-5.008234	Mailma	-0.1561352
-5.309264	Mailmahan	-0.1677177
-4.230083	Mailman	-0.2852032
-5.309264	Mailmanlaajuisesti	-0.1590082
-4.832142	Maita	-0.2445796
-4.531113	Maitoa	-0.2177968
-5.309264	Maitomies	-0.1677348
-4.832142	Maitoruokia	-0.2445796
-5.309264	Maitoval	-0.1680929
-5.008234	Maitovalas	-0.1558284
-5.309264	Maitovalashan	-0.1679821
-5.309264	Maitovalasniemestä	-0.1451146
-5.309264	Majoriteettikieli	-0.1590082
-5.309264	Majorstyyan	-0.1681355
-5.008234	Majuri	-1.184583
-5.008234	Makkaa	-1.183647
-5.309264	Makkee	-0.1561374
-5.309264	Makkeempi	-0.1645153
-5.008234	Makkeet	-0.153534
-5.309264	Makrean	-0.1677923
-5.309264	Maksoi	-0.1652645
-5.309264	Maku	-0.1658132
-5.309264	Malin	-0.1681355
-4.355021	Maliniemi	-0.4707805
-5.309264	Malissa	-0.1402935
-5.008234	Mallinen	-0.1630023
-5.008234	Mallorcalla	-1.156743
-4.707204	Malmivaaran	-0.4033161
-4.464166	Mamma	-0.2662242
-5.309264	Mammona	-0.1673037
-4.531113	Man	-0.2177904
-4.832142	Manalainen	-0.2724131
-3.628023	Mandag	-1.642918
-5.008234	Mannen	-0.1657233
-5.309264	Mannfolkene	-0.1678947
-4.105144	Mansi	-0.5674329
-4.230083	Mantila	-1.962333
-5.008234	Manuel	-0.1681121
-5.008234	Margariinin	-0.13955
-5.309264	Margarin	-0.1451146
-5.309264	Marian	-0.1672995
-5.309264	Marianne	-0.1681334
-4.355021	Marjaturve	-0.996137
-5.309264	Markariinissa	-0.1681355
-4.707204	Markkinat	-0.4140018
-5.309264	Markkinoitten	-0.1681355
-5.309264	Markkus	-0.1680418
-5.309264	Marmelaati	-0.1451146
-5.309264	Marmelaatit	-0.1561374
-5.309264	Mars	-0.1619532
-5.309264	Marsistako	-0.1646743
-5.309264	Martan	-0.1561374
-4.832142	Martta	-0.2724173
-5.309264	Maskat	-0.1590082
-4.832142	Massa	-0.2604235
-4.531113	Maten	-0.2722319
-5.309264	Materiaalii	-0.1670923
-5.309264	Mathiaksen	-0.1681312
-4.267871	Mathias	-0.2175587
-5.309264	Mathiasta	-0.1402935
-4.707204	Matin	-0.1657232
-4.309264	Matka	-0.1910079
-5.309264	Matkaa	-0.1658132
-5.309264	Matkala	-0.1667034
-4.464166	Matkalaiset	-0.2103499
-5.309264	Matkan	-0.1679949
-5.309264	Matkar	-0.1681355
-5.309264	Matkasta	-0.1681035
-5.309264	Matki	-0.1451146
-4.832142	Mato	-0.2724173
-3.929053	Matseeni	-0.1821767
-5.309264	Matseenille	-0.1451146
-4.832142	Matseenin	-0.1668381
-5.309264	Matthiin	-0.1680609
-3.832143	Matti	-0.1169955
-5.309264	Matti-setä	-0.1451146
-5.309264	Matti-äijä	-0.1677817
-5.309264	Mattiaksen	-0.1668766
-4.832142	Mattias	-0.09189785
-5.309264	Mattihan	-0.1680737
-5.008234	Mauno	-0.1681206
-5.309264	Mauretanian	-0.1681334
-3.646506	Maŋŋebárga	-1.672
-4.531113	McCartney	-0.1670603
-4.832142	Me	-0.2724173
-4.464166	Mearrasámi	-0.7121908
-5.309264	Meil	-0.1680844
-5.309264	Meile	-0.1590082
-5.309264	Meiltä	-0.1681355
-3.516872	Meilä	-1.082193
-4.707204	Meilähän	-0.4061869
-5.309264	Meinaakko	-0.1667719
-5.309264	Meinaakkos	-0.1667719
-5.309264	Meinaako	-0.1652645
-5.309264	Meinaakos	-0.1652645
-5.309264	Meinaattako	-0.1681206
-5.309264	Meinaattakos	-0.1677006
-5.309264	Meininki	-0.1642746
-5.309264	Meininkikö	-0.1646743
-4.832142	Meistä	-0.559059
-5.008234	Meitä	-0.1550627
-3.718199	Meiðän	-0.3696081
-5.309264	Meiðänkielinen	-0.1680609
-5.309264	Meiðät	-0.1590082
-4.610294	Meiđän	-0.3628505
-5.309264	Mekile	-0.1619532
-5.309264	Mekin	-0.1619532
-4.832142	Mekki	-0.5392296
-4.610294	Meklari	-0.1526848
-5.309264	Melkeen	-0.1681014
-4.610294	Melkheen	-0.3533285
-4.832142	Melkkeen	-0.2724173
-4.832142	Mellassa	-0.2494007
-5.008234	Mellem	-0.1467494
-5.309264	Mellinki	-0.1590082
-5.309264	Men	-0.1680652
-3.966841	Mene	-0.6422442
-4.230083	Menemä	-0.215924
-5.309264	Menen	-0.1681355
-5.309264	Meni	-0.1674873
-5.309264	Menikö	-0.1679799
-4.531113	Menkkää	-0.2996049
-5.309264	Menkää	-0.167197
-4.195321	Mennesker	-1.145723
-5.309264	Merelä	-0.1590082
-5.309264	Meren	-0.1681312
-5.309264	Merenmaa	-0.1451146
-5.309264	Meressä	-0.1642746
-4.610294	Meri	-0.3471459
-5.309264	Meribiologi	-0.1561374
-5.008234	Meriharakka	-0.1681334
-5.008234	Merimaa	-0.1410403
-4.832142	Meripa	-0.2723705
-5.309264	Meripaaro	-0.1451146
-5.309264	Merisaamelaisten	-0.1680673
-4.105144	Merisaamen	-0.8184185
-4.832142	Merkitteekö	-0.2695506
-4.355021	Mervi	-0.9999808
-5.309264	Messias	-0.1680844
-4.707204	Mestari	-0.3922933
-5.309264	Mestariaivot	-0.1590082
-5.008234	Mestarii	-0.1636744
-5.309264	Mestarimma	-0.1451146
-2.836507	Met	-0.5612093
-5.309264	Metaljin	-0.1681355
-4.610294	Methän	-0.3627333
-5.309264	Methään	-0.1679117
-5.309264	Metki	-0.1679906
-5.309264	Mettässä	-0.1679309
-4.707204	Mettätyö	-0.3922933
-4.531113	Meän	-0.1679565
-4.707204	Meänkielelä	-0.4061869
-4.610294	Meänkielen	-0.7255992
-4.707204	Meänkieli	-0.2437546
-5.008234	Meänkielifestivaalit	-1.156743
-5.008234	Meänkieltä	-1.184459
-5.309264	Mi	-0.1681355
-5.309264	Mi-mie	-0.1680886
-5.309264	Mi-mieto	-0.1681185
-5.309264	Mi-mihiin	-0.1667034
-5.309264	Mi-mikä	-0.1678989
-5.008234	Miau	-1.178403
-5.309264	Midas	-0.1619532
-5.309264	Midt	-0.1681355
-2.564971	Mie	-0.6660688
-5.309264	Miehen	-0.1681249
-4.832142	Miehet	-0.1450922
-5.008234	Miehän	-0.1673763
-4.832142	Mieki	-0.1680652
-4.464166	Miekö	-0.2061857
-5.008234	Mieleheni	-1.184568
-5.309264	Mielelhään	-0.1658132
-4.610294	Mielikuva	-0.3533051
-4.464166	Mies	-0.480508
-4.531113	Miesihmiset	-0.2058221
-4.078815	Mihiin	-0.6606694
-5.309264	Mihiinkö	-0.1451146
-4.267871	Mihin	-1.130372
-5.008234	Miihiin	-0.1666521
-5.309264	Miihiinkhöön	-0.1678989
-4.230083	Miinale	-1.113916
-4.230083	Miinan	-1.113858
-5.008234	Miitten	-0.1681291
-4.832142	Miitä	-0.1678947
-5.309264	Mikke	-0.1681355
-4.531113	Mikkeli	-0.2685542
-5.008234	Mikkelsen	-0.168029
-5.309264	Mikkelsenin	-0.1672995
-4.195321	Mikko	-0.1613542
-4.230083	Mikkä	-0.1819791
-5.309264	Mikromarc	-0.1681355
-4.355021	Miks	-0.9998103
-5.309264	Miksettäkö	-0.1681355
-3.601694	Miksi	-0.4602031
-5.309264	Miksiko	-0.167182
-5.309264	Miksikäs	-0.1656054
-5.309264	Miksiköhän	-0.1680012
-3.561076	Mikä	-0.510682
-4.610294	Mikäpä	-0.2244892
-4.707204	Mikäs	-0.4285839
-5.309264	Mile	-0.1681334
-5.309264	Mille	-0.1681355
-4.531113	Millä	-0.3237301
-4.230083	Millälaila	-0.5263183
-4.832142	Miltä	-0.1652559
-5.309264	Miltäs	-0.1652645
-4.832142	Minde	-0.1585924
-5.309264	Miniatyyri	-0.1680972
-5.309264	Ministerikomitea	-0.1681334
-4.707204	Minkä	-0.1679927
-5.008234	Minkälainen	-0.1577203
-5.309264	Minkälaisen	-0.1681334
-5.008234	Minkälaissiiko	-0.1681334
-5.309264	Minoriteetit	-0.1680588
-5.309264	Minoriteettikielisopimuksen	-0.1668766
-5.309264	Minoriteettikielisopimus	-0.1668766
-5.309264	Minoritteettikielisopimuksen	-0.1674403
-5.008234	Minu	-1.184459
-4.309264	Minula	-1.156634
-5.309264	Minulahan	-0.1590082
-5.008234	Minule	-0.1560739
-3.350222	Minun	-0.3591368
-5.008234	Minusta	-0.1632609
-5.008234	Minuutissa	-1.175458
-5.309264	Miraakkeli	-0.1590082
-5.309264	Miraakkeliko	-0.1646743
-3.777785	Missä	-0.4346107
-5.309264	Missähän	-0.1652645
-5.309264	Missäkhöön	-0.1675577
-4.832142	Missäpä	-0.163304
-5.309264	Missäs	-0.1652645
-4.105144	Mistä	-0.5703427
-5.309264	Mistähän	-0.1677006
-5.309264	Mistäpä	-0.1668381
-5.309264	Miten	-0.1680929
-5.309264	Mitt	-0.1681355
-3.195321	Mitä	-0.5504376
-4.707204	Mitähän	-0.4040236
-5.309264	Mitäkhöön	-0.1681206
-4.355021	Mitäpä	-0.3783677
-3.966841	Mitäs	-0.5075604
-5.309264	Mmm	-0.1451146
-5.008234	Moberghiin	-1.156743
-5.309264	Moderasuuni	-0.1590082
-5.309264	Moderniista	-0.1680737
-5.309264	Mole	-0.1680503
-5.008234	Molemat	-0.1679821
-5.309264	Molemmat	-0.1681249
-5.008234	Molemppii	-1.184536
-5.309264	Molen	-0.1681014
-5.309264	Molliskurkkiin	-0.1680098
-5.309264	Molotoovin	-0.1681355
-4.832142	Mona	-0.5687678
-5.008234	Monenlaissii	-1.184545
-3.553389	Monet	-0.4627437
-5.309264	Mongoolian	-0.168095
-5.309264	Monicka	-0.1681355
-5.309264	Monickan	-0.1681291
-5.309264	Monikertaisuus	-0.1590082
-5.309264	Monikertaisuuus	-0.1590082
-5.309264	Monikielisen	-0.1561374
-4.832142	Monikielisyys	-0.2604235
-4.832142	Moninainen	-0.2604235
-5.309264	Monoliitti	-0.1681355
-5.309264	Monolitti	-0.1669471
-5.309264	Monsenin	-0.1681355
-5.309264	Monsi	-0.1402935
-4.610294	Monssa	-0.3230743
-5.309264	Monssahan	-0.1681355
-4.832142	Monssale	-0.5407573
-4.707204	Monssan	-0.1674339
-5.008234	Monta	-1.184334
-5.008234	Montanzassa	-1.183397
-3.987045	Mooni	-1.3194
-5.309264	Moora	-0.1678968
-5.309264	Moos	-0.1681355
-4.832142	Mooseksele	-0.2604235
-4.707204	Mooseksen	-0.2438931
-4.832142	Mooseksheen	-0.2724173
-4.355021	Mooses	-0.2282815
-4.832142	Moosesta	-0.2722276
-5.309264	Moottoriajoneuvot	-0.1681355
-5.309264	MopBeats	-0.1561374
-5.309264	MopBeatsistä	-0.1561374
-5.309264	Moraalii	-0.168127
-5.309264	Morien	-0.1681355
-4.832142	Morttiniemessä	-0.2445796
-5.309264	Moses	-0.1681334
-5.309264	Mouruniemessä	-0.1451146
-5.309264	Mr	-0.1402935
-5.309264	Mrs	-0.1402935
-5.309264	Mtä	-0.1680332
-5.008234	Mu-mulla	-0.1586512
-5.309264	Mu-mutta	-0.1681099
-5.008234	Mua	-1.184564
-5.309264	Muikkeet	-0.1561374
-4.832142	Muista	-0.1413237
-4.464166	Muistakkaa	-0.3285791
-5.309264	Muistan	-0.167965
-4.832142	Muistattako	-0.566741
-4.105144	Muistele	-0.4737933
-5.309264	Muistelenko	-0.1659161
-4.531113	Muisteli	-0.2149492
-4.531113	Muisteliko	-0.2149492
-5.309264	Muistelukset	-0.1680311
-5.309264	Muisteluksia	-0.1681312
-5.309264	Muisteluksissa	-0.1681355
-5.309264	Muistelus	-0.1590082
-5.309264	Muistelustila	-0.1590082
-5.008234	Muistoin	-1.184583
-5.309264	Muistoja	-0.168095
-4.355021	Muitaki	-0.9999808
-5.008234	Mull	-1.184398
-4.03051	Mulla	-2.14684
-5.309264	Mullaki	-0.1590082
-5.008234	Mulle	-0.1590017
-5.309264	Mullekko	-0.1646743
-4.105144	Mun	-0.9490879
-5.309264	Muonihoon	-0.1451146
-4.195321	Muori	-0.1944893
-4.832142	Muori-vaina	-0.2724173
-5.309264	Muorrakássa	-0.1681355
-5.309264	Murtauvuma	-0.167916
-5.309264	Mus-fikuuria	-0.1669471
-5.309264	Musehoon	-0.1402935
-5.309264	Museo	-0.1561374
-5.309264	Museon	-0.1681227
-4.707204	Museum	-0.3562083
-5.309264	Musikillisen	-0.1681355
-5.309264	Musikki	-0.1561374
-4.707204	Mut	-0.4150158
-5.309264	Muta	-0.1681035
-4.707204	Mutt	-0.2437141
-2.538412	Mutta	-0.6138411
-5.309264	Muturisykkelillä	-0.1451146
-5.309264	Muuala	-0.1680716
-5.309264	Muur	-0.1681355
-5.309264	Muusikko	-0.1681355
-5.309264	Muusikot	-0.1681355
-4.230083	Muut	-0.7171376
-5.309264	Muuta	-0.1681227
-5.309264	Muutakko	-0.1667719
-5.008234	Muutaman	-0.1680929
-4.195321	Muutamat	-0.2547376
-5.309264	Muutamiile	-0.1680332
-4.230083	Muutamila	-1.89244
-4.230083	Muutamina	-1.113886
-5.008234	Muutamisti	-1.184071
-4.03051	Muutammat	-0.2931373
-4.531113	Muutammiila	-0.2724067
-4.832142	Muutammiina	-0.2724173
-5.309264	Muutammila	-0.1642746
-5.309264	Muutammina	-0.1680801
-4.464166	Muutampi	-0.1582329
-5.309264	Muutamppaa	-0.1679288
-5.309264	Muuten	-0.1674318
-4.707204	Muutoin	-0.1659567
-5.008234	Muutoksia	-1.184355
-4.707204	Muuton	-0.2414744
-5.309264	Muutos	-0.1681312
-5.309264	Muuttomiehet	-0.1681312
-5.008234	Muuvala	-1.184521
-5.309264	Mvh	-0.1402935
-4.832142	Myndighetene	-0.2723172
-5.309264	Mynkki	-0.1619532
-5.309264	Mynsi	-0.1402935
-5.309264	Myosotis	-0.1681355
-5.309264	Myseymmi-ajatuksen	-0.1681355
-5.309264	Mysikkii	-0.1672931
-5.309264	Mysteeri	-0.1652645
-5.309264	Mysti-seltä	-0.1652645
-5.309264	Mytterii	-0.1619532
-5.309264	Myö	-0.1681355
-4.610294	Máret	-0.460191
-5.309264	Márkomeannu-festivaali	-0.1590082
-5.309264	Márkomeannu-festivaalila	-0.1681355
-5.309264	Mäkisaaressa	-0.1681355
-5.309264	Mäkisaarheen	-0.1208595
-5.309264	Mälarn-seuðuilta	-0.1680716
-4.832142	Märikkö	-0.2632943
-4.832142	Märiköissä	-0.272249
-5.309264	Märkäaloitten	-0.1681355
-5.309264	Mål	-0.1678947
-4.531113	Möst	-1.184195
-5.309264	Mööpelithän	-0.1590082
-4.832142	Möötin	-0.1680801
-5.309264	Möötti	-0.1681057
-4.832142	Mööttiaika	-0.2697114
-4.832142	Mööttipaikka	-0.2697114
-5.309264	Münchenissä	-0.1681355
-4.832142	N	-0.5660619
-4.832142	NASA	-0.5361214
-5.008234	NASA:le	-1.156743
-5.309264	NASAle	-0.1402935
-5.309264	NEN	-0.1681249
-5.008234	NGO-prošektin	-0.1681142
-5.008234	NIIN	-0.1402913
-5.309264	NOSTANU	-0.1675577
-5.008234	NRK	-0.1675598
-5.309264	NRK:n	-0.1561374
-5.309264	NRK:ssa	-0.1681035
-5.309264	NTH:ssa	-0.1451146
-5.309264	NTV	-0.1681355
-5.309264	NTV:heen	-0.1673998
-3.929053	NUUTTI	-1.395228
-5.309264	Naasaretista	-0.1679821
-5.008234	Naavuonhoon	-1.178403
-5.008234	Naavuonon	-1.184212
-4.531113	Naavuonosta	-0.1899783
-5.309264	Nagirbeaivi	-0.1681355
-5.309264	Naistenlehtii	-0.1681355
-5.309264	Narraus	-0.1619532
-5.309264	Narvik	-0.1402935
-5.008234	National	-1.184583
-5.309264	Nations-kielele	-0.1451146
-5.309264	Nauhoila	-0.1681291
-5.309264	Nauhojen	-0.1681312
-5.309264	Nauta	-0.1681355
-5.309264	Nauttilus	-0.1619532
-4.531113	Navetan	-0.2178032
-5.309264	Našunaali	-0.1681291
-5.309264	Našunaaliteatteri	-0.1681355
-5.309264	Nedrevann	-0.1451146
-5.309264	Nedrevannilla	-0.1669471
-5.309264	Neill	-0.1681355
-5.008234	Nektende	-1.181875
-5.008234	Nelje	-0.1681185
-5.309264	Neljekymppiikö	-0.1646743
-5.309264	Neljä	-0.1402935
-5.309264	Nenets	-0.1681334
-5.008234	Nenetsi	-1.184434
-5.309264	Nenetsisk	-0.1679842
-5.309264	Neptuni	-0.1681355
-5.008234	Nerokasta	-0.1385909
-5.309264	Nerokhaasti	-0.1451146
-5.309264	Nerokhaat	-0.1667034
-5.008234	Neskie	-1.184583
-3.309264	Net	-0.5499097
-5.008234	Nethän	-1.175458
-4.832142	Netpä	-0.2711092
-5.309264	Neuvot	-0.1561374
-5.008234	Ngasan	-1.184434
-5.309264	Ngasanian	-0.1681334
-5.309264	Ngasansk	-0.1679842
-5.309264	Nice	-0.1680609
-5.008234	Niels	-1.184577
-5.309264	Niihin	-0.1658132
-5.309264	Niile	-0.1673913
-4.832142	Niileksen	-0.2722767
-5.309264	Niilä	-0.1680268
-3.09442	Niin	-0.6268617
-5.008234	Niinhän	-0.1635732
-4.105144	Niinko	-0.8458742
-4.832142	Niinkö	-0.2689604
-3.777785	Niinpä	-0.2455212
-5.008234	Niiranen	-1.183397
-4.309264	Niissä	-0.2772198
-4.707204	Niistä	-1.182257
-4.832142	Niitten	-0.2717264
-4.707204	Niitty	-0.2436971
-5.309264	Niityle	-0.1664575
-4.355021	Niityn	-0.9879997
-3.79075	Niitä	-0.8702655
-4.832142	Nikita	-0.2724173
-5.309264	Nikkelin	-0.1681355
-5.309264	Nikolai	-0.1681355
-5.008234	Niku	-0.1157022
-4.309264	Nilla	-1.175264
-4.707204	Nillan	-1.184517
-5.008234	Nillasta	-1.181875
-5.309264	Nilsen	-0.1681249
-4.610294	Nilsen-Børsskog	-0.3525395
-4.832142	Nilsen-Børsskogin	-0.1669343
-4.464166	Nimityksen	-1.671406
-5.309264	Nimiä	-0.1681035
-3.359874	No	-0.6633492
-5.309264	NoS	-0.168127
-4.832142	Noen	-0.2724173
-3.947536	Noh	-2.219593
-5.309264	Nokko	-0.1590082
-5.309264	Nollan	-0.1681249
-5.309264	Noo	-0.1451146
