
\data\
ngram 1=26068
ngram 2=78836
ngram 3=27770

\1-grams:
-1.841196	!	-3.423893
-4.084088	%	-0.569727
-5.314537	&	-0.1689363
-3.165318	'	-0.257057
-2.567903	(	-0.3734185
-2.570244	)	-0.5817837
-5.314537	)Kväänilä	-0.1651222
-5.314537	)Nykyisin	-0.168911
-4.360295	*	-0.1841556
-4.837416	+	-0.2711498
-4.469439	+47	-0.806829
-1.292233	,	-0.5286433
-2.54295	-	-0.3082341
-4.200594	---	-0.8036433
-1.211076	.	-4.053902
-2.578141	...	-2.687598
-2.263771	/	-0.2580552
-4.837416	/Hällä	-0.2688598
-5.314537	/Meilä	-0.1666421
-4.837416	/Sulla	-0.2688598
-4.837416	/Teilä	-0.2621359
-5.314537	0-5	-0.1689363
-3.783058	000	-1.21901
-5.314537	000001	-0.1413694
-5.013507	000002	-0.1366834
-4.837416	01.09.2010	-0.2215619
-5.013507	01/09	-0.1662568
-5.314537	02	-0.1665659
-5.013507	02.04.2011	-0.08831831
-5.314537	02/09	-0.1689321
-5.013507	02/10	-0.1662547
-5.314537	02123	-0.1689363
-5.013507	03	-1.160827
-5.314537	03/09	-0.1662589
-5.314537	04.01.2012	-0.1193442
-5.314537	04.02.2013	-0.1193442
-5.314537	04/09	-0.1662589
-5.314537	04/10	-0.1689363
-5.314537	05.06.2012	-0.1193442
-5.314537	05.07.2012	-0.1193442
-5.314537	05.12.12-15.02.13	-0.1599181
-5.314537	05/09	-0.1662589
-5.314537	05/10	-0.1689342
-5.314537	06/10	-0.1689363
-5.314537	06090	-0.1689131
-5.013507	07.06.2012	-1.111237
-5.314537	07/10	-0.1689342
-5.314537	08.02.13	-0.1193442
-5.314537	08.06.2012	-0.1193442
-5.314537	09	-0.1662589
-5.314537	09-12	-0.1413694
-4.712477	09.11.05	-0.3966581
-5.314537	091	-0.1689089
-5.314537	09a/10	-0.1688521
-5.314537	09b/10	-0.1689363
-5.314537	0:05-0:12s	-0.1688626
-5.314537	0:13-0:17s	-0.1688521
-5.314537	0:24-0:32s	-0.1688415
-5.314537	0:33-0:43s	-0.1688458
-5.314537	0:48-0:58s	-0.1688458
-3.681069	1	-0.7386322
-4.837416	1%	-0.270954
-4.837416	1,4	-0.2711393
-5.314537	1,5	-0.1689321
-5.314537	1,53	-0.1677686
-5.013507	1-2	-1.111237
-5.314537	1-2012	-0.1413694
-4.536386	1-3	-0.2210297
-4.469439	1.	-0.1688647
-5.314537	1.20-1:1:29m	-0.1688794
-5.314537	1.32-1:42m	-0.1688458
-5.314537	1.46-1:51m	-0.1688352
-5.314537	1.52-1:59m	-0.1688626
-4.536386	1.8.	-0.2209392
-4.837416	1.”Totisesti	-0.2484117
-3.671084	10	-0.5598854
-5.314537	10-vuotisjuhlaa	-0.1413694
-5.314537	10.-	-0.1193442
-4.837416	10.00	-0.1400396
-5.314537	10.000	-0.168732
-5.013507	10.03.02	-1.133262
-5.314537	10.novemberikuuta	-0.1689194
-4.314537	100	-0.1776377
-5.314537	100%	-0.1689363
-5.314537	100-meeterin	-0.1689321
-4.837416	100.-	-0.2215619
-4.536386	10000	-0.2709287
-5.013507	104	-0.1458034
-5.314537	1075	-0.1689363
-3.796023	11	-0.709707
-5.013507	11-12-vuoti	-0.1688605
-5.013507	11-12-vuotisile	-0.1461895
-5.314537	11.00	-0.146194
-5.314537	11.novemberikuuta	-0.1689194
-5.314537	1138	-0.1662589
-3.661325	12	-0.6516269
-4.360295	12-13	-0.999981
-4.837416	12.	-0.1568945
-5.314537	12.00	-0.1193442
-5.314537	12.15	-0.1570828
-5.013507	1200-luvula	-0.1593375
-5.314537	1200-luvun	-0.1689363
-5.314537	121	-0.1413694
-5.314537	125	-0.1689363
-3.606967	13	-1.171186
-5.314537	13-14	-0.1413694
-5.314537	13-jalkanen	-0.146194
-5.314537	13.03.2011	-0.1193442
-5.314537	13.07.2011	-0.1193442
-5.013507	130	-1.160759
-5.314537	139	-0.1193442
-3.770469	14	-0.8268185
-5.314537	14-15	-0.168732
-4.615567	14-1500-	-0.7781344
-5.314537	14-16	-0.1677686
-5.314537	14.	-0.1689363
-5.314537	14.-21.09.2012	-0.1413694
-5.314537	144	-0.1688668
-5.314537	14:1-7	-0.1193442
-5.314537	14:56:00	-0.168911
-5.314537	14:59:00	-0.168911
-3.758235	15	-0.9759034
-5.314537	15,1-7	-0.1686583
-4.469439	15-1600-luvulta	-1.56786
-5.314537	15-vuotias	-0.1689215
-5.314537	15-vuotisesta	-0.1689342
-4.712477	15.	-0.4159617
-5.314537	15.02.	-0.168831
-5.314537	15.02.13	-0.1193442
-5.314537	15.02.2013	-0.1689342
-5.013507	150	-0.1688626
-5.314537	1500	-0.1676926
-5.314537	1500-1600	-0.1676926
-5.013507	1536-1559	-1.159661
-5.013507	1537	-1.160827
-3.809387	16	-1.981208
-5.314537	16-21	-0.1676926
-5.314537	16.	-0.1688015
-4.615567	160	-0.3368022
-4.837416	1600	-0.5652786
-4.615567	1600-	-0.7781407
-5.314537	1600-luvula	-0.1413694
-4.712477	1600-luvulta	-1.132009
-5.314537	164	-0.1688668
-5.314537	1642	-0.146194
-5.013507	1645-1715	-1.159585
-4.360295	1680-luvulta	-0.9772556
-3.770469	17	-0.8173362
-5.314537	17-vuotisena	-0.146194
-4.314537	17.	-1.168896
-4.712477	17.00	-0.1936581
-5.314537	17.01.2012	-0.1193442
-4.314537	1700-luvula	-1.858563
-5.314537	1700-luvun	-0.1689173
-5.314537	1732	-0.1193442
-5.013507	1734	-1.159655
-4.314537	1740	-1.846736
-5.013507	1740-luvula	-1.159655
-5.314537	1742	-0.1676926
-5.314537	1742–1745	-0.146194
-5.314537	1745	-0.168572
-5.013507	1747	-0.1180255
-4.360295	1748	-0.2347724
-5.013507	1750	-1.159655
-5.013507	1751	-1.159661
-5.013507	1770-luvula	-1.16077
-5.314537	1790-91	-0.1413694
-3.837416	18	-0.6406532
-5.314537	18,1-15	-0.1570828
-4.837416	1800-lopun	-0.2711435
-3.701753	1800-luvula	-0.6878983
-4.615567	1800-luvun	-0.7781407
-5.314537	1816	-0.1677686
-5.314537	1820-luvun	-0.1689194
-5.314537	1830	-0.1685404
-4.536386	1830-1860	-0.9447172
-4.536386	1840-luvula	-0.321376
-5.013507	18482	-1.160768
-5.314537	1850-luvun	-0.1689363
-4.712477	1851	-0.4123714
-4.536386	1860-	-0.2091994
-4.469439	1860-luvula	-0.2129695
-5.314537	1863	-0.1689131
-5.314537	1870	-0.1413694
-5.013507	1871	-1.138087
-5.314537	1880-luvula	-0.146194
-4.360295	1885	-0.999981
-5.314537	1887	-0.1669721
-4.615567	1890	-0.3552444
-5.314537	1898	-0.1689194
-3.916597	19	-1.405591
-5.013507	19-20.	-1.160694
-5.013507	19.	-0.1570806
-5.314537	19.-20.	-0.16893
-5.314537	19.02.2013	-0.1193442
-5.314537	19.05.2011	-0.1193442
-5.314537	19.12.08	-0.1570828
-4.314537	1900	-0.2069213
-4.360295	1900-1910-luvula	-0.9724311
-4.837416	1900-luvun	-0.2711498
-4.837416	1904	-0.2710298
-5.314537	1905	-0.146194
-4.314537	1917	-0.8402273
-5.314537	1920-luvula	-0.1651222
-4.200594	1926	-1.202262
-4.712477	1928	-1.136854
-4.360295	1930-luvun	-1.12312
-5.314537	1932	-0.1413694
-5.314537	1933	-0.1682052
-3.289231	1934	-2.001815
-5.314537	1935	-0.146194
-5.314537	1936	-0.1651222
-5.314537	1939	-0.1677686
-4.615567	1940	-0.1191889
-5.314537	1944	-0.1689194
-5.013507	1945	-0.1686941
-5.314537	1949	-0.146194
-5.314537	1957	-0.1689279
-5.314537	1961	-0.1689068
-5.314537	1962	-0.1687594
-5.314537	1964	-0.1413694
-5.314537	1966	-0.1413694
-5.314537	1967	-0.1570828
-5.314537	1968	-0.1413694
-4.837416	1969	-0.2711498
-5.314537	1970	-0.1669721
-5.314537	1970-	-0.1570828
-5.314537	1970-luvulta	-0.1687594
-5.314537	1975	-0.1685235
-5.013507	1978	-0.1684645
-4.615567	1980	-0.2142827
-4.837416	1980-luvula	-0.5338802
-5.314537	1980-luvun	-0.1689173
-5.314537	1981	-0.1677686
-5.314537	1982	-0.1677686
-4.837416	1984	-0.1381162
-4.615567	1985	-0.1877644
-5.013507	1989	-1.160433
-5.314537	1993	-0.146194
-4.837416	1994	-0.2435872
-4.837416	1995	-0.536701
-5.314537	1997	-0.1413694
-5.013507	1998	-0.1401161
-5.314537	1998-2002	-0.1413694
-5.013507	1999	-0.1665892
-5.314537	1:01-1:15m	-0.1688647
-5.314537	1:6	-0.1677686
-3.558662	2	-0.6206747
-5.314537	2,081	-0.1689215
-5.314537	2,18	-0.1689215
-4.837416	2,6	-0.2711119
-4.712477	2-3	-0.2432488
-4.110417	2.	-0.537353
-4.360295	2.8.	-0.9997768
-3.972114	20	-0.4274727
-5.314537	20-21.5.2010	-0.1413694
-5.314537	20-vuotisjuhlaa	-0.1413694
-4.837416	20.	-0.1688794
-4.837416	20.09.12	-0.2711371
-5.314537	20.5.10	-0.1689152
-4.314537	200	-0.4069551
-5.314537	2000	-0.1685677
-5.013507	2002	-1.148975
-4.411447	2003	-0.2060448
-4.712477	2004	-0.3768935
-5.013507	2005	-0.1193347
-4.469439	2006	-0.1743586
-4.314537	2007	-0.2508011
-5.314537	2007-2008	-0.1677686
-4.200594	2008	-0.5403191
-5.314537	2008-2009	-0.1665659
-4.235356	2009	-0.5899223
-4.837416	2009-2010	-0.490344
-5.314537	201	-0.1688521
-3.972114	2010	-0.3582489
-4.235356	2011	-0.2221868
-5.314537	2011-2012	-0.1413694
-3.952809	2012	-0.4999731
-4.273144	2013	-0.3670996
-4.235356	21	-0.7925961
-5.314537	21,1-7	-0.1193442
-4.837416	21.	-0.2691898
-5.314537	21.02.2013	-0.1193442
-5.314537	21.06.2012	-0.1193442
-5.314537	21.07.2011	-0.1193442
-5.314537	21.5	-0.1689279
-5.314537	21.6.2012	-0.1193442
-4.536386	21.7.	-0.2208318
-3.837416	21.7.1934	-1.463793
-4.013507	22	-0.6300498
-5.314537	22.00	-0.1413694
-4.837416	22.7.	-0.2711182
-4.360295	22.7.1926	-0.9724311
-3.992318	22.7.1934	-1.314854
-4.837416	22.7.26	-0.2435872
-4.536386	22.7.34	-0.193486
-3.972114	23	-1.019838
-5.314537	23.	-0.1689363
-4.059265	23.7.	-0.5378631
-3.691288	23.7.1926	-1.552849
-3.746336	23.7.1934	-1.552215
-4.837416	23.7.34	-0.2435872
-4.035783	24	-0.6858096
-5.314537	24.	-0.1689342
-5.314537	24.11.2011	-0.1193442
-3.883173	24.7.	-1.225032
-4.837416	24.7.1926	-0.2215619
-4.235356	24.7.26	-1.086374
-4.168409	25	-1.095471
-4.837416	25.	-0.5655082
-5.314537	25.01.2012	-0.1193442
-3.783058	25.7.	-1.543729
-4.837416	25.7.1934	-0.2435872
-4.837416	250	-0.2710845
-4.059265	26	-0.9686874
-5.314537	26.11.2010	-0.1193442
-3.934326	26.7.	-0.822776
-5.314537	261	-0.1689089
-4.273144	27	-0.4969264
-4.837416	27.	-0.2686524
-4.360295	27.7.	-0.2367826
-4.536386	27.7.1934	-0.193486
-4.200594	28	-0.5602771
-4.837416	28.	-0.16889
-5.314537	28.01.2012	-0.1689363
-4.837416	28.7.	-0.2710403
-4.360295	28.7.1934	-0.1565016
-4.411447	29	-0.6165048
-4.837416	29.7.	-0.2709329
-4.837416	29.7.1934	-0.2435872
-4.837416	29.7.34	-0.2435872
-3.598534	3	-0.6314206
-4.837416	3.	-0.1687489
-5.314537	3.-4.	-0.1689342
-4.168409	30	-0.3455724
-5.013507	30-40	-1.160825
-5.314537	30.	-0.1689279
-5.314537	30.-	-0.1193442
-5.314537	30.05.2010	-0.1193442
-3.934326	30.7.	-1.397717
-4.273144	31	-0.5731387
-5.314537	31.	-0.1689363
-5.314537	31.10.2011	-0.1193442
-4.837416	31.7.	-0.2710403
-4.615567	32	-0.3765759
-5.314537	323	-0.168572
-4.411447	33	-0.2436784
-5.013507	33000	-1.160768
-3.574174	34	-1.160574
-4.837416	3400-4000	-0.2711498
-4.712477	35	-0.3987896
-5.314537	350	-0.1677897
-5.013507	3500	-1.151811
-4.615567	36	-0.279144
-5.314537	360	-0.1677897
-4.837416	37	-0.4848965
-5.314537	370	-0.1689026
-4.536386	38	-0.1364217
-5.314537	38.40	-0.1677686
-4.536386	3886	-0.2209918
-5.314537	39	-0.1413694
-5.314537	3net:lä	-0.1193442
-3.701753	4	-0.6110485
-5.314537	4,5	-0.1689321
-4.615567	4.	-0.3478976
-4.469439	40	-0.127673
-5.013507	400	-1.160759
-4.615567	41	-0.279144
-4.411447	42	-0.345127
-5.314537	427	-0.1684645
-4.712477	43	-0.2154705
-5.013507	44	-0.1191128
-4.615567	45	-0.311332
-5.013507	450	-1.160759
-5.013507	452	-1.160827
-4.615567	46	-0.3125326
-5.314537	46-47	-0.1193442
-5.013507	47	-0.1688921
-5.013507	476	-1.160791
-5.013507	48	-0.1193371
-5.314537	482	-0.1688752
-5.314537	49	-0.1193442
-3.624341	5	-0.6128241
-5.314537	5,137	-0.1689215
-5.314537	5,7	-0.1689342
-5.314537	5-6	-0.1688816
-4.200594	5.	-0.5274222
-5.314537	5.12.2012	-0.1676926
-3.992318	50	-0.4934466
-5.314537	50-50	-0.1689363
-5.314537	50-60-luvule	-0.1413694
-5.013507	50.-	-1.111237
-4.712477	500	-0.2431794
-5.314537	51	-0.168732
-5.013507	52	-0.1191128
-5.013507	53	-1.111237
-4.712477	54	-0.3472047
-5.314537	55	-0.1688668
-5.314537	550	-0.1653557
-5.314537	56	-0.1193442
-5.314537	57	-0.1193442
-5.013507	58	-0.1193418
-3.681069	6	-0.6105667
-4.837416	6.	-0.5654997
-5.314537	6.4.1996	-0.1677686
-4.138446	60	-0.9136428
-4.837416	60-	-0.2711498
-5.314537	60-luvun	-0.1689363
-5.314537	600	-0.1688668
-5.013507	60000	-1.156713
-5.013507	61	-1.111237
-5.314537	62	-0.1193442
-5.314537	620	-0.1688668
-3.952809	64	-1.178622
-5.013507	65	-0.1193418
-5.314537	65-vuotihaita	-0.168871
-5.314537	66	-0.1193442
-5.314537	678	-0.1689342
-5.314537	68	-0.1193442
-3.758235	7	-1.371113
-5.314537	7-8	-0.1689342
-4.837416	7.	-0.5536588
-5.314537	7.-8.	-0.1689279
-4.469439	70	-0.4316688
-4.837416	70-	-0.2593005
-4.536386	70-luvula	-0.193486
-5.314537	700	-0.1688668
-4.615567	7000	-0.4569391
-4.837416	72	-0.5159177
-5.314537	73	-0.168732
-5.314537	75	-0.1688668
-5.314537	78	-0.1689279
-5.314537	79	-0.1676926
-3.651779	8	-0.6959597
-5.314537	8-10	-0.168732
-5.314537	8-15.30	-0.1193442
-4.837416	8.	-0.2711456
-4.536386	80	-0.3937761
-4.837416	80-luvuila	-0.2711308
-5.314537	8000	-0.1689089
-5.314537	815	-0.1689342
-5.314537	823	-0.1689089
-5.013507	878	-1.160827
-4.837416	88	-0.1688921
-5.314537	880.000	-0.1689026
-5.314537	89	-0.146194
-4.837416	890	-0.5651059
-3.867379	9	-0.8352347
-5.013507	9-15	-1.133262
-5.314537	90	-0.1626326
-5.314537	900	-0.1193442
-4.837416	94	-0.2710656
-5.013507	95	-0.119304
-5.314537	950	-0.168831
-4.712477	9716	-0.4234053
-5.013507	98	-1.160433
-4.837416	99,9	-0.2711203
-2.211076	:	-0.6462973
-4.712477	:/:Annatko	-0.4228778
-4.712477	:/:Kristus	-0.424166
-4.536386	:/:Kuvasi	-0.2120348
-4.712477	:/:Sie	-0.4234686
-4.712477	:/:Vanhaan	-0.4242165
-3.190686	;	-0.5552052
-5.314537	<	-0.1689321
-0.9669144	</s>
-99	<s>	-0.5785207
-3.281113	=	-1.343245
-2.025171	?	-3.239995
-5.013507	@	-1.160827
-4.712477	A	-0.4002455
-5.314537	A-A-AT-JUU	-0.1626326
-4.837416	A4	-0.2593005
-5.314537	A5	-0.1570828
-5.314537	AAA	-0.1689279
-5.314537	AAN	-0.1689363
-5.314537	AD	-0.146194
-5.314537	AI-ministeri	-0.1689363
-5.314537	AIKA	-0.1648205
-5.314537	AIKOMUKSET	-0.168911
-5.314537	AKT	-0.1626326
-5.013507	ALAS	-0.117092
-5.314537	ALETHIIN	-0.1689363
-5.314537	ALLA	-0.1193442
-3.385118	ANNAN	-2.31192
-5.314537	AOUUU	-0.1626326
-5.314537	APINAT	-0.1193442
-5.013507	APPUU	-1.154525
-5.314537	APPUUUUUU	-0.1626326
-4.615567	AS	-0.08774261
-5.314537	AS:ssä	-0.146194
-5.314537	ATSJUU	-0.1626326
-4.059265	AU	-2.080782
-5.314537	AU-AUU	-0.1626326
-4.360295	AU-UU	-1.414912
-4.837416	AUTA	-0.2711498
-4.837416	AUU	-0.2648503
-5.314537	AUUU	-0.1626326
-5.013507	AVASI	-1.160827
-5.314537	Aafrikkhaan	-0.1626326
-4.615567	Aamen	-0.6849544
-4.712477	Aamu	-1.155828
-5.013507	Aamula	-0.1658415
-5.314537	Aamun	-0.1689321
-5.013507	Aamuruoka	-0.1193418
-5.314537	Aamuu	-0.146194
-5.013507	Aapo	-0.1626305
-5.013507	Aapo-faari	-0.1461319
-5.314537	Aarntnasaaresta	-0.1413694
-4.837416	Aaron	-0.2711498
-4.837416	Aaronile	-0.5379342
-4.536386	Aaronniemestä	-0.2091994
-4.536386	Aaronniemi	-0.1983106
-5.314537	Aarret	-0.146194
-5.013507	Aasen	-0.1687531
-5.314537	Aaslakka	-0.1413694
-5.013507	Aasrud	-1.133262
-5.013507	Abrahaami	-0.1570784
-5.013507	Abrahaamille	-1.133262
-5.013507	Adam	-1.160827
-5.314537	Adjunkt	-0.1689215
-5.013507	Adolph	-0.1689299
-4.411447	Agnes	-0.9669676
-5.314537	Agnesin	-0.1689321
-4.536386	Ah	-0.3640877
-4.235356	Ahaa	-1.108618
-5.314537	Ai	-0.1664347
-5.314537	Aijemat	-0.1689279
-5.314537	Aijemin	-0.1599181
-4.411447	Aika	-0.9452223
-5.013507	Aikkaa	-1.151811
-4.314537	Aina	-0.229443
-4.712477	Ainaski	-0.2432151
-5.314537	Ainoa	-0.16893
-5.013507	Ainua	-1.160776
-5.314537	Ainuasthaan	-0.1689363
-5.314537	Ainuat	-0.1688689
-4.837416	Aitiruthoon	-0.2484117
-4.712477	Aittiruto	-0.3971616
-5.314537	Aivan	-0.1664347
-5.314537	Ajamako	-0.16893
-5.314537	Ajan	-0.1683191
-5.314537	Ajatelkkaa	-0.146194
-5.314537	Ajatella	-0.146194
-5.314537	Ajattelkaa	-0.1689363
-5.013507	Ajattelkkaa	-1.160475
-5.314537	Ajatuksia	-0.1688921
-5.314537	Ajatus	-0.1651222
-5.314537	Ajo	-0.1688794
-5.013507	Ajopuut	-1.159532
-5.314537	Akerhusin	-0.1689363
-5.314537	Akerhuussin	-0.1689342
-5.013507	Akerhyysin	-0.1689321
-5.013507	Akerhyyssin	-1.160827
-5.314537	Akerin	-0.1689363
-5.314537	Akersgatanilla	-0.146194
-5.314537	Akkarviikassa	-0.1570828
-5.013507	Akkusativ	-1.159585
-5.013507	Aksel	-1.160825
-5.314537	Aktiviteeteissä	-0.146194
-4.837416	Ala-Sammun	-0.2711077
-4.837416	Alala	-0.5541518
-5.314537	Alama	-0.1687826
-5.314537	Alapuolella	-0.1669721
-5.314537	Alaskan	-0.1689363
-4.360295	Alat	-1.442969
-4.837416	Alatalossa	-0.2593005
-3.867379	Alattihoon	-0.3833875
-5.314537	Alattiissa	-0.1677622
-5.314537	Alattiista	-0.1676926
-4.712477	Alattio	-0.2204373
-5.314537	Alattio-Kautokeino	-0.1193442
-5.314537	Alattiojoven	-0.1689321
-5.013507	Alattiolaiset	-1.159999
-4.084088	Alattion	-0.5293142
-4.712477	Alattionjoki	-0.2307435
-4.469439	Alattionjoven	-0.8068311
-4.837416	Alattionjovessa	-0.2435872
-5.013507	Alattionjovesta	-1.148975
-3.852139	Alattiossa	-0.8242624
-3.992318	Alattiosta	-0.5504643
-5.314537	Alattiota	-0.1413694
-5.013507	Aldri	-1.160825
-5.314537	Aleksandersenin	-0.1677622
-4.084088	Alf	-0.6558516
-5.013507	Alkuk	-1.160774
-5.314537	Alkukansasana	-0.1599181
-5.314537	Alkukursi	-0.1677622
-5.314537	Alkuperäiskansoitten	-0.1689279
-5.314537	All	-0.1689363
-4.536386	Alle	-0.2210276
-5.314537	Allmenn	-0.1689363
-4.837416	Almar	-0.5654976
-5.314537	Alnes	-0.168911
-4.712477	Alt	-0.2432299
-5.314537	Alta	-0.1689089
-5.314537	Altassa	-0.1677686
-4.712477	Aluksi	-0.4240523
-4.469439	Alussa	-1.576865
-5.314537	Amateus	-0.1689321
-5.314537	Amatsoonassa	-0.1676926
-5.314537	Amatsooninjovessa	-0.1682052
-5.314537	Amazoonassa	-0.146194
-5.013507	Amen	-1.133262
-5.314537	Ameriikan	-0.1689363
-5.314537	Amerikassa	-0.16889
-4.314537	Amerikka	-1.141349
-5.013507	Amerikka-feeberi	-1.160812
-5.314537	Amerikkalainen	-0.1689363
-4.469439	Amerikkhaan	-0.1799284
-5.013507	Ammu	-0.1395466
-5.314537	Ampiaissii	-0.1626326
-5.314537	Ampulansi	-0.1599181
-5.314537	Amstidene	-0.1676926
-4.059265	Amtmani	-0.6020005
-5.013507	Amtmaniksi	-1.133262
-5.013507	Amtmanilla	-1.157015
-4.712477	Amtmanin	-1.160136
-4.712477	Amtmanista	-1.108985
-5.314537	Amy	-0.1689363
-4.837416	Anakonda	-0.1369713
-5.314537	Anakondahan	-0.1599181
-5.314537	Analoogisignaalile	-0.1687805
-4.615567	Andersen	-0.4053496
-5.013507	Andreaksen	-1.159585
-5.314537	Andreassen	-0.1599181
-5.314537	Anita	-0.1689363
-5.314537	Ankara	-0.16885
-5.314537	Ankkuri	-0.1686625
-5.314537	Ann	-0.1689363
-3.633296	Anna	-0.5457984
-5.013507	Anna-Kreetan	-0.1461918
-5.013507	Anna-Kreettaa	-0.146123
-4.837416	Annama	-0.1678699
-4.013507	Annan	-0.9639935
-5.314537	Annapa	-0.1688247
-5.314537	Annasta	-0.1685235
-5.314537	Annatko	-0.1675891
-4.837416	Anne	-0.5136702
-5.013507	Annen	-0.1689321
-4.837416	Anni	-0.5427478
-4.837416	Annijoessa	-0.2484117
-5.013507	Annijokheen	-0.1413649
-4.536386	Annijoki	-0.1983106
-5.314537	Annijovessa	-0.1689363
-5.314537	Annin	-0.1689321
-4.837416	Anstein	-0.5655103
-4.360295	Antakkaa	-0.2416506
-5.314537	Antasitko	-0.146194
-5.314537	Antesbyyn	-0.1689089
-5.314537	Antesbyyssä	-0.146194
-5.314537	Antheeks	-0.168751
-4.411447	Antheeksi	-0.3670026
-5.013507	Antheeksiantaminen	-1.151811
-5.013507	Antheeksiantamisen	-0.1688815
-4.712477	Antheeksianto	-0.4186638
-5.314537	Antheenpyytäminen	-0.1599181
-4.712477	Antile	-0.3966581
-4.536386	Antin	-0.2710361
-5.314537	Antoi	-0.1683992
-4.712477	Antti	-0.4123714
-5.314537	Ap	-0.1689363
-5.314537	Apostoli	-0.1689257
-3.916597	Appuu	-1.408668
-5.314537	Apu	-0.1683697
-5.314537	Apuna	-0.1651222
-5.013507	Arba-Kunninga	-1.148975
-4.837416	Arbeids-	-0.5534143
-5.314537	Arctic	-0.1689363
-5.013507	Ariniemen	-1.160772
-5.314537	Aristoteles	-0.1688563
-5.314537	Aristotelheen	-0.1688668
-5.314537	Arkkeolookit	-0.1688121
-5.013507	Arktisk	-0.1689342
-5.314537	Arlöv	-0.1413694
-5.314537	Armatta	-0.1687868
-5.314537	Armhoon	-0.146194
-4.360295	Armo	-0.2369048
-4.712477	Armon	-0.2431436
-5.314537	Armonpenikän	-0.1689363
-5.013507	Armoo	-1.138087
-5.314537	Arne-Ivar	-0.1689342
-4.837416	Arnesa	-0.1170872
-5.013507	Arnesan	-0.1689257
-5.314537	Arnfinn	-0.1689363
-4.235356	Aronsen	-0.2458912
-5.314537	Aronsenile	-0.1681146
-4.837416	Artsdatabanken	-0.2687836
-4.837416	Artsdatabankenin	-0.2711498
-5.314537	Arvelus	-0.1683191
-5.314537	Arvid	-0.1689363
-5.314537	Arvidsson	-0.1688436
-5.013507	Arvosa	-0.1688163
-5.314537	Arvostanko	-0.1667437
-5.013507	Asbestiranta	-0.1677601
-5.314537	Aschehougin	-0.1689363
-4.837416	Asena	-0.2711393
-5.314537	Asettua	-0.1689321
-4.411447	Asia	-0.2793538
-5.314537	Asialista	-0.1689279
-5.314537	Asian	-0.1688816
-4.837416	Aslakan	-0.2711477
-5.314537	Aslaksen	-0.1689342
-5.314537	Aspnallin	-0.1689363
-4.837416	Assii	-0.2711014
-5.314537	Assuuko	-0.1688542
-5.314537	Assuut	-0.1682811
-4.837416	Astrid	-0.1598924
-5.314537	Astu	-0.1687194
-4.837416	Asuminen	-0.2711077
-4.235356	Asutus	-0.7842948
-4.837416	Asutusmalli	-0.2484117
-4.837416	Atlantterinmeren	-0.2711393
-5.314537	Atlantterinmertä	-0.146194
-4.138446	Attila	-0.2537192
-5.013507	Attilaa	-0.1287254
-5.314537	Attilalle	-0.1689321
-5.013507	Attilan	-0.168671
-5.314537	Attilasta	-0.146194
-5.314537	Atventinaika	-0.1599181
-3.952809	Au	-2.192138
-5.013507	Au-uu	-1.154525
-5.314537	Auka	-0.1685383
-5.013507	Aukaise	-1.16081
-5.314537	Aukustikuun	-0.1689131
-4.615567	Aukustus	-0.7743351
-5.314537	Auringonsilmhään	-0.146194
-4.273144	Aurinko	-0.2756896
-5.314537	Australian	-0.1689363
-4.469439	Auta	-0.4553747
-5.314537	Autama	-0.1686794
-5.013507	Author	-1.160827
-4.712477	Autoriteetit	-0.4152068
-5.013507	Auttakaa	-0.1395466
-5.314537	Auttakka	-0.146194
-5.013507	Auttuuđen	-1.160827
-5.314537	Autuas	-0.1599181
-5.013507	Autuhaat	-1.151811
-5.314537	Auu	-0.1626326
-4.837416	Aviisi	-0.5652997
-4.712477	Aviovaaran	-0.4277966
-5.314537	Avvaa	-0.1689279
-5.314537	B	-0.1413694
-4.536386	BULLE	-0.1689173
-5.314537	Baaskifestivaalila	-0.146194
-4.712477	Baden-Badenhiin	-0.3966581
-5.314537	Badstua	-0.1193442
-5.314537	Ballo	-0.1599181
-5.314537	Band-plaatassa	-0.1413694
-5.314537	Bandin	-0.1689363
-5.314537	Barentsinmeren	-0.1685951
-5.314537	Barentsinmerestä	-0.146194
-4.536386	Bartimeus	-0.1590986
-5.314537	Beaivvášin	-0.1689342
-5.314537	Beate	-0.1688963
-4.712477	Beatles	-0.1676081
-5.314537	Beatles-fenomeenile	-0.1570828
-5.314537	Beatles-showhiin	-0.1685361
-4.837416	Beatlesin	-0.1689152
-5.314537	Beddari	-0.1689342
-5.314537	Beijing	-0.146194
-5.314537	Beijingissä	-0.1688837
-4.837416	Bente	-0.2711498
-5.314537	Bergset	-0.1665659
-4.837416	Berit	-0.2711498
-4.411447	Berlevågissa	-0.9266736
-5.314537	Berliinissä	-0.146194
-5.314537	Berlininpulla	-0.1648205
-4.712477	Bertelsen	-0.1037049
-5.314537	Bespalova	-0.146194
-5.314537	Betesda	-0.146194
-5.314537	Betleheemhiin	-0.1689173
-5.314537	Betleheemissä	-0.1413694
-4.712477	Betsaidasta	-0.4014826
-5.314537	Biafra-hepo	-0.168593
-5.013507	Bilbo	-1.160534
-4.712477	Biolooginen	-0.4241912
-4.837416	Bioloogisen	-0.2711182
-5.314537	Birkelund	-0.1688142
-5.314537	Birtaváris	-0.146194
-5.314537	Birtavárri	-0.146194
-5.314537	Bissojogas	-0.1413694
-4.615567	Bissojohka	-0.3573852
-5.314537	Bjarne	-0.1689342
-5.013507	Björn	-1.160818
-5.013507	Blackbird	-0.1689194
-5.314537	Blennow	-0.1689363
-5.314537	Bonyttii	-0.1413694
-5.013507	Borch	-1.159655
-5.314537	Borchin	-0.1681061
-5.314537	Brasiilian	-0.1689363
-5.314537	Bravoo	-0.146194
-5.013507	Braya	-1.160827
-5.013507	Bredahl	-1.160818
-5.013507	Bremeniläinen	-0.1421716
-5.314537	Brenninger	-0.1689363
-5.314537	Brie-juustoa	-0.1413694
-5.314537	Brith	-0.1688752
-5.314537	Britt	-0.1689363
-5.314537	Brorson	-0.1689363
-5.314537	Brosyyrin	-0.1599181
-5.013507	Brotherhood	-1.160825
-5.314537	Brundtlandin	-0.1688773
-5.314537	Budjetti	-0.1193442
-5.013507	Bugøynes	-1.111237
-5.314537	Bule	-0.1688163
-5.314537	Bulheen	-0.1413694
-5.013507	Buljo	-0.11933
-2.681069	Bulle	-0.5329675
-3.723473	Bullea	-0.2730656
-5.314537	Bulleki	-0.168831
-4.837416	Bullela	-0.5613456
-4.314537	Bullele	-0.2955256
-3.758235	Bullen	-0.2562148
-5.314537	Bulleoppspinn	-0.1648205
-5.314537	Bullesepitystä	-0.1677622
-4.712477	Bullesta	-0.4001064
-5.013507	Bullile	-0.117092
-5.314537	Bullin	-0.1689047
-5.314537	Bush	-0.1686415
-5.314537	Bändin	-0.1689236
-5.314537	Börre	-0.1570828
-5.314537	Börren	-0.1686246
-4.615567	Børselv	-0.3101557
-5.314537	Børselvin	-0.1677686
-4.615567	Børsskog	-0.3507309
-4.536386	Børsskogin	-0.1688921
-4.837416	C-vitamiinii	-0.2435872
-5.314537	Cainothioth	-0.1672089
-5.013507	Campanula	-1.160827
-5.314537	Can	-0.1686415
-5.013507	Canada	-1.160827
-5.314537	Canal	-0.1689363
-5.314537	Carlo	-0.1689363
-4.712477	Christian	-1.160823
-5.314537	Chrome	-0.1689363
-5.314537	Chrome-	-0.1570828
-5.314537	Chrome-linkin	-0.1688647
-5.314537	Chrome-netinlukijassa	-0.1413694
-5.314537	Chromen	-0.1689257
-5.314537	Cille	-0.1689363
-5.013507	Club	-0.1689342
-5.314537	Cousteau	-0.1599181
-5.314537	Culture	-0.1689363
-5.314537	Cwenas	-0.146194
-4.837416	Cyclosporinmedisiini	-0.2701235
-5.314537	DA	-0.1689279
-4.837416	DER	-0.2435872
-5.314537	DI	-0.1413694
-5.314537	DVD:ile	-0.1660958
-4.837416	Da	-0.2710508
-5.013507	Dag	-1.160785
-4.837416	Dalbakk	-0.5427522
-5.013507	Danielsen	-1.133262
-5.013507	Danmarck	-1.160827
-5.314537	Darffit	-0.1689363
-4.536386	Davvi	-0.2210424
-5.314537	Davvi-Kalohta	-0.1193442
-5.314537	Davvi-Romssas	-0.1413694
-4.837416	De	-0.2710593
-5.314537	Debatti	-0.1688184
-5.314537	Delfiineillä	-0.1599181
-5.314537	Delicious-nettipalveluksheen	-0.1413694
-5.314537	Demokraattiset	-0.1689363
-4.536386	Den	-0.3937487
-4.536386	Denne	-0.2709329
-5.314537	Departementti	-0.1599181
-5.314537	Departtimentit	-0.1689005
-5.013507	Departtimentti	-0.1598537
-5.013507	Desemberikuun	-1.16081
-5.314537	Desperaato	-0.1626326
-4.235356	Det	-0.2430151
-4.314537	Dette	-0.3258226
-5.314537	Digitaali-TV	-0.1689363
-4.837416	Digitaali-TV:n	-0.1687742
-5.314537	Digitaalinen	-0.1689342
-5.013507	Digitaaliset	-1.160827
-5.314537	Digital	-0.1413694
-5.013507	Diskuteeraamma	-1.159999
-5.314537	Divvun-prošektia	-0.1570828
-5.314537	Dix	-0.1689363
-5.314537	Diŋgojumit	-0.1662589
-5.013507	Dnepr-jovele	-1.148975
-5.314537	Dokumentasjon	-0.1686984
-4.712477	Dölgenin	-0.4266478
-4.615567	E	-0.1992127
-5.314537	E-eikä	-0.1689321
-5.314537	E-en	-0.1667437
-5.314537	E-post	-0.1662589
-5.013507	EEVA	-0.1689236
-5.013507	EI	-0.1413672
-5.314537	EIKÄ	-0.1689342
-4.536386	ELEMENT	-0.2186825
-4.536386	ELEMENTTI	-0.1714608
-4.712477	ELLÄIMET	-0.4014826
-5.314537	ELÄMÄ	-0.1689321
-4.013507	ENSIMÄINEN	-0.4427943
-5.314537	EPILOG	-0.1689047
-5.314537	ESTRAA	-0.1626326
-4.712477	ET	-0.4242186
-5.013507	Edison	-1.154525
-5.314537	Eelheenki	-0.1689321
-4.837416	Eesau	-0.1686436
-5.013507	Eesaun	-0.1682474
-5.314537	Eesausta	-0.146194
-5.314537	Eessä	-0.1688247
-5.314537	Eestinmaata	-0.146194
-5.314537	Eestistä	-0.1570828
-4.138446	Eeva	-0.2418025
-5.314537	Eeventyyrisistä	-0.1689363
-5.314537	Eeventyytit	-0.1689363
-5.013507	Eggeskall	-1.133262
-4.837416	Egil	-0.5655103
-4.837416	Egyptissä	-0.2709771
-5.314537	Ehotethiin	-0.1682495
-5.314537	Ehotuksia	-0.1689363
-5.314537	Ehtoolisessa	-0.1689173
-5.314537	Ehðotus	-0.1688331
-2.911417	Ei	-0.4894272
-5.314537	Eiffelintornin	-0.1689089
-5.314537	Eiffelitornin	-0.1689363
-5.314537	Eih	-0.1689257
-3.867379	Eihän	-0.4228581
-3.734754	Eikä	-0.28364
-3.992318	Eikö	-0.456253
-5.314537	Eiköhän	-0.1688816
-4.712477	Eilen	-0.2182019
-5.314537	Einstein	-0.1626326
-5.314537	Einsteininki	-0.146194
-5.013507	Eipä	-1.159916
-5.314537	Eipäs	-0.1689342
-4.837416	Eira	-0.2711456
-5.314537	Eitsvolin	-0.1689342
-5.314537	Eitsvolissa	-0.1689068
-5.314537	Ekaterina	-0.1689363
-4.837416	Ekkö	-0.2698068
-4.837416	Ekkös	-0.2698068
-5.314537	Ekrehään	-0.1687594
-5.314537	Ekreän	-0.16889
-5.013507	Eksperttikomitea	-0.1599074
-5.314537	Eksperttikomitean	-0.1689363
-4.837416	Ekyptistä	-0.2710445
-5.013507	Elefantti	-1.160823
-5.314537	Elhoonjäämisen	-0.1689005
-5.314537	Eli	-0.1689321
-5.013507	Eliassen	-0.1461873
-4.235356	Eliisa	-0.8731678
-5.013507	Elisabeth	-0.1688857
-4.837416	Ellen	-0.2711498
-5.314537	Els	-0.1689363
-5.314537	Else	-0.1689047
-5.314537	Elvebåten	-0.1685383
-5.013507	Elä	-0.1680049
-5.013507	Eläkhöön	-0.1689342
-5.314537	Elämä	-0.1599181
-4.536386	Elämän	-0.3234235
-4.411447	Elättämisessä	-0.9542025
-5.314537	Email	-0.1689363
-5.314537	Emm	-0.1688858
-3.992318	Emmä	-0.2895156
-4.273144	Emmäkä	-0.4828669
-4.615567	Emmäkö	-0.4557326
-5.314537	Emmäkös	-0.1675215
-4.411447	Emäntä	-0.4233442
-3.253839	En	-0.7526974
-4.712477	Enets	-0.242914
-4.360295	Enhän	-0.9978053
-5.314537	Enhään	-0.1666421
-4.615567	Enimet	-0.7781113
-5.013507	Enimmet	-0.1689236
-4.837416	Enimästi	-0.5616537
-4.168409	Enimät	-1.315029
-4.469439	Enkeli	-0.4788247
-5.314537	Enkelit	-0.1689068
-4.712477	Enkä	-0.2410583
-5.314537	Enkö	-0.1667437
-5.314537	Enneminki	-0.1665659
-3.796023	Ennen	-0.9483112
-5.314537	Ennenko	-0.1672786
-4.837416	Enniimet	-0.2711224
-5.314537	Enniimilä	-0.168201
-5.314537	Enniimiten	-0.1688078
-4.536386	Enniin	-0.2208971
-5.314537	Enniiten	-0.1682137
-4.615567	Ennimmet	-0.2272754
-5.314537	Ennustiko	-0.168911
-4.138446	Ensi	-0.2349814
-5.314537	Ensiksi	-0.1675215
-5.314537	Ensimmäinen	-0.1679057
-4.536386	Ensimäinen	-0.2079428
-5.013507	Ensimäisen	-0.1689131
-4.273144	Ensimäiset	-0.5793346
-5.314537	Ensin	-0.1689342
-4.360295	Ensisti	-0.1935201
-4.273144	Ensistä	-0.1928843
-5.314537	Entisheen	-0.1687952
-4.235356	Entä	-0.2207223
-5.013507	Entäpä	-0.167587
-4.712477	Entäs	-1.159528
-4.314537	Enämen	-0.3042954
-5.314537	Enämpi	-0.1689194
-5.314537	Epäonneksi	-0.1685656
-5.314537	Epäselvä	-0.1689342
-5.013507	Eri	-1.160823
-5.314537	Erikoinen	-0.1689363
-5.314537	Erikoisesti	-0.1682411
-5.314537	Erikoista	-0.1687573
-4.411447	Eriksen	-0.2648983
-5.314537	Eriksenin	-0.1689363
-4.837416	Erilaiset	-0.2711435
-4.469439	Erilaisia	-1.576865
-4.837416	Erilaisila	-0.2711498
-5.013507	Eriliikaisesti	-0.1667246
-4.273144	Erittäin	-0.4842711
-4.837416	Erkinpojan	-0.2711098
-5.013507	Erland	-1.160827
-5.013507	Erling	-1.160789
-5.314537	Esauta	-0.146194
-4.360295	Esbensen	-1.420327
-4.837416	Esekielin	-0.2710466
-4.314537	Esimerkiksi	-0.6033631
-4.837416	Esimerkki	-0.2711498
-4.712477	Esimerkkii	-0.2399568
-4.837416	Esisanat	-0.2215619
-5.013507	Essiv	-1.160673
-4.273144	Et	-0.2155766
-5.314537	Etelä-Aafrikkaa	-0.1570828
-5.314537	Etelä-Franska	-0.1677686
-5.314537	Etelä-Ranskassa	-0.1193442
-4.837416	Etelä-Ruijassa	-0.2593005
-5.013507	Etelä-Ruiðassa	-0.1648184
-5.314537	Etelä-Tromssassa	-0.1413694
-5.314537	Etelä-Varengin	-0.1689363
-4.837416	Etelä-Varenkhiin	-0.2621359
-5.314537	Eteläiselä	-0.1688668
-5.314537	Etelänpuolela	-0.1413694
-5.314537	Eteläpuulenilla	-0.1677622
-5.013507	Etelästa	-1.160823
-4.837416	Etheenpäin	-0.5361248
-4.168409	Ethän	-1.176053
-4.360295	Etkö	-0.7650197
-5.314537	Etkös	-0.1689215
-5.314537	Etniset	-0.1689026
-5.314537	Etnisyys	-0.1599181
-5.013507	Etpä	-0.1688921
-4.168409	Ette	-0.4534674
-4.536386	Että	-0.9406579
-5.314537	Ettähän	-0.1685067
-5.314537	Ettäko	-0.1685067
-4.837416	Ettäkö	-0.5650722
-5.314537	Ettämitä	-0.1648205
-5.314537	Ettäs	-0.1685067
-5.013507	Euroo	-1.160827
-3.837416	Euroopan	-0.2924552
-4.059265	Euroopassa	-0.4005517
-5.013507	Euroopassaki	-1.160818
-4.837416	Eurooppaa	-0.5654913
-5.314537	Euroopparaati	-0.1599181
-4.837416	Euroopparaatin	-0.1689321
-5.314537	Europaassaki	-0.1689257
-5.013507	Europarådets	-0.1689342
-5.314537	Europas	-0.1689363
-5.314537	Euruupassa	-0.1599181
-5.013507	Evankeliumi	-0.1599074
-5.314537	Evankeliumin	-0.1689363
-5.314537	Evelina	-0.1689363
-5.314537	Expology	-0.1689236
-5.314537	Eyvind	-0.1689363
-5.314537	Eðelisessä	-0.1689279
-4.536386	Eðessä	-0.2120348
-5.314537	FAARI	-0.1689342
-5.314537	FAARTILA	-0.1689342
-5.314537	FAD	-0.1688121
-4.615567	FORDYPNINGSTEKSTER	-0.7757788
-5.314537	FORT	-0.1689363
-5.314537	FRSPT	-0.1626326
-5.314537	FYSJ	-0.1626326
-4.168409	Faari	-0.5824564
-4.837416	Facebook	-0.5652302
-5.314537	Facebook-kielen	-0.1689363
-5.314537	Facebook.com/Kvenskinstitutt	-0.1689363
-5.314537	Facebookia	-0.1686625
-4.360295	Facebookin	-0.1996593
-4.712477	Facebookissa	-0.3935389
-5.314537	Facebookkia	-0.1599181
-5.314537	Facebookkii	-0.1599181
-5.314537	Fagdeparttimentit	-0.146194
-4.837416	Fakta	-0.2621359
-4.536386	Falkki	-0.1983106
-5.314537	Fangile	-0.16893
-5.314537	Fankila	-0.1651222
-4.837416	Fant	-0.2710845
-5.314537	Fantastinen	-0.1689068
-5.314537	Fantastista	-0.146194
-4.712477	Fariseukset	-0.4240417
-4.837416	Feetun	-0.2710108
-4.837416	Ferskmaten	-0.2710382
-5.314537	Festisalissa	-0.1599181
-5.013507	Festningin	-0.1413672
-5.314537	Fierva	-0.1666421
-4.837416	Figuuri	-0.2711014
-5.013507	Fiini	-0.1689194
-5.013507	Fiinit	-0.1687784
-5.314537	Fil	-0.1689363
-4.712477	Filipin	-0.4239133
-4.411447	Filippi	-0.4236183
-5.013507	Filmi	-0.1687194
-5.013507	Filmin	-0.1687257
-5.314537	Finland	-0.1665659
-5.314537	Finmark	-0.1689173
-4.837416	Finmarkhuun	-0.1278933
-4.138446	Finmarkkhuun	-0.9299131
-4.110417	Finmarkule	-1.256141
-3.899564	Finmarkun	-0.6880461
-5.314537	Finmarkun-roomii	-0.1570828
-5.314537	Finmarkunlaki	-0.1651222
-5.314537	Finmarkunominaisuuðessa	-0.1599181
-4.837416	Finmarkuntunturin	-0.2711498
-5.314537	Finmarkuntunturissa	-0.16893
-3.701753	Finmarkussa	-0.9775288
-4.837416	Finmarkussaki	-0.2709835
-5.314537	Finmarkusta	-0.146194
-5.314537	Finn	-0.1689047
-5.314537	Finnetinka	-0.1684498
-5.013507	Finnmarkenin	-1.160827
-5.314537	Finnmarkens	-0.1689363
-5.314537	Fiolettiparta	-0.1599181
-5.314537	Firefox-netinlukijhaan	-0.1413694
-5.314537	First	-0.1689363
-5.314537	Fisj	-0.1626326
-5.314537	Fiskariila	-0.1599181
-5.314537	Fiskaripuunana	-0.1689363
-5.314537	Fisket	-0.16893
-3.651779	Fisku	-1.193953
-5.314537	Flinkestinke	-0.1648205
-5.314537	Flinkki	-0.1689363
-5.013507	Forbund	-0.1461918
-4.837416	Fordi	-0.2711456
-5.314537	Fordypning	-0.1685383
-5.314537	Forlaaki	-0.1689363
-5.013507	Forlaakit	-1.160818
-4.837416	Fornyings-	-0.2484117
-5.314537	Foto	-0.1662589
-5.314537	Fotonäyttely	-0.1193442
-5.013507	Foyn	-0.1651201
-5.314537	Frank	-0.1689363
-5.314537	Franskanmaala	-0.146194
-5.314537	Franskanmaale	-0.1413694
-5.314537	Franskassa	-0.146194
-4.469439	Franskasta	-1.554135
-5.314537	Fre-hiwet	-0.146194
-5.013507	Frederich	-1.160827
-5.314537	Freis-taama	-0.1689363
-5.314537	Freistaa	-0.1682137
-5.314537	Freistaaks	-0.1665659
-5.314537	Freistaama	-0.1684961
-5.314537	Freistaan	-0.1687426
-5.314537	Freistaatko	-0.1675891
-5.314537	Freistathaanko	-0.1672786
-4.837416	Frouva	-0.1593332
-5.314537	Fräkimppää	-0.1684898
-5.314537	Fund	-0.1193442
-5.013507	Fysj	-1.154525
-5.314537	Fyyrstikki	-0.1689363
-5.314537	Färit	-0.1689363
-5.314537	G.:n	-0.1682495
-4.712477	Galilean	-0.4242186
-5.314537	Gandhia	-0.1682052
-4.837416	Geneettinen	-0.2711203
-5.314537	Generelt	-0.1689342
-5.013507	Genitiv	-1.160673
-5.013507	George	-0.1689026
-5.314537	Gepardinpentuja	-0.1193442
-5.314537	Get	-0.1662589
-5.314537	Giellateknoa	-0.1653557
-5.314537	Gii	-0.1688226
-5.314537	Giv	-0.1677897
-5.314537	Glomm	-0.168831
-5.314537	Golffinvirralta	-0.146194
-5.314537	Golffivirrale	-0.1658987
-5.013507	Golfivirrale	-1.157791
-5.314537	Gollegiella	-0.16889
-5.314537	Golnesas	-0.146194
-5.314537	Grammatiikkityön	-0.1685656
-5.314537	Gramstad	-0.1665659
-5.314537	Greasemonkey-skripti	-0.1599181
-5.314537	Gro	-0.1689363
-5.314537	Grundtvig-prošektissa	-0.146194
-5.314537	Grönlanttii	-0.1626326
-5.314537	Guds	-0.1689363
-5.013507	Gunn	-1.160827
-4.712477	Gunnar	-0.4242186
-5.314537	Gustav	-0.1689363
-5.314537	Gute	-0.1689363
-5.314537	Guttorm	-0.1686984
-4.536386	Gyldendal	-1.160793
-5.314537	Gymnaasin	-0.1685404
-4.536386	Gyrodactylus	-0.2590646
-5.314537	GÆRN	-0.1686415
-4.712477	H	-0.4002478
-5.314537	H-hänelä	-0.1599181
-5.314537	HAA	-0.1413694
-5.013507	HAH	-1.133262
-5.314537	HAIJISTA	-0.1626326
-5.314537	HALPAKAUPPA	-0.1193442
-4.712477	HALVAIS	-0.4242186
-4.615567	HANNA	-0.7754718
-4.615567	HANNUN	-0.7781407
-4.110417	HANSEN	-1.227769
-5.314537	HATUT	-0.1626326
-5.314537	HEE	-0.1413694
-5.013507	HEH	-1.133262
-5.314537	HEIÐÄT	-0.146194
-4.837416	HER	-0.2435872
-5.314537	HERRATON	-0.1689363
-5.314537	HERÄSI	-0.1689236
-5.013507	HIH	-1.133262
-5.314537	HII	-0.1626326
-5.314537	HIRMUSEN	-0.1689363
-4.837416	HIV-	-0.2484117
-5.013507	HUH	-1.133262
-5.314537	HUHUT	-0.1689363
-4.837416	HUK	-0.2648503
-5.314537	HURJALA	-0.1689363
-5.314537	HUU	-0.1626326
-5.314537	HUUT	-0.1626326
-4.615567	HUUÐETHAAN	-0.7754718
-5.314537	HYVÄN	-0.1689363
-5.314537	Ha	-0.1689131
-4.837416	Ha-ha-haa	-0.2648503
-5.314537	Ha-haa	-0.1626326
-4.360295	Haavisto	-0.8385953
-4.138446	Hah	-1.235068
-5.314537	Hahhaa	-0.1626326
-4.536386	Haiju	-0.1455214
-5.314537	Hajema	-0.1689321
-5.314537	Hakasuluissa	-0.1688121
-5.013507	Hakekkaa	-0.1689299
-5.314537	Halkkeekhoon	-0.1681019
-5.314537	Halkovaara	-0.1689363
-5.314537	Hallitus	-0.1688205
-5.013507	Hallitusherrat	-1.16073
-4.615567	Halloo	-0.3258827
-5.314537	Halluu	-0.1648205
-5.013507	Halluuma	-1.154525
-5.314537	Halluutko	-0.1688163
-5.314537	Halluuttako	-0.1689363
-5.314537	Halonen	-0.1193442
-5.314537	Halosen	-0.1689257
-4.273144	Halti	-0.5112608
-5.314537	Haltia	-0.1665659
-5.314537	Haltian	-0.1689363
-4.536386	Haltiin	-0.2170321
-5.314537	Haluatkos	-0.1689215
-5.314537	Halvaakko	-0.1675891
-5.314537	Halvaaks	-0.1687742
-5.314537	Halvaatko	-0.1689363
-5.314537	Halvaattakos	-0.1685067
-5.314537	Halvan	-0.1688752
-5.314537	Halvard	-0.146194
-5.013507	Haminhaan	-1.1599
-5.314537	Hamphaansärkykö	-0.1648205
-5.314537	Hamphaat	-0.146194
-5.314537	Hamphaitten	-0.1689342
-5.314537	Hampurin	-0.1689363
-5.013507	Hamsunhiin	-1.148975
-5.314537	Han	-0.1689342
-4.536386	Hanna	-0.1983106
-4.536386	Hannun	-0.2210424
-4.035783	Hans	-0.190029
-4.536386	Hansen	-0.9068766
-4.837416	Hansenin	-0.1689173
-5.314537	Hanseninfierualta	-0.1685572
-5.314537	Hansi	-0.1681652
-5.314537	Hansikhaan	-0.1689026
-5.314537	Hansilta	-0.146194
-4.712477	Hansin	-0.167815
-5.314537	Hanssen	-0.1685677
-5.013507	Hanti	-1.16049
-5.314537	Har	-0.1689152
-5.314537	Harakankello	-0.1677622
-5.314537	Harakankello*	-0.1677622
-4.837416	Hardangerintunturista	-0.2711203
-5.013507	Harjotukset	-1.160827
-5.314537	Harlem	-0.1689363
-5.013507	Harmi	-1.111237
-4.712477	Harri	-0.4242018
-4.314537	Harriet	-1.041367
-5.314537	Harrisonin	-0.1689363
-5.314537	Hars	-0.1677897
-5.314537	Harstad	-0.1682052
-4.469439	Harvassa	-1.576831
-4.360295	Harvat	-0.9999431
-5.314537	Harvinainen	-0.1193442
-5.314537	Harvoin	-0.1676546
-5.314537	Hattestaati	-0.1626326
-5.314537	Hattukaupassa	-0.1599181
-4.837416	Haukka	-0.271034
-5.013507	Hauta	-1.151811
-5.314537	Hauđan	-0.1688352
-5.314537	Havlandet	-0.1665659
-4.360295	Havlanthiin	-0.9772556
-5.314537	Havningberg	-0.1651222
-5.314537	Havningberghiin	-0.1413694
-5.314537	Havningbergissä	-0.1413694
-4.837416	Havregrøt	-0.2711182
-5.013507	He	-1.138087
-5.314537	He-he-hee	-0.1626326
-5.013507	Hearts	-1.160827
-5.314537	Heftet	-0.1193442
-5.314537	Heh	-0.146194
-3.952809	Hei	-0.5293421
-5.314537	Hei-hei	-0.146194
-4.837416	Heikin	-0.168911
-5.013507	Heikistä	-1.138087
-4.235356	Heikki	-0.2740146
-5.314537	Heile	-0.1689236
-3.783058	Heilä	-1.338298
-5.314537	Heinike	-0.1689342
-5.013507	Heinsoo	-0.1688415
-4.138446	Heinän	-1.907812
-5.013507	Heittäkkää	-1.160633
-5.314537	Heittääkkää	-0.1689363
-4.314537	Heitä	-0.6527354
-5.314537	Heitämä	-0.1687405
-5.013507	Heivaa	-1.160726
-5.314537	Heivakkaa	-0.1688331
-4.712477	Heiðän	-0.4235381
-4.837416	Heiðät	-0.1679479
-4.411447	Heiđän	-0.6542351
-5.013507	Helena	-0.117092
-5.314537	Helluntaipäivänä	-0.1689279
-5.314537	Helmet	-0.1689279
-5.314537	Helmimiljonäärit	-0.1666421
-5.013507	Help	-0.1193324
-5.314537	Helpin	-0.1687952
-5.314537	Helpistä	-0.1689342
-5.314537	Helppohan	-0.1660958
-5.314537	Helsinglanthiin	-0.146194
-4.837416	Hengelä	-0.5302699
-4.314537	Hengen	-0.6615688
-4.360295	Hengessä	-0.4421512
-5.314537	Hengestä	-0.1681146
-4.837416	Henkee	-0.2435872
-4.314537	Henkheen	-1.018648
-4.536386	Henki	-0.3704344
-4.712477	Henkkee	-0.3966581
-4.837416	Hepa	-0.5361248
-4.536386	Hepo	-0.2147492
-5.013507	Her	-1.160827
-5.314537	Herborg	-0.146194
-5.013507	Herman	-0.1336917
-5.314537	Hermanni	-0.146194
-5.314537	Hermostunheempi	-0.1653557
-5.314537	Herootes	-0.1626326
-3.105022	Herra	-0.7486662
-4.360295	Herraa	-0.303901
-4.469439	Herrale	-0.1897677
-3.952809	Herran	-0.769604
-5.314537	Herranen	-0.1688626
-5.314537	Herregud	-0.1648205
-4.273144	Herrhaan	-1.18754
-4.712477	Herrää	-1.137105
-5.314537	Heräsi	-0.1689026
-5.314537	Herätä	-0.1688458
-5.314537	Herätä-mäkö	-0.1682411
-4.837416	Hestaniemi	-0.2710677
-2.867379	Het	-0.5203085
-5.013507	Hetelmä	-0.1597978
-5.314537	Hetelmässä	-0.1660958
-5.314537	Hethän	-0.1689363
-3.934326	Heti	-0.433927
-5.013507	Hetipä	-1.160827
-5.013507	Hetki	-0.1681862
-5.314537	Hetkinen	-0.146194
-5.314537	Hevon	-0.1683191
-4.615567	Hevonen	-0.4481198
-5.314537	Hevonenko	-0.16893
-4.615567	Hevosela	-0.7781407
-5.013507	Hevosen	-1.160622
-5.314537	Hevosenhäntä	-0.1626326
-5.314537	Hevosenkenkä	-0.1689089
-5.314537	Hevosniemessä	-0.1413694
-5.013507	Heät	-1.138087
-5.314537	Heðelmä	-0.1688837
-5.013507	Hi	-0.0937658
-5.314537	Hi-hii	-0.1626326
-5.013507	HiF	-1.159661
-5.314537	Hienon	-0.1689363
-5.314537	Hienot	-0.1689363
-5.013507	Hieromapuu	-1.160827
-5.013507	Hih	-1.138087
-5.314537	Hii	-0.1626326
-5.013507	Hiiri	-0.1626305
-5.314537	Hilde	-0.1689321
-5.314537	Hildonen	-0.1570828
-4.712477	Hildur	-0.4050836
-5.314537	Hildurin	-0.1688689
-5.013507	Hiljaa	-0.1452124
-4.712477	Hiljan	-0.4239786
-4.615567	Hiljemin	-0.1420642
-5.314537	Hilkan	-0.1682495
-4.615567	Hilkka	-0.1421627
-5.314537	Hilkka-kulta	-0.1626326
-5.314537	Hilkkaki	-0.16881
-4.837416	Hilko	-0.5427656
-4.837416	Hilla	-0.2711371
-4.469439	Hillan	-1.576865
-4.360295	Hillankokoaminen	-0.9961838
-5.314537	Hilma	-0.146194
-5.314537	Hilma-muorile	-0.146194
-5.314537	Hilma-muorilta	-0.1689363
-5.314537	Hilman	-0.1689363
-4.469439	Hinta	-0.3536671
-5.314537	Hip	-0.1570828
-5.314537	Hirmu	-0.1689321
-5.314537	Hirmuisesti	-0.1687784
-5.314537	Hirviön	-0.1689363
-5.314537	Histoorian	-0.1687952
-5.314537	Histuuriako	-0.1689152
-5.013507	Hithaasti	-0.1452124
-5.314537	Hitiis	-0.1626326
-5.013507	Hitis	-1.154525
-4.837416	Hjemmebakt	-0.2711498
-5.314537	Hjyystönhiin	-0.1648205
-4.615567	Hm	-0.3019729
-4.314537	Hmm	-0.9639075
-5.013507	Hmmm	-0.1614671
-5.314537	Hogne	-0.1689321
-5.013507	Hoh	-1.138087
-5.314537	Hokkijälmi	-0.1682052
-5.314537	Hoksaakkos	-0.1675891
-5.314537	Hoksaaks	-0.1675891
-4.469439	Hollandista	-1.554135
-5.314537	Holmenes	-0.1689363
-5.314537	Holmenesa	-0.1689363
-5.314537	Holmenesin	-0.1688605
-5.314537	Honningsvågissa	-0.1677686
-4.615567	Hoo	-0.3343809
-4.837416	Hoorepin	-0.2711498
-5.314537	Hopp	-0.146194
-5.314537	Hoppu	-0.1689321
-4.837416	Hopusti	-0.2648503
-4.273144	Hosianna	-1.871801
-5.314537	Hotel	-0.1689257
-5.314537	Hotell	-0.1688879
-5.314537	Hotelliaamiainen	-0.1193442
-5.314537	Hou	-0.146194
-5.314537	Houk	-0.1672089
-5.314537	Houston	-0.146194
-5.314537	Houstonhiin	-0.1665659
-5.314537	Hove	-0.1689047
-5.314537	Hovseeteristä	-0.1689173
-5.314537	Hovseetterin	-0.1689363
-5.314537	Hovseetterissä	-0.1413694
-5.314537	Hrrr	-0.1626326
-5.314537	Hu-hulluinen	-0.1689363
-5.314537	Hu-huuuu	-0.1626326
-5.314537	Huff	-0.1626326
-4.273144	Huh	-0.47798
-5.314537	Huh-huu	-0.1626326
-5.013507	Huhuuu	-1.154525
-4.837416	Hui	-0.2648503
-4.712477	Huiii	-0.4179213
-5.314537	Huippulannaus	-0.1626326
-5.314537	Huitfeldt	-0.1413694
-4.314537	Hukka	-0.7051441
-5.314537	Hullu	-0.1688542
-5.314537	Hullu-Bulleksi	-0.1413694
-5.013507	Hullun	-0.1689321
-5.314537	Hulluutta	-0.1626326
-5.013507	Hummeri	-0.1651201
-5.314537	Hummeri-biilin	-0.1665659
-5.013507	Hummerin	-0.141329
-5.314537	Hummeristinsa	-0.1682495
-5.314537	Humpuuki	-0.1626326
-5.314537	Hunteeraapa	-0.1688331
-5.314537	Hunteeran	-0.146194
-4.712477	Huok	-1.15336
-5.013507	Huomaakkaa	-0.1429903
-5.314537	Huomaamako	-0.1658987
-5.314537	Huomaattako	-0.1658987
-4.837416	Huomena	-0.1423798
-5.314537	Huomenaki	-0.1599181
-5.314537	Huomenna	-0.146194
-5.314537	Huomio	-0.1677897
-5.314537	Huone	-0.1666421
-5.314537	Huonet	-0.1689342
-5.314537	Huonheen	-0.1665659
-5.314537	Huonoin	-0.1689363
-5.314537	Huonoja	-0.1689257
-5.314537	Huonompi	-0.1658987
-5.314537	Huonosti	-0.1660958
-5.314537	Huonot	-0.1689363
-5.314537	Husj	-0.1626326
-5.314537	Huuh	-0.1626326
-5.314537	Huutakkaa	-0.1684961
-5.314537	Huuðama	-0.1682959
-4.615567	Hva	-0.3621483
-5.314537	Hvem	-0.1688942
-5.013507	Hvor	-0.16889
-5.314537	Hvordan	-0.1689363
-5.013507	Hvorfor	-1.160823
-5.314537	Hydrofonit	-0.1689257
-5.314537	Hykset	-0.1689363
-5.314537	Hyp	-0.1626326
-5.314537	Hyppää	-0.146194
-4.536386	Hys	-0.2147492
-5.013507	Hysj	-0.1395466
-5.314537	Hyttetyy	-0.146194
-5.314537	Hytän	-0.1675215
-4.837416	Hyv	-0.2711498
-4.411447	Hyvin	-0.9641398
-3.411447	Hyvvää	-1.287164
-4.013507	Hyvä	-0.5609276
-4.411447	Hyväksykkää	-0.3209314
-5.314537	Hyväksythiin	-0.1689279
-5.314537	Hyvämieli	-0.1570828
-4.469439	Hyvän	-1.576863
-4.035783	Hyvästi	-0.4296331
-5.314537	Hyvät	-0.1689363
-5.314537	Hyysikkä	-0.1689363
-5.314537	Hyysikkääkö	-0.1648205
-5.013507	Hyät	-0.1689299
-5.314537	Hyökkäys	-0.1689363
-5.314537	HÄYTTYY	-0.1689342
-5.314537	Hálkavárri	-0.1689363
-5.013507	Hä	-1.138087
-4.837416	Häfti	-0.1669235
-4.411447	Häftin	-0.2761673
-4.837416	Häftissä	-0.1667521
-4.712477	Häh	-0.2161746
-5.314537	Häihin	-0.1689321
-5.314537	Häirittinkö	-0.1667437
-5.314537	Häivy	-0.1688436
-4.615567	Hällä	-0.7691311
-2.754631	Hän	-0.5085243
-4.712477	Hänele	-0.243213
-3.972114	Hänelä	-1.348811
-5.013507	Hänelähän	-0.1575735
-3.746336	Hänen	-0.3273492
-5.013507	Hänestä	-1.151811
-5.314537	Hänhän	-0.1599181
-5.314537	Hänki	-0.1651222
-5.013507	Hänkö	-0.1599031
-5.013507	Häntä	-1.151811
-4.712477	Häppeekkää	-1.131439
-5.314537	Häppeetä	-0.1660958
-5.314537	Häppyy	-0.1689342
-5.013507	Hävetä	-0.1689299
-4.837416	Hävittäminen	-0.2621359
-5.314537	Häydymäpä	-0.1689047
-5.314537	Häyttyykö	-0.1683191
-5.314537	Häytyykö	-0.1689363
-4.712477	Häyðymä	-0.4269495
-4.712477	Häyðyn	-0.1683676
-4.837416	Hää	-0.1407544
-5.314537	Häätyy	-0.1688837
-5.314537	Hääväkkee	-0.1689363
-5.013507	Håkon	-0.1570806
-5.013507	Hætta	-0.1689236
-5.013507	Höh	-1.154525
-5.314537	Höyhensaaresta	-0.1626326
-5.314537	Höövetsmannin	-0.1689321
-4.110417	I	-0.6626988
-5.013507	ID2	-1.158152
-5.314537	IHMETTÄ	-0.1626326
-5.314537	IHMISEN	-0.1689363
-5.013507	III	-1.159655
-5.314537	III-HAAA	-0.1626326
-5.013507	III:n	-1.16082
-4.837416	IKS	-0.1598107
-5.314537	ILLAN	-0.1193442
-5.314537	ILMAPALJOI	-0.1626326
-5.314537	INTERAKTIIVI	-0.1689363
-4.615567	INTERAKTIIVINEN	-0.7781386
-4.536386	INTERAKTIVT	-0.2210424
-5.314537	IPTV:ksi	-0.1570828
-5.314537	IT	-0.1413694
-5.314537	IT-palvelus	-0.1677622
-5.314537	ITEAN	-0.1193442
-5.314537	IV	-0.16893
-4.360295	Idar	-0.2029368
-5.013507	Idiotius	-0.1689342
-5.013507	Idiotus	-1.160827
-4.837416	Iesus	-0.2711498
-5.314537	Iha-anaa	-0.1626326
-5.314537	Ihaaaaana	-0.1626326
-5.314537	Ihaaaana	-0.1626326
-4.837416	Ihana	-0.1625066
-5.013507	Ihanaa	-0.1346472
-5.314537	Ihmeelistä	-0.1660958
-5.314537	Ihminen	-0.1689342
-5.314537	Ihmis	-0.1689363
-5.314537	Ihmisela	-0.1688773
-5.314537	Ihmiselle	-0.1687026
-4.411447	Ihmisen	-0.9550877
-3.916597	Ihmiset	-0.2435008
-5.314537	Ihmisillä	-0.1599181
-4.712477	Ihmisjoukko	-0.4234032
-5.013507	Ihmisjoukon	-1.148975
-4.837416	Ihmiskansa	-0.2621359
-5.013507	Ihmissii	-0.1680281
-5.013507	Ii	-1.158327
-5.314537	Iiiiiik	-0.1626326
-5.314537	Iisakki	-0.1413694
-5.314537	Ikaros	-0.1626326
-5.013507	Ikuinen	-1.160814
-5.013507	Ikuisesti	-1.157988
-5.013507	Ikävä	-1.160486
-5.314537	Ilma	-0.1599181
-5.314537	Ilman	-0.1689363
-5.314537	Ilmatooli	-0.1689342
-5.013507	Iloinen	-1.160827
-5.314537	Iloisena	-0.1685067
-5.314537	Iloisissa	-0.1689363
-5.314537	Iloitte	-0.146194
-5.314537	Iloitten	-0.168791
-5.013507	Ilokkaa	-1.148975
-5.013507	Ilola	-0.1449834
-5.314537	Iltavalaistus	-0.1689363
-5.314537	Iltavalkkee	-0.1677622
-4.837416	Ilttaa	-0.5354192
-4.837416	Imerslund	-0.1362116
-5.314537	Inarinjärven	-0.1413694
-5.013507	Indian	-1.160827
-5.013507	Inessiv	-1.159655
-5.314537	Infrastruktuuri	-0.1689363
-5.314537	Inger	-0.1689363
-4.411447	Ingeri	-0.1624916
-5.314537	Ingerin	-0.1689173
-5.314537	Ingrian	-0.1689321
-5.314537	Ingrisk	-0.1685972
-4.837416	Inkeri	-0.1460919
-5.314537	Inkeri-rakkhaan	-0.1682495
-5.314537	Inkerisuomalaisista	-0.1688521
-5.013507	Inkeröinen	-1.16049
-4.837416	Insektit	-0.2593005
-5.314537	Institutile	-0.1689363
-4.712477	Institutin	-0.1689026
-5.314537	Institutissa	-0.1599181
-5.314537	Institutt	-0.1689363
-4.712477	Institutti	-0.1675068
-5.314537	Inter	-0.1689363
-5.013507	Interesanttia	-0.1395466
-4.469439	Interessanttia	-0.3000948
-5.013507	Intonaati	-1.151811
-5.314537	Investeeraminen	-0.16889
-5.013507	Invitasjon	-0.0937658
-5.314537	Iotova	-0.1570828
-4.712477	Irene	-0.2432151
-5.013507	Irlannisssa	-1.160825
-5.314537	Is	-0.1689236
-4.837416	Isak	-0.2711498
-5.314537	Isaraelissa	-0.1413694
-5.314537	Isj	-0.1626326
-3.899564	Iso	-0.8579034
-4.837416	Isoissa	-0.2711371
-5.314537	Isontingan	-0.1689363
-5.013507	Isopukki	-1.160823
-5.314537	Isosilmäsenä	-0.1689279
-4.536386	Isot	-0.9470602
-5.314537	Isotinganmellinki	-0.1689363
-5.314537	Isotingassa	-0.1676926
-5.013507	Isotinka	-0.1676883
-5.314537	Isovalet	-0.1680787
-4.314537	Isovuonon	-0.7193789
-4.469439	Isovuonossa	-0.4564209
-4.837416	Isovuonosta	-0.5302699
-5.314537	Israelhiin	-0.1688268
-4.168409	Israelin	-0.3006824
-5.314537	Issoimela	-0.1689215
-5.013507	Issoimmela	-1.160814
-5.314537	Issoimmen	-0.1689363
-5.314537	Issuu.com	-0.1662589
-5.314537	Issuu.com/Kvenskinstitutt	-0.1413694
-5.314537	Issuu.comissa	-0.1413694
-4.712477	Issää	-0.3966581
-4.469439	Istu	-0.7105324
-4.837416	Istukkaa	-0.2702099
-5.314537	Istuma	-0.168007
-4.314537	Isä	-0.2615106
-5.314537	Isäkhään	-0.1688226
-5.314537	Isäki	-0.1689047
-5.314537	Isäksi	-0.1413694
-5.314537	Isäle	-0.146194
-3.916597	Isän	-0.3827272
-5.314537	Isänsä	-0.1686246
-4.469439	Itaaliasta	-1.554135
-5.013507	Itea	-0.1534791
-5.314537	Iteaako	-0.1648205
-5.013507	Iteako	-1.156713
-4.837416	Itte	-0.5654997
-5.314537	Ivan	-0.1685361
-4.837416	Ivar	-0.16893
-5.314537	Iđut	-0.1689279
-5.314537	Iđut-forlaaki	-0.1689363
-5.314537	Iđänmaista	-0.146194
-5.013507	J	-0.1688078
-4.615567	JA	-0.1689131
-5.314537	JO-HOI	-0.1626326
-5.314537	JOIKU	-0.1685383
-4.712477	JOITA	-0.4242186
-5.314537	JOKA	-0.1689363
-5.314537	JOKO	-0.1677897
-5.314537	JOKU	-0.1683697
-5.314537	JOULUT	-0.1689173
-5.314537	JUOMAFONTEENIN	-0.1689363
-5.314537	JUOSKAA	-0.1626326
-5.314537	JUSTHIIN	-0.1688584
-2.461447	Ja	-0.4671693
-3.972114	Jaa	-1.095816
-5.314537	Jaahaa	-0.1626326
-4.200594	Jaako	-0.3120709
-4.615567	Jaakob	-0.1662144
-5.314537	Jaakobista	-0.1570828
-5.314537	Jaakoksi	-0.1413694
-5.314537	Jaakonpäivä	-0.1689363
-4.837416	Jaakoppi	-0.2484117
-5.314537	Jaames	-0.1626326
-5.314537	Jaaniin	-0.146194
-5.314537	Jaappanissa	-0.146194
-5.314537	Jacobsen	-0.1570828
-5.314537	Jacques	-0.1689363
-5.314537	Jaha-a	-0.146194
-4.168409	Jahaa	-0.7567064
-5.314537	Jahaaaa	-0.1677897
-5.314537	Jahhaa	-0.1648205
-4.837416	Jahtaaminen	-0.2593005
-5.314537	Jakakaa	-0.16893
-5.314537	Jakobsmesse	-0.1689363
-5.314537	Jakola	-0.146194
-5.314537	Jalat	-0.1689363
-4.837416	Jalka	-0.2673399
-4.411447	Jan	-0.3925081
-5.314537	Jatkoksi	-0.1689342
-4.837416	Jatkuuvasti	-0.2711498
-5.314537	Jeesu	-0.1689173
-5.314537	Jeesuksela	-0.1599181
-4.536386	Jeesuksele	-0.5103689
-4.837416	Jeesukselle	-0.562835
-5.314537	Jeesuksellehan	-0.1689342
-5.013507	Jeesukselta	-0.1461762
-3.365147	Jeesuksen	-0.4352297
-5.013507	Jeesukseni	-1.133262
-5.314537	Jeesuksenki	-0.1682495
-4.469439	Jeesuksessa	-0.1613694
-4.469439	Jeesuksesta	-0.3147543
-5.013507	Jeesuksestani	-1.148975
-4.059265	Jeesuksheen	-0.7287475
-3.042696	Jeesus	-0.6095357
-5.314537	Jeesuski	-0.1413694
-4.712477	Jeesusta	-0.4271583
-5.013507	Jeg	-0.1677664
-4.837416	Jergul	-0.2711498
-5.314537	Jerikhoon	-0.1413694
-5.314537	Jerusaleem	-0.168751
-4.168409	Jerusaleemhiin	-1.148522
-4.615567	Jerusaleemissa	-0.3225212
-5.314537	Jerusaleemista	-0.1689363
-5.314537	Jerusalemhiin	-0.146194
-4.712477	Jes	-0.4179213
-5.013507	Jesajan	-1.138087
-4.712477	Jesuksen	-0.4241954
-5.314537	Jesus	-0.1689363
-5.314537	Jill	-0.1689363
-3.992318	Jo	-0.5737228
-5.314537	Jo-o	-0.146194
-5.314537	Jogoperä	-0.1413694
-4.837416	Johan	-0.1461896
-4.837416	Johaneksenpäivä	-0.2711477
-5.314537	Johanes	-0.1688879
-5.013507	Johannesen	-0.1688773
-5.314537	Johansin	-0.1689363
-4.712477	John	-0.2432509
-5.013507	Johnsen	-0.1688584
-5.314537	Johnsenin	-0.1677622
-4.536386	Joila	-0.2172388
-5.314537	Joilekki	-0.1599181
-3.796023	Joka	-0.680326
-4.712477	Jokhainen	-0.158853
-5.314537	Jokhaisessa	-0.1688584
-5.013507	Jokhaisesta	-1.160827
-5.314537	Jokhoon	-0.1667437
-5.013507	Jokivenet	-0.1599074
-5.314537	Jokkmokista	-0.1413694
-4.469439	Jokku	-0.2969958
-4.035783	Joko	-0.2324184
-5.314537	Jokopa	-0.146194
-4.837416	Joksheenki	-0.1413627
-4.314537	Joku	-0.1864295
-5.314537	Jolla	-0.1599181
-5.013507	Jomppa	-1.154525
-4.712477	Jonk	-0.4239301
-5.314537	Jonkulainen	-0.1689194
-4.712477	Jonssot	-0.2432509
-3.395459	Joo	-1.288287
-5.314537	Joo-o	-0.1626326
-5.314537	Joosef	-0.1570828
-5.314537	Joosefin	-0.1682959
-5.013507	Jopa	-0.1688942
-5.013507	Jord	-0.1413672
-5.314537	Jord-joukon	-0.16893
-5.314537	Jordanes	-0.168871
-3.187432	Jos	-0.5578983
-4.536386	Josefsen	-0.2699695
-5.314537	Joskhaan	-0.1660958
-3.972114	Joskus	-0.2836242
-5.314537	Joskushan	-0.1675215
-5.314537	Joskusko	-0.1648205
-5.314537	Jospa	-0.1675215
-5.314537	Jossaki	-0.1689194
-5.314537	Jota	-0.1689363
-4.035783	Jotaki	-0.3714492
-4.837416	Joten	-0.1635372
-4.615567	Jotkut	-0.3596756
-5.013507	Jotta	-0.1674919
-5.013507	Joukhaisen	-1.16082
-5.013507	Joukko	-1.160827
-5.013507	Jouko	-1.160827
-5.314537	Joukole	-0.1570828
-5.314537	Joukon	-0.1689363
-5.013507	Joukossa	-1.151811
-4.536386	Joulu	-0.1983106
-5.314537	Jouluaatto	-0.1689363
-5.314537	Joulupäivänniemessä	-0.1193442
-5.314537	Joulut	-0.16893
-4.536386	Jounin	-0.2710972
-4.536386	Jousepin	-0.934526
-5.013507	Jouseppi	-0.1688942
-5.314537	Joutsjärvessä	-0.146194
-5.314537	Jouttihattu	-0.1689321
-5.013507	Jovain	-1.138087
-4.360295	Jovensuu	-0.9724311
-4.168409	Jovensuuhuun	-0.5488188
-4.059265	Jovensuun	-0.6980984
-4.110417	Jovensuussa	-0.5654757
-4.837416	Jovensuut	-0.2593005
-5.013507	Juh	-0.1413672
-5.314537	Juh.16,16-21	-0.1677686
-4.235356	Juhanneksen	-0.7119334
-5.314537	Juhanneksenpäivä	-0.16893
-4.536386	Juhannes	-0.5650133
-5.314537	Juleaften	-0.1193442
-4.314537	Juliette	-0.4505007
-5.314537	Juliettea	-0.1688331
-5.013507	Julietten	-0.1412146
-5.314537	Julius	-0.1689363
-5.314537	Julkaistu	-0.1689173
-5.314537	Jumal	-0.16881
-3.253839	Jumala	-0.384894
-3.770469	Jumalaa	-0.714264
-4.235356	Jumalale	-0.260763
-5.013507	Jumalalle	-0.1413672
-4.536386	Jumalalta	-0.9241478
-3.365147	Jumalan	-0.415704
-4.712477	Jumalanpalveluksissa	-0.4242102
-5.013507	Jumalanpalvelus	-1.160814
-4.712477	Jumalassa	-0.09365071
-4.615567	Jumalasta	-0.4053496
-3.992318	Jumalhaan	-1.340597
-5.314537	Jumpan	-0.1689363
-4.837416	Jumpo	-0.5361248
-5.314537	Junosuanosta	-0.1689363
-5.314537	Juovlaruohtta	-0.1689363
-5.314537	Jup	-0.1626326
-5.314537	Juri	-0.1689363
-4.712477	Jussa	-0.3196785
-5.314537	Jussakhaan	-0.1413694
-5.013507	Jussan	-0.168871
-5.013507	Just	-1.160827
-4.200594	Justhiin	-0.1466124
-5.314537	Justhiinsa	-0.1664347
-4.411447	Juu	-0.1780338
-5.013507	Juuh	-1.154525
-5.314537	Juunikuussa	-0.1689152
-4.615567	Juuret	-0.3386359
-4.273144	Juuri	-0.2200854
-4.469439	Juutalaiset	-0.3496344
-4.536386	Juutinrauma	-0.2172388
-5.314537	Jynaittenissa	-0.1626326
-5.314537	Jyvä	-0.1570828
-5.314537	JÄRVEN	-0.1626326
-5.314537	Jágátbeaivi	-0.1689363
-5.314537	Jäikö	-0.1689279
-5.314537	Jäkälää	-0.1689342
-5.314537	Jäljet	-0.1689342
-4.200594	Jälkhiin	-0.2957315
-5.314537	Jälki	-0.1599181
-5.314537	Jällivaarasta	-0.146194
-4.837416	Jälmesöiä	-0.2484117
-5.013507	Jänis	-0.1689342
-4.469439	Jänkkäheinä	-1.573064
-4.411447	Jänkkäniitty	-0.9541225
-5.314537	Järki	-0.1689279
-5.314537	Järkimies	-0.146194
-5.314537	Järkkeevää	-0.1689342
-4.837416	Järvet	-0.2484117
-5.314537	Jätettyi	-0.1689363
-5.314537	Jätätkö	-0.1675891
-4.615567	Jää	-0.4520186
-4.536386	Jääkkää	-0.2210382
-5.314537	Jääm	-0.1689363
-5.314537	Jäämereksi	-0.146194
-4.168409	Jäämeren	-0.9334282
-5.314537	Jäävalkkeet	-0.1689363
-5.314537	Jösse	-0.146194
-4.615567	K	-0.1662292
-5.314537	KAAÐUMA	-0.1626326
-4.314537	KAIKKI	-1.038702
-3.41691	KAISA	-1.900411
-5.013507	KAISA:Istukkaa	-1.159885
-5.013507	KAISA:Jaa	-1.133262
-5.013507	KAISA:No	-1.159798
-5.314537	KAPTEININ	-0.1689363
-4.536386	KARJUU	-0.2147492
-5.314537	KAUPPA	-0.1193442
-5.314537	KESÄ-O-L-HIIN	-0.1413694
-5.314537	KIERTÄMHÄÄN	-0.1665659
-5.013507	KIINHAAN	-1.154525
-5.314537	KIINIOTEUSTA	-0.1689363
-5.314537	KILJ	-0.1626326
-5.314537	KLUAKKIRÖÖRISSÄ	-0.1689363
-4.615567	KO	-0.1688752
-5.314537	KO/-KÖ	-0.1648205
-5.314537	KOHI	-0.1689257
-4.536386	KOIVULEHTO	-0.1714608
-4.536386	KOLMAS	-0.2210171
-5.314537	KOP	-0.1626326
-5.314537	KORKEALLA	-0.1689363
-5.314537	KOSKHAAN	-0.1689342
-5.314537	KOSTYYMIT	-0.1193442
-5.314537	KOTHIIN	-0.1688816
-5.314537	KOTHIINPÄIN	-0.1665659
-5.314537	KOTIA	-0.1689363
-5.314537	KR	-0.1689363
-5.314537	KRAMPUOÐI	-0.1193442
-4.837416	KREETA	-0.2684766
-5.013507	KRR	-1.111237
-5.013507	KRRR	-1.154525
-5.314537	KRRRR	-0.1626326
-5.314537	KULKEMHAAN	-0.1689342
-5.314537	KULLAN	-0.1689005
-5.314537	KULTAssa	-0.146194
-5.314537	KUOLEMAA	-0.1689279
-5.013507	KUTTU	-0.1122693
-5.314537	KUVVII	-0.1193442
-5.314537	KUÐO	-0.1626326
-5.314537	KUČČU	-0.1193442
-5.314537	KVE-1120	-0.1689363
-5.314537	KVENSK	-0.1662589
-5.314537	Ka-kaikki	-0.1689194
-5.314537	Ka-katto	-0.1689215
-5.314537	Kaaby	-0.1689342
-5.314537	Kaajan	-0.1689363
-5.314537	Kaapeli-TV	-0.1689363
-5.314537	Kaappi	-0.1599181
-5.314537	Kaarasjokheen	-0.1570828
-5.314537	Kaarasjovela	-0.1413694
-4.536386	Kaarasjoven	-0.2881288
-5.013507	Kaarasjovesta	-0.1336917
-5.314537	Kaare-suanthoon	-0.146194
-4.411447	Kaaresuanthoon	-0.9314981
-4.411447	Kaarnheita	-0.9525827
-5.314537	Kaatunu	-0.1689257
-5.314537	Kaaða	-0.1684961
-5.314537	Kaađa	-0.1689363
-5.013507	Kaffi	-1.151811
-5.314537	Kaffii	-0.146194
-5.013507	Kah	-1.160812
-5.314537	Kaheksantoista	-0.1689257
-5.314537	Kahðen	-0.1686183
-5.314537	Kahđesta	-0.1689363
-5.314537	Kaihnuunmata	-0.1599181
-5.314537	Kaihnuunmeri	-0.1413694
-5.314537	Kaijule	-0.1413694
-5.314537	Kaiken	-0.16893
-5.013507	Kaikhiin	-0.1461918
-3.916597	Kaikila	-0.8932772
-5.013507	Kaikilahan	-1.151811
-5.314537	Kaikile	-0.1689321
-5.314537	Kaikilta	-0.1687721
-3.770469	Kaikin	-0.3190622
-4.837416	Kaikissa	-0.1689257
-4.536386	Kaikista	-0.3214181
-5.013507	Kaikk	-0.1686246
-3.451214	Kaikki	-0.4834903
-5.314537	Kaikkien	-0.1688942
-5.314537	Kaikkihan	-0.1651222
-5.314537	Kaikkiin	-0.1689342
-5.314537	Kaikkiko	-0.1648205
-4.837416	Kaikkin	-0.2710887
-5.314537	Kaikkivaltihaale	-0.1689363
-4.411447	Kaiku	-0.1938974
-4.837416	Kainhuun	-0.5650975
-5.013507	Kainhuunkieli	-0.1092199
-4.837416	Kainhuunmaa	-0.5616983
-5.314537	Kainhuunmaahaan	-0.1413694
-4.837416	Kainhuunmaan	-0.16893
-4.837416	Kainhuunmaasta	-0.5136702
-4.469439	Kainu	-0.2118665
-5.013507	Kainulainen	-1.160772
-5.013507	Kainulaisen	-1.160818
-4.615567	Kainulaiset	-0.2183032
-5.013507	Kainulaissii	-1.157015
-5.314537	Kainulaisten	-0.1689363
-3.035784	Kainun	-1.413849
-5.314537	Kainunkielinen	-0.1689342
-5.314537	Kainunkielisessä	-0.1689363
-5.314537	Kainunkielisissä	-0.1689342
-5.314537	Kainunmaan	-0.1570828
-5.013507	Kainunmerheen	-1.160705
-4.837416	Kainuulainen	-0.5552244
-5.314537	Kainuulaiset	-0.1688984
-5.314537	Kaippaan	-0.1684961
-5.314537	Kairo	-0.1689363
-5.314537	Kairon	-0.1689363
-3.837416	Kaisa	-0.5886698
-5.013507	Kaisa.Maliniemi@kvenskinstitutt.no	-1.111237
-5.314537	Kaisat	-0.1689342
-5.314537	Kaitasen	-0.16893
-5.314537	Kaiussa	-0.1677622
-4.837416	Kaivaukset	-0.2711287
-5.314537	Kaivot	-0.1685361
-4.615567	Kaivuonhoon	-0.6667758
-5.314537	Kaivuonolainen	-0.1689363
-4.615567	Kaivuonon	-0.3597514
-5.314537	Kaivuonoo	-0.1413694
-4.837416	Kaivuonossa	-0.2484117
-4.712477	Kaivuonosta	-0.3757843
-5.314537	Kajaani	-0.1689279
-5.013507	Kajano	-1.160827
-4.837416	Kajasaaren	-0.2711287
-5.314537	Kajavanpaskassa	-0.1570828
-5.314537	Kakase	-0.1665659
-5.314537	Kakko	-0.1599181
-5.314537	Kakkoi	-0.1648205
-5.314537	Kakkoparaati	-0.1626326
-5.314537	Kakot	-0.1599181
-4.314537	Kaks	-0.2880161
-4.469439	Kaksi	-0.1688689
-5.314537	Kaksituhattakuusisattaajakaheksankymmentäyksi	-0.146194
-5.314537	Kakskielisyy	-0.1688458
-5.314537	Kakskymmentä	-0.168732
-5.314537	Kakskymppikö	-0.1648205
-4.837416	Kalakanttoin	-0.2711414
-5.314537	Kalakratenkiä	-0.146194
-4.837416	Kalanielu	-0.2435872
-5.314537	Kalanpyytövenet	-0.1689215
-4.837416	Kalansuljuja	-0.2593005
-4.235356	Kalastaja	-0.8213698
-5.314537	Kalastaminen	-0.1599181
-5.314537	Kaleandara	-0.1689363
-4.314537	Kalenteri	-0.3178063
-4.273144	Kalenterin	-0.2758837
-5.314537	Kalenterissa	-0.1599181
-4.837416	Kalileehaan	-0.2593005
-4.536386	Kallijoki	-0.2091994
-5.314537	Kallijovessa	-0.146194
-5.314537	Kallileehaan	-0.1570828
-5.314537	Kallioitten	-0.1689089
-5.314537	Kalliole	-0.1689342
-5.013507	Kallis	-1.160827
-4.837416	Kallistakkaa	-0.2711477
-5.314537	Kalmankolhoon	-0.1413694
-5.314537	Kalmankolo	-0.146194
-4.837416	Kalmankolon	-0.1688984
-4.837416	Kalmankolossa	-0.5312254
-4.837416	Kalmankolosta	-0.1342096
-5.314537	Kamala	-0.1626326
-5.314537	Kammarissa	-0.16877
-5.314537	Kan	-0.1689152
-5.314537	Kanadalainen	-0.1689342
-5.314537	Kangenissa	-0.1680323
-4.411447	Kankeaa	-0.9541962
-5.314537	Kankeata	-0.1688921
-4.615567	Kansa	-0.2270522
-5.314537	Kansainvälini	-0.1689236
-5.013507	Kansalinen	-0.1689173
-4.837416	Kansalisteatterin	-0.2711371
-5.314537	Kansimansi	-0.1626326
-4.536386	Kansoittenvälinen	-0.2210403
-5.314537	Kanuunatie	-0.1413694
-5.314537	Kanuunatiele	-0.1687594
-5.013507	Kanuunatieltä	-1.138087
-4.615567	Kanuunatielä	-0.1635649
-4.411447	Kanuunatien	-0.168513
-4.469439	Kanuunatietä	-0.4287663
-5.314537	Kanuunitien	-0.1689363
-5.314537	Kaottinen	-0.1689363
-4.059265	Kapitteli	-0.2304823
-5.013507	Kapteini	-0.1366834
-4.712477	Kapteinin	-0.4278029
-5.314537	Kapustarinta	-0.1193442
-5.314537	Karamerele	-0.1570828
-5.013507	Karasjok	-1.160818
-4.837416	Kareli	-0.2673399
-5.314537	Karen	-0.1689342
-5.314537	Karigasniemen	-0.1689257
-5.013507	Karigasniemestä	-0.1677538
-5.314537	Karin	-0.1689342
-5.013507	Karittalle	-1.111237
-4.615567	Karittan	-0.7194378
-4.837416	Karjala-Norja	-0.5655103
-5.314537	Karjalaiset	-0.16893
-5.314537	Karjalan	-0.1689363
-4.615567	Karjalassa	-0.1754726
-4.837416	Karjalasta	-0.2435872
-5.314537	Karjalašša	-0.1413694
-5.314537	Karl	-0.1689363
-5.314537	Karolius	-0.1626326
-5.314537	Kassin	-0.1689363
-5.013507	Kastaaja	-0.1599138
-5.314537	Kastakkaa	-0.1688689
-5.314537	Kastheesseen	-0.1675891
-4.837416	Kasvissa	-0.2621359
-4.837416	Kasvit	-0.2694266
-5.314537	Katastroofinen	-0.1689279
-4.837416	Kategoori	-0.2710845
-4.837416	Kategooridaataapankko	-0.2710487
-4.615567	Kategooriin	-0.4571623
-4.837416	Kategoorimonikertaisuus	-0.2711393
-5.314537	Kategoorin	-0.1689173
-5.314537	Katossa	-0.1689279
-5.314537	Katovuođet	-0.1687447
-4.536386	Kattelema	-0.1983106
-5.314537	Katteli	-0.1689321
-3.642439	Katto	-0.7853621
-3.852139	Kattokkaa	-1.25707
-4.837416	Kattokkaas	-0.2484117
-4.837416	Kattoma	-0.1673314
-5.013507	Katton	-1.160799
-4.837416	Kattopa	-0.1393528
-5.314537	Kattoppa	-0.1684961
-4.837416	Kattos	-0.2484117
-5.013507	Kattossie	-0.1395466
-5.314537	Kau	-0.1689363
-5.314537	Kauemmaksi	-0.146194
-4.411447	Kaunista	-0.2070193
-4.615567	Kauppamiehet	-0.3597262
-5.314537	Kaupungissa	-0.1675215
-5.314537	Kaupungit	-0.1570828
-4.360295	Kaurapuuroa	-1.12238
-5.314537	Kautokeino	-0.1665659
-5.314537	Kautokeinoa	-0.1570828
-5.314537	Kautokeinojovessa	-0.1413694
-4.615567	Kautokeinon	-0.3622009
-5.314537	Kautokeinonjoki	-0.146194
-5.314537	Kautokeinossa	-0.1413694
-5.314537	Kauvempana	-0.1689215
-5.314537	Kauvoin	-0.1689342
-5.314537	Kaveri	-0.1689173
-5.314537	Kavule	-0.1599181
-5.314537	Kaðonheetko	-0.1648205
-5.013507	Keedarin	-1.138087
-4.837416	Kehtolaulu	-0.2435872
-5.013507	Keitten	-0.1689321
-5.013507	Keitä	-0.1685024
-5.013507	Kekkosen	-1.160823
-4.235356	Kekkä	-0.4623127
-5.314537	Keksijän	-0.1688121
-5.013507	Kelhään	-1.158535
-5.314537	Kellastunko	-0.146194
-4.360295	Kello	-0.7670676
-4.536386	Kelsenin	-0.2207412
-5.314537	Kemijoki	-0.1688921
-5.314537	Kemppitarjous	-0.146194
-4.469439	Ken	-0.2436769
-5.314537	Kene	-0.1685972
-5.013507	Kenele	-0.1667394
-4.837416	Keneltä	-0.163452
-5.013507	Kenelä	-0.1599138
-5.013507	Kenen	-0.1688247
-5.013507	Kenessä	-0.1685024
-5.013507	Kenestä	-0.1669679
-5.314537	Kengät	-0.1570828
-5.013507	Kenheen	-0.1669679
-4.536386	Kenia	-0.2198852
-5.314537	Kenkki	-0.1689215
-4.536386	Kentälä	-0.2210213
-4.837416	Kentän	-0.2711266
-4.837416	Kentässä	-0.2435872
-5.314537	Kepardin	-0.1689236
-4.837416	Keripukinyrttii	-0.2709245
-4.536386	Kerkisin	-0.2188603
-5.013507	Kerkkii	-1.1599
-5.314537	Kerkkiin	-0.1682959
-4.615567	Kerran	-0.3603655
-5.314537	Kerranhan	-0.1689152
-3.992318	Kert	-1.314854
-4.837416	Kertonut	-0.2711308
-5.314537	Keskipukki	-0.16893
-5.013507	Keskitalo	-0.1689236
-5.314537	Keskiviikkona	-0.146194
-5.314537	Keskiyö	-0.1676926
-5.013507	Kessæ	-0.1664283
-5.013507	Kesä	-0.1573617
-5.013507	Kesäkoulu	-1.160431
-4.837416	Kesälä	-0.1636481
-5.013507	Ketä	-0.1675849
-5.314537	Kevhäälä	-0.1689363
-5.013507	Kevin	-0.1689342
-4.615567	Kevväälä	-0.7781113
-5.314537	Keväilä	-0.1688984
-5.013507	Kevättulva	-0.1677601
-5.314537	Khanti	-0.1685972
-5.314537	Khanty	-0.1689342
-5.013507	Kieldsen	-1.160812
-4.536386	Kielen	-0.3114265
-5.314537	Kielentutkiijat	-0.1599181
-5.314537	Kielet	-0.1689279
-4.314537	Kieli	-0.5803456
-5.314537	Kieli-	-0.1570828
-5.314537	Kielikeskus	-0.1599181
-5.314537	Kielikonsulentti	-0.1689363
-5.314537	Kieliraatissa	-0.1413694
-5.314537	Kielisentterin	-0.1688837
-5.314537	Kielisuunittelun	-0.1570828
-5.314537	Kielitingan	-0.16893
-5.013507	Kielitinka	-1.160827
-5.314537	Kielivuosi	-0.1689152
-5.314537	Kielivuođen	-0.1689152
-4.712477	Kiikkuu	-0.4014826
-5.314537	Kiikoksii	-0.146194
-5.314537	Kiinan	-0.1689321
-5.314537	Kiinapyttii	-0.1626326
-5.013507	Kiinhaan	-0.1553053
-4.273144	Kiini	-0.6486543
-4.411447	Kiiperissä	-0.9314981
-5.314537	Kiitokset	-0.1687447
-4.411447	Kiitoksia	-0.9314981
-4.035783	Kiitoksii	-0.6016922
-4.314537	Kiitos	-0.4734956
-5.314537	Kiitosvirsi	-0.1689363
-5.314537	Kiitämä	-0.146194
-4.059265	Kiitän	-1.077994
-5.314537	Kilpailun	-0.1689321
-5.314537	Kilpailut	-0.1689005
-5.314537	Kilpi	-0.1626326
-5.314537	Kipu	-0.1689089
-5.314537	Kiraffi	-0.16893
-5.314537	Kirahvi	-0.16893
-5.314537	Kirja	-0.1651222
-4.837416	Kirjailiija	-0.1687257
-5.314537	Kirjailiijahäfti	-0.1689194
-5.314537	Kirjailiijala	-0.1651222
-4.837416	Kirjailija	-0.1688963
-4.411447	Kirjailijat	-1.149443
-5.314537	Kirjaliset	-0.1689321
-5.013507	Kirjan	-0.1689152
-5.314537	Kirjanoppinheet	-0.1666421
-5.314537	Kirjanpito	-0.1689363
-5.314537	Kirjapyssissä	-0.1689068
-5.314537	Kirjat	-0.1599181
-5.013507	Kirjoitammako	-1.16081
-5.013507	Kirjoitettu	-1.160816
-5.013507	Kirjoituksen	-1.160827
-4.837416	Kirjota	-0.5615454
-5.314537	Kirjotukset	-0.16893
-5.314537	Kirkerådet	-0.1570828
-4.712477	Kirkhaana	-0.4240755
-5.314537	Kirkhoon	-0.1675215
-4.536386	Kirkkoniemen	-0.2210424
-5.314537	Kirkvaagin	-0.1689363
-5.314537	Kirottua	-0.1626326
-5.013507	Kirrouksen	-1.160827
-5.013507	Kirsti	-0.1366834
-5.013507	Kirstilä	-1.151811
-4.712477	Kirunan	-0.2432425
-5.314537	Kirunasta	-0.1570828
-5.314537	Kissahan	-0.1666421
-5.314537	Kitooos	-0.146194
-5.314537	Kivijäkälä*	-0.1689342
-5.314537	Kivikoskheen	-0.1570828
-5.013507	Kiviväki	-0.1574957
-5.314537	Kivusta	-0.1570828
-4.837416	Kjell	-0.565506
-5.314537	Klarinetti	-0.1689194
-5.314537	Klasikaarissa	-0.1651222
-5.314537	Klasin	-0.1665659
-5.314537	Klasinreunala	-0.1665659
-5.314537	Klassista	-0.146194
-5.013507	Klemet	-1.160827
-5.314537	Klikkaa	-0.1679922
-5.314537	Klossi	-0.1689257
-5.314537	Klossit	-0.1689363
-5.314537	Klovni	-0.1626326
-5.013507	Kluakki-	-1.148975
-5.314537	Kluakkiröörissä	-0.146194
-5.314537	Kluakkisysteemi	-0.1599181
-4.837416	Klubbviikissä	-0.2593005
-4.469439	Kläpilä	-1.573064
-4.615567	Kläpit	-0.1409879
-5.314537	Klær	-0.1193442
-4.273144	Knud	-1.424019
-5.314537	Knut	-0.1689194
-2.962355	Ko	-0.6089479
-5.314537	Kohta	-0.1689363
-4.712477	Kohtaama	-0.1681631
-5.314537	Kohtaaminen	-0.1689342
-4.712477	Koivulehto	-0.4024247
-5.314537	Kokkointumisen	-0.1689342
-5.314537	Kokkouksessa	-0.1689321
-5.314537	Kokkouspaikka	-0.1599181
-3.972114	Koko	-0.3641472
-4.712477	Kokonhaansa	-0.4276282
-5.314537	Kokonhans	-0.1688689
-5.314537	Kolezhman	-0.1689363
-5.314537	Kollajärvi	-0.1689152
-5.314537	Kollökhaan	-0.1413694
-4.536386	Kolmas	-0.5612288
-5.314537	Kolmasosan	-0.1689152
-4.469439	Kolme	-0.1412775
-5.314537	Kolmekieliset	-0.1689363
-5.314537	Kolmen	-0.1689363
-5.013507	Kolossaluksela	-0.115064
-5.314537	Kolossalus	-0.146194
-5.314537	Kolossalusta	-0.1413694
-5.314537	Komitea	-0.1681061
-5.314537	Kommandante	-0.1677686
-5.314537	Kommandantiksi	-0.1677622
-5.314537	Kommandantin	-0.1689089
-4.837416	Kommandantti	-0.1688837
-5.314537	Kommuniseeraamisessa	-0.1672786
-5.013507	Komuuni	-1.111237
-5.314537	Komuunilla	-0.1599181
-5.314537	Komuunitten	-0.1689342
-4.411447	Konferansi	-0.6228659
-5.013507	Konferansiprogramin	-1.160745
-4.837416	Konferansissa	-0.5654029
-5.314537	Konsertissa	-0.1688921
-5.013507	Konsertti	-0.1688184
-5.314537	Konstaapeli	-0.146194
-5.314537	Konstintekijöitten	-0.16889
-5.314537	Konsulentti	-0.1193442
-5.314537	Kontaktit	-0.1662589
-5.314537	Kontaktperson	-0.1662589
-5.314537	Konto	-0.1689363
-5.314537	Kophaata	-0.1689342
-5.314537	Korjaa	-0.1689363
-5.314537	Korkkeeteknuloginen	-0.1689363
-5.314537	Kornet	-0.1686984
-4.712477	Korpilompolossa	-1.151807
-5.314537	Korritoorin	-0.1688773
-4.615567	Korrui	-0.7780923
-5.314537	Korsika	-0.1677686
-5.314537	Korsikalla	-0.1193442
-5.314537	Korstog	-0.1689257
-5.314537	Kortinpellaamisheen	-0.1626326
-5.013507	Kortit	-0.1599138
-5.314537	Korttipakka	-0.1599181
-4.469439	Koska	-0.2097117
-5.314537	Koskapa	-0.1648205
-5.314537	Koski	-0.1677622
-5.013507	Kosto	-0.1599117
-5.314537	Kostoksi	-0.1689363
-5.314537	Kostoo	-0.1626326
-5.314537	Kothiin	-0.1689363
-4.360295	Kotileivottua	-0.9999747
-5.314537	Kotkovitc	-0.1413694
-4.712477	Kotona	-0.4204108
-5.314537	Koulaa	-0.1689321
-4.837416	Koulu-Anna	-0.2673399
-5.314537	Koulukirjoissa	-0.168911
-5.314537	Koulupäivän	-0.1685404
-4.360295	Koutokeinhoon	-0.2103549
-5.314537	Koutokeinon	-0.1689363
-5.013507	Koutokeinoo	-1.160795
-4.837416	Kova	-0.1688394
-5.314537	Kovila	-0.146194
-5.314537	Kr	-0.1413694
-5.314537	Kraakkeni	-0.1688647
-5.314537	Kraakkenii	-0.146194
-5.013507	Kraakkenin	-0.1461718
-4.712477	Kraakkenista	-0.4004944
-5.314537	Kraken	-0.1648205
-5.314537	Krakkenista	-0.146194
-4.314537	Krampenes	-1.013824
-4.837416	Kramppiniemessä	-0.2484117
-5.314537	Krapuko	-0.1648205
-4.168409	Kreeta	-1.541633
-5.314537	Krimmiromaani	-0.1651222
-5.314537	Kristel	-0.1689215
-4.138446	Kristiansen	-0.427079
-5.314537	Kristiansenhiin	-0.1689363
-5.314537	Kristiansenileki	-0.1413694
-4.837416	Kristiansenin	-0.1689257
-5.314537	Kristiansenista	-0.1599181
-5.314537	Kristiina	-0.146194
-5.314537	Kristiinan	-0.1689236
-5.314537	Kristin	-0.1689342
-5.314537	Kristinusko	-0.1599181
-5.013507	Kristityt	-0.1653366
-3.934326	Kristuksen	-0.6763723
-5.013507	Kristuksessa	-1.160816
-4.200594	Kristuksheen	-1.231035
-4.059265	Kristus	-0.5115736
-4.469439	Kristuski	-1.549311
-5.013507	Kristusta	-1.138087
-5.314537	Kritikin	-0.1689342
-5.314537	Kronpr	-0.1413694
-5.314537	Kroppa	-0.1689342
-4.837416	Krr	-0.2648503
-5.013507	Krrr	-1.154525
-5.314537	Krrrr	-0.1626326
-5.314537	Kruunulaki	-0.1599181
-5.314537	Kruunun	-0.1689363
-5.314537	Kruununpr	-0.1413694
-5.314537	Kruununpäälikötkö	-0.1570828
-5.314537	Kruununsa	-0.1599181
-5.314537	Kruununsekretääri	-0.16893
-4.837416	Kruunussa	-0.2711498
-5.314537	Kruuti	-0.1651222
-5.314537	Kruvnnapr	-0.1413694
-5.314537	Kräsh	-0.1626326
-5.314537	Kt	-0.1413694
-5.314537	Kuinka	-0.1660958
-4.837416	Kuitenki	-0.1627949
-3.463279	Kuka	-0.6337444
-5.314537	Kukakhoon	-0.1599181
-4.837416	Kukapa	-0.5641631
-4.712477	Kukas	-0.4248966
-4.411447	Kukhaan	-0.9519463
-4.200594	Kukka	-0.2752235
-5.314537	Kukkasymbolikkii	-0.1599181
-4.837416	Kuljethiin	-0.2683135
-5.314537	Kulleselvalaiset	-0.1688879
-5.314537	Kultainen	-0.1689363
-5.314537	Kultakallaa	-0.1626326
-5.314537	Kultakaupunkhiin	-0.146194
-5.314537	Kultatukkaa	-0.1626326
-5.314537	Kulttuuri-	-0.1570828
-5.013507	Kulttuuripalkinon	-0.1688815
-5.314537	Kulttuuriperine	-0.1193442
-5.314537	Kulttuuripäivitten	-0.1687973
-5.314537	Kulttuurisalissa	-0.1193442
-5.314537	Kultur-	-0.1686984
-4.837416	Kulturdepartementet	-0.5332617
-5.314537	Kulturpris	-0.1688921
-5.314537	Kulturrådet	-0.1689279
-5.314537	Kulturrådista	-0.146194
-5.314537	Kummalinen	-0.1689215
-5.314537	Kummalista	-0.1660958
-5.314537	Kumman	-0.1689363
-5.013507	Kummitus	-1.148975
-5.314537	Kumpanenki	-0.1689236
-5.314537	Kumpi	-0.1689089
-4.837416	Kun	-0.2708044
-5.013507	Kuninga	-1.160827
-4.200594	Kuningas	-0.1406782
-5.314537	Kuningassaluttia	-0.1688331
-5.314537	Kuninkhaala	-0.1651222
-5.314537	Kuninkhaalinen	-0.1689363
-4.712477	Kuninkhaan	-0.4277945
-5.314537	Kuninkhaanriikki	-0.1689342
-5.314537	Kuninkhaansaluuttia	-0.1686668
-3.701753	Kunka	-0.5312437
-5.013507	Kunkas	-0.1658075
-4.273144	Kunnia	-1.892072
-5.013507	Kunnian	-1.160812
-5.314537	Kunniapalkinon	-0.1413694
-5.314537	Kunnikas	-0.1599181
-5.314537	Kunnioita	-0.1689279
-4.837416	Kunnskapsdepartementet	-0.5536394
-5.013507	Kuolema	-1.160703
-5.314537	Kuoleman	-0.1689363
-5.314537	Kuollut	-0.1689363
-4.235356	Kuoppa	-0.4731759
-5.314537	Kuori	-0.1570828
-5.314537	Kuoron	-0.1689342
-4.615567	Kuosuvaaran	-0.3101014
-5.314537	Kurfyrstendammissa	-0.146194
-5.314537	Kurkkii	-0.1677622
-5.314537	Kurmikka	-0.1193442
-5.314537	Kurre	-0.1666421
-4.837416	Kuttu	-0.5057982
-5.314537	Kuu	-0.1685235
-5.013507	Kuuba	-1.159661
-5.013507	Kuubalainen	-0.1688773
-3.972114	Kuule	-0.9379087
-5.314537	Kuulehan	-0.1675891
-5.314537	Kuulekko	-0.1675891
-5.314537	Kuulema	-0.1679922
-5.314537	Kuulen	-0.1676546
-5.314537	Kuulenko	-0.1667437
-5.013507	Kuulettako	-0.1395466
-5.314537	Kuuli	-0.1689363
-5.013507	Kuulikko	-1.159482
-5.013507	Kuulima	-0.1671729
-5.314537	Kuulin	-0.1688942
-5.314537	Kuulinko	-0.1667437
-5.314537	Kuulitko	-0.1675891
-5.314537	Kuulkaahan	-0.168376
-4.411447	Kuulkkaa	-0.3004986
-5.314537	Kuulostaa	-0.1689363
-5.314537	Kuulustaa	-0.1689363
-5.314537	Kuuntele	-0.1626326
-5.013507	Kuurttoo	-1.160793
-5.314537	Kuus	-0.1689279
-5.314537	Kuusamon	-0.1688626
-5.314537	Kuusi	-0.1413694
-4.837416	Kuva	-0.5654492
-5.013507	Kuvasi	-1.151811
-5.013507	Kuvassa	-0.1598687
-4.712477	Kuvat	-1.151755
-5.314537	Kuvatapattuma	-0.1662589
-5.314537	Kuvatekstit	-0.1599181
-4.615567	Kuvattu	-0.3622282
-5.314537	Kuvvaajat	-0.1599181
-4.360295	Kv	-1.122009
-5.013507	Kvartissa	-1.151811
-5.314537	Kvarttia	-0.1685951
-5.314537	Kveana	-0.1689363
-5.013507	Kveeni	-0.1683001
-5.314537	Kveeniliiton	-0.1689173
-5.013507	Kveeniliitto	-0.1653897
-5.314537	Kveenimaayhistys	-0.1665659
-5.013507	Kveeninuoret	-0.1675342
-5.314537	Kveeninuoret-Kvensk	-0.1689321
-5.013507	Kven	-0.1688857
-5.013507	Kvener	-1.111237
-4.712477	Kveners	-1.160818
-5.314537	Kvenidol-kilpailun	-0.1689005
-5.314537	Kvenland	-0.1413694
-5.013507	Kvenlandsforbundet	-0.1478102
-3.253839	Kvensk	-1.2988
-5.314537	Kvensk-sjøsamisk	-0.1689363
-4.837416	Kvenske	-0.5655103
-5.314537	Kvinne	-0.1665659
-5.314537	Kvinnenettverk	-0.1676926
-5.314537	Kvinnor	-0.1193442
-5.314537	Kvää	-0.1689363
-4.615567	Kvääneilä	-0.349991
-4.059265	Kvääni	-0.7518328
-5.314537	Kvääni-	-0.1570828
-5.314537	Kvääni-idoli	-0.1676926
-5.314537	Kvääniaviisi	-0.1687257
-5.013507	Kvääniilä	-1.160599
-5.314537	Kvääniin	-0.1686352
-4.615567	Kväänilä	-0.7774139
-4.712477	Kväänimarkkinoiksi	-0.4241849
-3.852139	Kväänin	-0.4231431
-5.314537	Kvääninkielen	-0.1687889
-4.411447	Kvääninkieli	-0.6198597
-4.837416	Kvääninkielinen	-0.565506
-4.837416	Kvääninuoret	-0.5535744
-5.314537	Kvääninuorile	-0.1689321
-5.314537	Kväänisyys	-0.1599181
-3.809387	Kväänit	-0.3784764
-4.536386	Kväänitki	-0.2208234
-4.615567	Kväänitten	-0.3597282
-4.536386	Kvääniviikkoa	-0.1983106
-5.314537	Kväänlantina	-0.1413694
-4.712477	Kväännös	-0.4215476
-5.013507	Kvääntäny	-0.1662123
-5.314537	Kvænland	-0.1570828
-5.314537	Kvænsk	-0.1413694
-5.314537	Ky-ylmää	-0.1688078
-5.314537	Kyky	-0.1689342
-4.360295	Kylitten	-0.9999137
-3.469439	Kyllä	-0.646788
-4.536386	Kyllähän	-0.2188603
-5.314537	Kyllästynykö	-0.1648205
-4.837416	Kylmä	-0.5640807
-5.314537	Kylmäkaappi	-0.1689342
-5.314537	Kylttyyrin	-0.1687889
-5.013507	Kylä	-0.1570308
-5.013507	Kyläläiset	-1.160804
-5.314537	Kylän	-0.1688921
-5.314537	Kylät	-0.1599181
-4.536386	Kymmenen	-0.3933042
-5.314537	Kymmentä	-0.1689279
-5.314537	Kynsi	-0.1689363
-4.314537	Kyrie	-0.4520547
-5.314537	Kyrössä	-0.1675215
-5.314537	Kysheessä	-0.1599181
-5.314537	Kysy	-0.1689279
-4.235356	Kysykkää	-1.113901
-4.837416	Kysymyksessä	-0.2621359
-4.837416	Kysymys	-0.1455169
-5.013507	Kyynelt	-1.160644
-5.314537	Káffe	-0.1570828
-5.314537	Kälminnäköset	-0.1689363
-5.314537	Kälmit	-0.1626326
-5.314537	Käpytikka	-0.1193442
-5.314537	Käpytikka*	-0.1193442
-5.314537	Kärsivälisyyttä	-0.146194
-5.314537	Käykhöön	-0.1689321
-5.314537	Käyny	-0.1688879
-5.314537	Käyrä	-0.146194
-5.314537	Käytä	-0.1686225
-5.314537	Käänny	-0.1689342
-4.536386	Käännykkää	-0.302864
-5.314537	Käänöksiä	-0.1681799
-5.314537	Käänös	-0.1570828
-5.314537	Käänösfiilin	-0.1689363
-5.013507	Käärmheen	-1.160816
-5.314537	Kåfjord	-0.1193442
-4.360295	Kåre	-0.4162366
-5.314537	Kårele	-0.1570828
-5.314537	Kåren	-0.1570828
-4.712477	Kåven	-0.4237655
-5.314537	Kåvenia	-0.1689363
-5.314537	Kåvenin	-0.1676926
-5.314537	Kåvenista	-0.146194
-5.314537	Köyhyyđen	-0.1689363
-5.013507	Köyhä	-0.1413672
-5.314537	Köyhäkö	-0.1667437
-4.837416	Köyhät	-0.2710677
-5.314537	Köynnöskrassia	-0.1689363
-4.536386	Kööpenhaminaa	-0.193486
-3.992318	Kööpenhaminassa	-0.2262843
-4.411447	Kööpenhaminasta	-0.3019888
-4.314537	Kööpenhaminhaan	-0.3809415
-5.013507	LA	-1.159585
-5.314537	LAUKKOKKAA	-0.146194
-4.615567	LEENA	-0.7754718
-5.314537	LENNETHÄÄN	-0.1665659
-4.411447	LIISA	-0.2074089
-4.314537	LIISAN	-1.168917
-4.837416	LITT	-0.2711498
-5.314537	LOPPU	-0.1193442
-5.314537	LP	-0.1688921
-5.314537	LP:ssä	-0.146194
-5.314537	LPO	-0.1689363
-4.712477	Laasaruksen	-0.4242186
-4.837416	Laasaruksenki	-0.2435872
-4.837416	Laasarus	-0.2673399
-5.314537	Laata	-0.1626326
-3.992318	Laathaan	-1.342378
-5.314537	Laavuseminaarin	-0.1672089
-5.314537	Lainaaika	-0.1599181
-5.314537	Lainaan	-0.146194
-5.314537	Lainaatko	-0.1689363
-4.712477	Laiska	-0.4242081
-4.837416	Laiskan	-0.2710024
-5.314537	Laiskat	-0.1689363
-3.177817	Laita	-0.3537191
-5.314537	Laitila	-0.146194
-5.314537	Laittaa	-0.1689236
-4.837416	Laittakkaa	-0.5646801
-5.314537	Laiva	-0.1689342
-5.013507	Laivassa	-1.157015
-5.314537	Lakaskaa	-0.168007
-5.314537	Laksebybuktassa	-0.146194
-5.314537	Lakselvin	-0.1677686
-5.314537	Lammasvörräjän	-0.1688521
-4.837416	Lampaita	-0.2704525
-4.536386	Lamphaita	-0.2208487
-5.314537	Lamppu	-0.1689363
-4.712477	Lane	-0.0685269
-5.314537	Lanen	-0.1689363
-4.712477	Lannan	-1.160806
-5.314537	Lannasin	-0.1689363
-5.314537	Lapin	-0.1689363
-5.013507	Lapista	-1.148975
-5.314537	Lapland	-0.1193442
-4.837416	Lappalainen	-0.2673399
-5.314537	Lappalaisten	-0.1689363
-5.314537	Lapphiin	-0.1413694
-4.837416	Laps	-0.2709687
-5.314537	Lapsela	-0.1688773
-5.314537	Lapsen	-0.1689363
-5.314537	Lapsena	-0.1688247
-4.536386	Lapset	-0.301969
-4.469439	Lapsi	-0.2057427
-5.314537	Lapsila	-0.1599181
-5.314537	Lapsile	-0.1570828
-5.314537	Lapsuuđen	-0.1570828
-5.314537	Laptevinmerele	-0.1687594
-5.013507	Lars	-0.1689299
-5.013507	Larsen	-0.1366834
-5.314537	Lasersätheet	-0.1665659
-5.314537	Lasersätheitten	-0.1689363
-4.615567	Laske	-0.3327473
-5.314537	Laskek-kaa	-0.1681019
-5.013507	Laskekkaa	-1.159994
-5.314537	Lasse	-0.1689363
-5.314537	Lassi-kuninkhaaksi	-0.1626326
-5.314537	Lastenseinä	-0.1662589
-5.314537	Lastentarhaasa	-0.1570828
-5.314537	Lastipiili	-0.146194
-5.314537	Lattuuta	-0.1626326
-5.013507	Latviassa	-1.148975
-5.314537	Lauantaimakkeita	-0.1413694
-5.314537	Lauga-jo	-0.1688479
-5.314537	Lauhakangas	-0.1193442
-5.314537	Laukhaan	-0.1626326
-4.712477	Laukkokkaa	-0.2138676
-4.469439	Lauko	-0.2255776
-5.314537	Laukomako	-0.1689363
-4.837416	Laulanut	-0.2711308
-5.013507	Laului	-1.160827
-5.013507	Laulun	-1.160827
-5.013507	Laulut	-0.1659453
-5.314537	Lauritsin	-0.1681061
-5.314537	Lauseet	-0.1689363
-5.314537	Lauvantaina	-0.1689321
-5.314537	Lea	-0.1570828
-5.314537	Lean	-0.1570828
-4.536386	Leemin	-0.2210297
-4.035783	Leena	-0.6145638
-5.314537	Leenala	-0.1570828
-4.469439	Leenan	-1.704752
-5.314537	Legg	-0.1686984
-5.314537	Legomaa	-0.1685235
-5.314537	Legomaalta	-0.1413694
-4.536386	Lehmät	-0.2208929
-5.013507	Leht	-1.160818
-5.314537	Lehti	-0.1599181
-5.013507	Lehđet	-1.160827
-5.013507	Leif	-0.1689342
-5.314537	Leikhiin	-0.1689236
-5.314537	Leikimäkö	-0.146194
-5.314537	Leikkaa	-0.1689342
-5.013507	Leipovuonosta	-1.151811
-5.314537	Leipäloovan	-0.1689047
-5.314537	Lemmijoessa	-0.1677622
-4.837416	Lemmijokheen	-0.5653334
-5.314537	Lemmijoki	-0.146194
-5.314537	Lemmijokilainen	-0.1689363
-5.013507	Lemmijokilaiset	-1.159661
-4.314537	Lemmijoven	-0.3610035
-4.168409	Lemmijovessa	-0.0637476
-4.837416	Lemminjoesta	-0.2484117
-5.314537	Lemminkäisen	-0.1689363
-5.314537	Leningradin	-0.1689363
-4.837416	Lennon	-0.1528897
-5.314537	Lentelee	-0.1664347
-5.314537	Lenttäävä	-0.1689363
-5.314537	Lenttäävän	-0.1689363
-5.013507	Leoparti	-0.1688942
-4.837416	Leppäämä	-0.2593005
-4.837416	Leski	-0.08830819
-4.712477	Lestadiolaisuus	-0.4242186
-5.013507	Let	-1.160818
-5.314537	Leukaluut	-0.1686204
-5.013507	Leuvassa	-1.157015
-5.314537	Leveä	-0.1689321
-5.314537	Levi	-0.1689363
-5.314537	Levveeväylä	-0.1689363
-5.013507	Liekkikielii	-1.160416
-5.314537	Liekkiraito	-0.1689089
-5.314537	Life	-0.146194
-5.314537	Lihakakkuja	-0.146194
-5.314537	Lihaläjähän	-0.1689173
-4.837416	Liian	-0.1688247
-5.314537	Liikkaa	-0.1688268
-5.314537	Liiku	-0.1689215
-5.314537	Liima	-0.1681146
-2.996474	Liisa	-0.4878442
-5.314537	Liisa-nimen	-0.1682495
-4.314537	Liisaa	-0.435695
-5.314537	Liisala	-0.1599181
-5.314537	Liisalta	-0.1648205
-3.796023	Liisan	-0.193291
-5.314537	Liisasta	-0.1689173
-5.314537	Liishaan	-0.1570828
-4.314537	Liisäksi	-1.168719
-5.314537	Liitto	-0.1665659
-5.013507	Liivi	-1.16049
-5.314537	Likele	-0.16893
-5.314537	Likennemä	-0.1681799
-5.314537	Liker	-0.1689152
-5.013507	Likkiin	-0.1689321
-4.712477	Lillebo	-0.3781532
-5.314537	Lillukka	-0.1677622
-5.314537	Lina	-0.1689363
-5.013507	Lindbach	-0.1092199
-5.314537	Linkki	-0.1662589
-4.411447	Linnea	-0.9542257
-5.314537	Linnut	-0.1689173
-4.837416	Linttuin-	-0.2484117
-4.712477	Lintu	-0.4242018
-5.314537	Lintukka	-0.1677622
-5.314537	Lis	-0.1689215
-4.712477	Lissää	-0.243192
-3.770469	Lisäksi	-0.4652533
-4.837416	Lisätä	-0.271053
-5.314537	Litteratuuripalkinnole	-0.146194
-5.013507	Liturg	-1.160551
-4.536386	Liturgi	-0.559254
-5.013507	Liverpoolissa	-1.133262
-5.314537	Livisk	-0.1685972
-5.314537	Livonian	-0.1193442
-4.837416	Livvi	-0.565167
-5.314537	Livvisk	-0.1685972
-5.314537	Lofootiilta	-0.1685572
-4.837416	Lohenpyytäminen	-0.2711371
-4.837416	Lohenpyytö	-0.2621359
-5.013507	Lohtivaarassa	-1.159655
-5.013507	Lohutusta	-1.158865
-5.314537	Loistaava	-0.1689215
-5.314537	Loisto	-0.1689194
-5.314537	Loistot	-0.1689363
-5.314537	Lokin	-0.1689363
-5.314537	Lokki	-0.1689363
-4.536386	Lomassa	-0.2120348
-5.013507	Lonely	-1.160827
-5.314537	Lophuunmyyty	-0.146194
-5.013507	Loppurukkous	-1.160827
-4.168409	Lopuksi	-0.8037128
-5.314537	Lopulisesti	-0.1570828
-5.314537	Lopulta	-0.1672786
-5.314537	Lopun	-0.1687994
-5.314537	Loput	-0.1689321
-5.314537	Loukkaminen	-0.1599181
-5.314537	Loukkasitko	-0.1689131
-5.314537	Loukkaus	-0.1626326
-5.314537	Loukon	-0.1689363
-5.314537	Lounas-Suomessa	-0.1413694
-5.013507	Lounatuuli	-1.160827
-5.314537	Lovttas	-0.1689363
-5.314537	Ludviiki	-0.168831
-5.314537	Luja	-0.16893
-4.615567	Luje	-0.3594903
-5.013507	Lukekkaa	-1.160696
-5.314537	Lukeminen	-0.1682959
-5.314537	Lukitte	-0.1688731
-5.013507	Lukkari	-1.158152
-5.013507	Lukkarinrukkous	-1.111237
-5.314537	Lumipallo	-0.1648205
-5.013507	Luoja	-1.138087
-4.138446	Luonnon	-0.2710845
-5.314537	Luonnonkategooriin	-0.1689026
-4.837416	Luonnonkategoorin	-0.2593005
-4.837416	Luonnonsuojelu	-0.2621359
-5.314537	Luononhallintadirektoraatti	-0.146194
-4.837416	Luonto	-0.2711498
-5.314537	Luostijoki	-0.1570828
-5.013507	Luota	-0.1688078
-5.314537	Luottakkaa	-0.1688205
-4.837416	Lupasivat	-0.2711498
-5.314537	Luppaakkaa	-0.1658987
-5.314537	Luukkas	-0.1689363
-5.314537	Luuksa	-0.1570828
-5.314537	Luulajassa	-0.1689342
-5.314537	Luuleks	-0.146194
-4.837416	Luulen	-0.5621291
-4.712477	Luuletko	-1.156433
-5.314537	Luulin	-0.1658987
-4.837416	Luulttaavasti	-0.2710908
-5.314537	Lydutstilling	-0.146194
-5.013507	Lyhykäinen	-1.160827
-5.314537	Lyhykäiseksi	-0.16893
-5.314537	Lyhykäisesti	-0.1689342
-5.314537	Lyhykäisilä	-0.1689363
-5.314537	Lykkyy	-0.1688373
-5.314537	Lymmyymä	-0.146194
-4.712477	Lyngtorv	-0.4230509
-5.314537	Lyra	-0.1689279
-5.314537	Lyö	-0.1676546
-4.837416	Lyömäkö	-0.5427656
-5.314537	Lyönkö	-0.1667437
-5.314537	Lágideaddjit	-0.1662589
-5.314537	Lähe	-0.1689215
-5.013507	Lähteekö	-0.1681166
-4.837416	Lähtheet	-0.5625405
-5.314537	Lähättää	-0.168007
-5.314537	Lähðe	-0.1683191
-4.360295	Lähðemä	-0.2018745
-5.314537	Lähðet	-0.1672089
-5.314537	Lähđetkö	-0.1689363
-5.314537	Lämmitä	-0.1689342
-5.314537	Lämmön	-0.1689342
-5.314537	Läntisessä	-0.1687068
-5.314537	Læstadius	-0.1689026
-5.314537	Löydetty	-0.1689363
-5.013507	Löysittäkö	-1.138087
-5.314537	Löyttyykö	-0.1685361
-5.314537	Löytyny	-0.168911
-4.411447	M	-0.3960895
-5.314537	M-methän	-0.146194
-5.314537	M-mi-inun	-0.1689173
-4.837416	M-mutta	-0.1460343
-5.013507	MAAILMASSA	-1.133262
-4.837416	MAIJAN	-0.2711498
-5.314537	MAITOVAL	-0.16893
-4.360295	MATTI	-0.9973205
-5.314537	MEITÄKÖ	-0.1669721
-5.314537	MEIÐÄN	-0.1689363
-5.013507	MET	-0.1687131
-5.314537	METKI	-0.1687678
-4.615567	MIAU	-0.303095
-4.536386	MIE	-0.193486
-3.783058	MIES	-1.541389
-4.168409	MIKKO	-1.173412
-5.013507	MINUN	-0.1689342
-5.013507	MISTHÄÄN	-1.160827
-5.013507	MITÄ	-0.1584543
-4.837416	MInun	-0.2711035
-5.314537	MMM	-0.1626326
-5.314537	MUITAKI	-0.168201
-5.314537	MUORI	-0.1626326
-5.314537	MUTTA	-0.1689321
-5.013507	MUUSTA	-1.160827
-5.314537	MYYNTÖ	-0.1193442
-4.235356	Maa	-0.9366918
-5.314537	Maailmankuulua	-0.1689363
-5.314537	Maailmankuulusia	-0.1689363
-5.314537	Maaleko	-0.1677897
-5.314537	Maali	-0.1681799
-4.837416	Maanalhaiset	-0.2435872
-4.837416	Maanalhaisia	-0.2704525
-3.624341	Maanantai	-1.859027
-5.314537	Maanpruukia	-0.1651222
-5.314537	Maanrajat	-0.1570828
-5.314537	Maanselänvaaroin	-0.1689363
-5.314537	Maantienryöväys	-0.1626326
-4.712477	Maapruukia	-0.4204108
-4.469439	Maaria	-0.5583777
-5.314537	Maariaki	-0.1599181
-5.314537	Maariala	-0.1570828
-4.200594	Maarian	-0.3822851
-4.469439	Maassa	-0.2041784
-4.411447	Maata	-0.1780091
-4.615567	Maatyötä	-0.7285571
-5.314537	MacDonald	-0.1193442
-5.314537	Madeirasta	-0.1626326
-5.013507	Maha	-0.1366834
-5.314537	Mahatma	-0.1689363
-4.138446	Maiala	-0.1784633
-4.712477	Maialan	-0.2429414
-5.314537	Maijala	-0.1689342
-4.536386	Maijan	-0.2210255
-5.314537	Maijanen	-0.1662589
-5.314537	Maikuu	-0.1689131
-5.314537	Maikuussa	-0.1689152
-5.013507	Mailma	-0.1570806
-5.314537	Mailmahan	-0.1685235
-4.235356	Mailman	-0.2845097
-5.314537	Mailmanlaajuisesti	-0.1599181
-4.837416	Maita	-0.2435872
-4.536386	Maitoa	-0.2210297
-5.314537	Maitomies	-0.1685361
-4.837416	Maitoruokia	-0.2435872
-5.314537	Maitoval	-0.1688942
-5.013507	Maitovalas	-0.1567776
-5.314537	Maitovalashan	-0.1687847
-5.314537	Maitovalasniemestä	-0.146194
-5.314537	Majoriteettikieli	-0.1599181
-5.314537	Majorstyyan	-0.1689363
-5.013507	Majuri	-1.160827
-5.013507	Makkaa	-1.1599
-5.314537	Makkee	-0.1570828
-5.314537	Makkeempi	-0.1653557
-5.013507	Makkeet	-0.1545096
-5.314537	Makrean	-0.1685951
-5.314537	Maksoi	-0.1660958
-5.314537	Maku	-0.1666421
-5.314537	Malin	-0.1689363
-4.360295	Maliniemi	-0.4718043
-5.314537	Malissa	-0.1413694
-5.013507	Mallinen	-0.1638653
-5.013507	Mallorcalla	-1.133262
-4.712477	Malmivaaran	-0.4123714
-4.469439	Mamma	-0.2707758
-5.314537	Mammona	-0.1681146
-4.536386	Man	-0.2210234
-4.837416	Manalainen	-0.2711456
-3.633296	Mandag	-1.640602
-5.013507	Mannen	-0.1665236
-5.314537	Mannfolkene	-0.1686984
-4.110417	Mansi	-0.5639992
-4.235356	Mantila	-1.938582
-5.013507	Manuel	-0.1689131
-5.013507	Margariinin	-0.1406354
-5.314537	Margarin	-0.146194
-5.314537	Marian	-0.1681061
-5.314537	Marianne	-0.1689342
-4.360295	Marjaturve	-0.9961838
-5.314537	Markariinissa	-0.1689363
-4.615567	Markkinat	-0.3087139
-5.314537	Markkinoitten	-0.1689363
-5.314537	Markkus	-0.1688436
-5.314537	Marmelaati	-0.146194
-5.314537	Marmelaatit	-0.1570828
-5.314537	Mars	-0.1626326
-5.314537	Marsistako	-0.1648205
-5.314537	Martan	-0.1570828
-4.837416	Martta	-0.2711498
-5.314537	Maskat	-0.1599181
-4.837416	Massa	-0.2593005
-4.536386	Maten	-0.2709666
-5.314537	Materiaalii	-0.1679057
-5.314537	Mathiaksen	-0.1689321
-4.273144	Mathias	-0.2174066
-5.314537	Mathiasta	-0.1413694
-4.712477	Matin	-0.1665236
-4.314537	Matka	-0.1932746
-5.314537	Matkaa	-0.1666421
-5.013507	Matkala	-0.1177556
-5.314537	Matkalahjakortti	-0.1193442
-4.469439	Matkalaiset	-0.213199
-5.314537	Matkan	-0.1687973
-5.314537	Matkar	-0.1689363
-5.314537	Matkasta	-0.1689047
-5.314537	Matki	-0.146194
-4.837416	Mato	-0.2711498
-3.934326	Matseeni	-0.1839815
-5.314537	Matseenille	-0.146194
-4.837416	Matseenin	-0.1676546
-5.314537	Matthiin	-0.1688626
-3.837416	Matti	-0.1162642
-5.314537	Matti-setä	-0.146194
-5.314537	Matti-äijä	-0.1685867
-5.314537	Mattiaksen	-0.1676926
-4.837416	Mattias	-0.09057815
-5.314537	Mattihan	-0.1688752
-5.013507	Mauno	-0.1689215
-5.314537	Mauretanian	-0.1689342
-3.651779	Maŋŋebárga	-1.672001
-4.536386	McCartney	-0.1678741
-4.837416	Me	-0.2711498
-4.469439	Mearrasámi	-0.7129918
-5.314537	Medialle	-0.1193442
-5.314537	Meil	-0.1688858
-5.314537	Meile	-0.1599181
-5.314537	Meiltä	-0.1689363
-3.522146	Meilä	-1.084906
-4.712477	Meilähän	-0.4152068
-5.314537	Meinaakko	-0.1675891
-5.314537	Meinaakkos	-0.1675891
-5.314537	Meinaako	-0.1660958
-5.314537	Meinaakos	-0.1660958
-5.314537	Meinaattako	-0.1689215
-5.314537	Meinaattakos	-0.1685067
-5.314537	Meininki	-0.1651222
-5.314537	Meininkikö	-0.1648205
-4.837416	Meistä	-0.5559157
-5.013507	Meitä	-0.1560215
-3.723473	Meiðän	-0.3694253
-5.314537	Meiðänkielinen	-0.1688626
-5.314537	Meiðät	-0.1599181
-4.615567	Meiđän	-0.3621314
-5.314537	Mekile	-0.1626326
-5.314537	Mekin	-0.1626326
-4.837416	Mekki	-0.5361248
-4.615567	Meklari	-0.1534725
-5.314537	Melkeen	-0.1689026
-4.615567	Melkheen	-0.3597388
-4.837416	Melkkeen	-0.2711498
-4.837416	Mellassa	-0.2484117
-5.013507	Mellem	-0.1478102
-5.314537	Mellinki	-0.1599181
-5.314537	Men	-0.1688668
-3.972114	Mene	-0.6405714
-4.235356	Menemä	-0.2191754
-5.314537	Menen	-0.1689363
-5.314537	Meni	-0.1682959
-5.314537	Menikö	-0.1687826
-4.536386	Menkkää	-0.2995381
-5.314537	Menkää	-0.168007
-4.200594	Mennesker	-1.145728
-5.314537	Merelä	-0.1599181
-5.314537	Meren	-0.1689321
-5.314537	Merenmaa	-0.146194
-5.314537	Meressä	-0.1651222
-4.615567	Meri	-0.3536313
-5.314537	Meribiologi	-0.1570828
-5.013507	Meriharakka	-0.1689342
-5.013507	Merimaa	-0.1421716
-4.837416	Meripa	-0.2711035
-5.314537	Meripaaro	-0.146194
-5.314537	Merisaamelaisten	-0.1688689
-4.110417	Merisaamen	-0.8113795
-5.314537	Merivirrat	-0.1193442
-5.314537	Merivirtoja	-0.1193442
-4.837416	Merkitteekö	-0.2683135
-4.360295	Mervi	-0.999981
-5.314537	Messias	-0.1688858
-4.712477	Mestari	-0.4014826
-5.314537	Mestariaivot	-0.1599181
-5.013507	Mestarii	-0.164525
-5.314537	Mestarimma	-0.146194
-2.841781	Met	-0.561969
-5.314537	Metaljin	-0.1689363
-4.615567	Methän	-0.3620156
-5.314537	Methään	-0.1687152
-5.314537	Metki	-0.1687931
-5.314537	Mettässä	-0.1687341
-4.712477	Mettätyö	-0.4014826
-4.536386	Meän	-0.1687594
-4.712477	Meänkielelä	-0.4152068
-4.615567	Meänkielen	-0.7194315
-4.712477	Meänkieli	-0.242914
-5.013507	Meänkielifestivaalit	-1.133262
-5.013507	Meänkieltä	-1.160705
-5.314537	Mi	-0.1689363
-5.314537	Mi-mie	-0.16889
-5.314537	Mi-mieto	-0.1689194
-5.314537	Mi-mihiin	-0.1675215
-5.314537	Mi-mikä	-0.1687026
-5.013507	Miau	-1.154525
-5.314537	Midas	-0.1626326
-5.314537	Midt	-0.1689363
-2.570244	Mie	-0.6644514
-5.314537	Miehen	-0.1689257
-4.837416	Miehet	-0.1461718
-5.013507	Miehän	-0.1681862
-4.837416	Mieki	-0.1688668
-4.469439	Miekö	-0.2083876
-5.013507	Mieleheni	-1.160812
-5.314537	Mielelhään	-0.1666421
-4.615567	Mielikuva	-0.3597156
-4.469439	Mies	-0.4784798
-4.536386	Miesihmiset	-0.2091994
-4.084088	Mihiin	-0.6597487
-5.314537	Mihiinkö	-0.146194
-4.273144	Mihin	-1.127142
-5.013507	Miihiin	-0.1674708
-5.314537	Miihiinkhöön	-0.1687026
-4.200594	Miinale	-1.233257
-4.235356	Miinan	-1.113859
-5.013507	Miitten	-0.1689299
-4.837416	Miitä	-0.1686984
-5.314537	Mikke	-0.1689363
-4.536386	Mikkeli	-0.2673335
-5.013507	Mikkelsen	-0.168831
-5.314537	Mikkelsenin	-0.1681061
-4.200594	Mikko	-0.1649676
-4.235356	Mikkä	-0.1840481
-5.314537	Mikromarc	-0.1689363
-4.360295	Miks	-0.9998126
-5.314537	Miksettäkö	-0.1689363
-3.606967	Miksi	-0.4606661
-5.314537	Miksiko	-0.1679922
-5.314537	Miksikäs	-0.1664347
-5.314537	Miksiköhän	-0.1688036
-3.566349	Mikä	-0.5098563
-4.615567	Mikäpä	-0.2242035
-4.712477	Mikäs	-0.4271773
-5.314537	Mile	-0.1689342
-5.314537	Mille	-0.1689363
-4.536386	Millä	-0.3233729
-4.235356	Millälaila	-0.525925
-4.837416	Miltä	-0.1660873
-5.314537	Miltäs	-0.1660958
-4.837416	Minde	-0.1595075
-5.314537	Miniatyyri	-0.1688984
-5.314537	Ministerikomitea	-0.1689342
-4.712477	Minkä	-0.168791
-5.013507	Minkälainen	-0.1586461
-5.314537	Minkälaisen	-0.1689342
-5.013507	Minkälaissiiko	-0.1689342
-5.314537	Minoriteetit	-0.1688605
-5.314537	Minoriteettikielisopimuksen	-0.1676926
-5.314537	Minoriteettikielisopimus	-0.1676926
-5.314537	Minoritteettikielisopimuksen	-0.1682495
-5.013507	Minu	-1.160705
-4.314537	Minula	-1.157574
-5.314537	Minulahan	-0.1599181
-5.013507	Minule	-0.1570157
-3.355496	Minun	-0.3596339
-5.013507	Minusta	-0.1641166
-5.013507	Minuutissa	-1.151811
-5.314537	Miraakkeli	-0.1599181
-5.314537	Miraakkeliko	-0.1648205
-3.783058	Missä	-0.434506
-5.314537	Missähän	-0.1660958
-5.314537	Missäkhöön	-0.1683654
-4.837416	Missäpä	-0.1641591
-5.314537	Missäs	-0.1660958
-4.110417	Mistä	-0.5704768
-5.314537	Mistähän	-0.1685067
-5.314537	Mistäpä	-0.1676546
-5.314537	Miten	-0.1688942
-5.314537	Mitt	-0.1689363
-3.200594	Mitä	-0.5511059
-4.712477	Mitähän	-0.4029177
-5.314537	Mitäkhöön	-0.1689215
-4.360295	Mitäpä	-0.3809972
-3.972114	Mitäs	-0.508837
-5.314537	Mmm	-0.146194
-5.013507	Moberghiin	-1.133262
-5.314537	Moderasuuni	-0.1599181
-5.314537	Moderniista	-0.1688752
-5.314537	Mole	-0.1688521
-5.013507	Molemat	-0.1687847
-5.314537	Molemmat	-0.1689257
-5.013507	Molemppii	-1.16078
-5.314537	Molen	-0.1689026
-5.314537	Molliskurkkiin	-0.1688121
-5.314537	Molotoovin	-0.1689363
-4.837416	Mona	-0.5655082
-5.013507	Monenlaissii	-1.160789
-3.558662	Monet	-0.4635796
-5.314537	Mongoolian	-0.1688963
-5.314537	Monicka	-0.1689363
-5.314537	Monickan	-0.16893
-5.314537	Monikertaisuus	-0.1599181
-5.314537	Monikertaisuuus	-0.1599181
-5.314537	Monikielisen	-0.1570828
-4.837416	Monikielisyys	-0.2593005
-4.837416	Moninainen	-0.2593005
-5.314537	Monoliitti	-0.1689363
-5.314537	Monolitti	-0.1677622
-5.314537	Monsenin	-0.1689363
-5.314537	Monsi	-0.1413694
-4.615567	Monssa	-0.3228486
-5.314537	Monssahan	-0.1689363
-4.837416	Monssale	-0.5377727
-4.712477	Monssan	-0.1682432
-5.013507	Monta	-1.16058
-5.013507	Montanzassa	-1.159655
-3.992318	Mooni	-1.319678
-5.314537	Moora	-0.1687005
-5.314537	Moos	-0.1689363
-4.837416	Mooseksele	-0.2593005
-4.712477	Mooseksen	-0.2432404
-4.837416	Mooseksheen	-0.2711498
-4.360295	Mooses	-0.2276994
-4.837416	Moosesta	-0.2709624
-5.314537	Moottoriajoneuvot	-0.1689363
-5.314537	MopBeats	-0.1570828
-5.314537	MopBeatsistä	-0.1570828
-5.314537	Moraalii	-0.1689279
-5.314537	Morien	-0.1689363
-4.837416	Morttiniemessä	-0.2435872
-5.314537	Moses	-0.1689342
-5.314537	Mouruniemessä	-0.146194
-5.314537	Mr	-0.1413694
-5.314537	Mrs	-0.1413694
-5.314537	Mtä	-0.1688352
-5.013507	Mu-mulla	-0.1595655
-5.314537	Mu-mutta	-0.168911
-5.013507	Mua	-1.160808
-5.314537	Muikkeet	-0.1570828
-4.837416	Muista	-0.1424492
-4.469439	Muistakkaa	-0.3275616
-5.314537	Muistan	-0.1687678
-4.837416	Muistattako	-0.5635059
-4.110417	Muistele	-0.4741082
-5.314537	Muistelenko	-0.1667437
-4.536386	Muisteli	-0.2182124
-4.536386	Muisteliko	-0.2182124
-5.314537	Muistelukset	-0.1688331
-5.314537	Muisteluksia	-0.1689321
-5.314537	Muisteluksissa	-0.1689363
-5.314537	Muistelus	-0.1599181
-5.314537	Muistelustila	-0.1599181
-5.013507	Muistoin	-1.160827
-5.314537	Muistoja	-0.1688963
-5.013507	Muistorasian	-1.111237
-4.360295	Muitaki	-0.999981
-5.013507	Mull	-1.160644
-4.035783	Mulla	-2.123271
-5.314537	Mullaki	-0.1599181
-5.013507	Mulle	-0.1599117
-5.314537	Mullekko	-0.1648205
-4.110417	Mun	-0.9530948
-5.314537	Muonihoon	-0.146194
-4.200594	Muori	-0.1944821
-4.837416	Muori-vaina	-0.2711498
-5.314537	Muorrakássa	-0.1689363
-5.013507	Murkina	-1.111237
-5.314537	Murtauvuma	-0.1687194
-5.314537	Mus-fikuuria	-0.1677622
-5.314537	Musehoon	-0.1413694
-5.314537	Museo	-0.1570828
-5.314537	Museon	-0.1689236
-4.712477	Museum	-0.3526523
-5.314537	Musikillisen	-0.1689363
-5.314537	Musikki	-0.1570828
-4.712477	Mut	-0.4239301
-5.314537	Muta	-0.1689047
-4.712477	Mutt	-0.2430636
-2.543685	Mutta	-0.6141434
-5.314537	Muturisykkelillä	-0.146194
-5.314537	Muuala	-0.1688731
-5.314537	Muur	-0.1689363
-5.314537	Muusikko	-0.1689363
-5.314537	Muusikot	-0.1689363
-4.235356	Muut	-0.7150807
-5.314537	Muuta	-0.1689236
-5.314537	Muutakko	-0.1675891
-5.013507	Muutaman	-0.1688942
-4.200594	Muutamat	-0.2585015
-5.314537	Muutamiile	-0.1688352
-4.235356	Muutamila	-1.798046
-4.235356	Muutamina	-1.113886
-5.013507	Muutamisti	-1.160321
-4.035783	Muutammat	-0.2938778
-4.536386	Muutammiila	-0.2711393
-4.837416	Muutammiina	-0.2711498
-5.314537	Muutammila	-0.1651222
-5.314537	Muutammina	-0.1688816
-4.469439	Muutampi	-0.1591524
-5.314537	Muutamppaa	-0.168732
-5.314537	Muuten	-0.1682411
-4.712477	Muutoin	-0.1667839
-5.013507	Muutoksia	-1.160601
-4.712477	Muuton	-0.2408509
-5.314537	Muutos	-0.1689321
-5.314537	Muuttomiehet	-0.1689321
-5.013507	Muuvala	-1.160766
-5.314537	Mvh	-0.1413694
-4.837416	Myndighetene	-0.2710508
-5.314537	Mynk	-0.1193442
-5.314537	Mynkki	-0.1626326
-5.314537	Mynsi	-0.1413694
-5.314537	Myosotis	-0.1689363
-5.314537	Myseymmi-ajatuksen	-0.1689363
-5.314537	Mysikkii	-0.1681019
-5.314537	Mysteeri	-0.1660958
-5.314537	Mysti-seltä	-0.1660958
-5.314537	Mytterii	-0.1626326
-5.314537	Myö	-0.1689363
-4.615567	Máret	-0.4571854
-5.314537	Márkomeannu-festivaali	-0.1599181
-5.314537	Márkomeannu-festivaalila	-0.1689363
-5.314537	Mäkisaaressa	-0.1689363
-5.314537	Mäkisaarheen	-0.1193442
-5.314537	Mälarn-seuðuilta	-0.1688731
-4.837416	Märikkö	-0.2621359
-4.837416	Märiköissä	-0.2709835
-5.314537	Märkäaloitten	-0.1689363
-5.314537	Mål	-0.1686984
-4.536386	Möst	-1.160444
-5.314537	Mööpelithän	-0.1599181
-4.837416	Möötin	-0.1688816
-5.314537	Möötti	-0.1689068
-4.837416	Mööttiaika	-0.2684766
-4.837416	Mööttipaikka	-0.2684766
-5.314537	Münchenissä	-0.1689363
-4.837416	N	-0.562835
-4.837416	NASA	-0.5332617
-5.013507	NASA:le	-1.133262
-5.314537	NASAle	-0.1413694
-5.314537	NEN	-0.1689257
-5.013507	NGO-prošektin	-0.1689152
-5.013507	NIIN	-0.1413672
-5.314537	NOSTANU	-0.1683654
-5.013507	NRK	-0.1683675
-5.314537	NRK:n	-0.1570828
-5.314537	NRK:ssa	-0.1689047
-5.314537	NTH:ssa	-0.146194
-5.314537	NTV	-0.1689363
-5.314537	NTV:heen	-0.1682052
-3.934326	NUUTTI	-1.395261
-5.314537	Naasaretista	-0.1687847
-5.013507	Naavuonhoon	-1.154525
-5.013507	Naavuonon	-1.16046
-4.536386	Naavuonosta	-0.193486
-5.314537	Nagirbeaivi	-0.1689363
-5.314537	Naistenlehtii	-0.1689363
-5.314537	Narraus	-0.1626326
-5.314537	Narvik	-0.1413694
-5.013507	National	-1.160827
-5.314537	Nations-kielele	-0.146194
-5.314537	Nauhoila	-0.16893
-5.314537	Nauhojen	-0.1689321
-5.314537	Nauta	-0.1689363
-5.314537	Nauttilus	-0.1626326
-4.536386	Navetan	-0.2210361
-5.314537	Našunaali	-0.16893
-5.314537	Našunaaliteatteri	-0.1689363
-5.314537	Nedrevann	-0.146194
-5.314537	Nedrevannilla	-0.1677622
-5.314537	Neill	-0.1689363
-5.013507	Nektende	-1.158152
-5.013507	Nelje	-0.1689194
-5.314537	Neljekymppiikö	-0.1648205
-5.314537	Neljä	-0.1413694
-5.314537	Nenets	-0.1689342
-5.013507	Nenetsi	-1.16049
-5.314537	Nenetsisk	-0.1685972
-5.314537	Neptuni	-0.1689363
-5.013507	Nerokasta	-0.1395466
-5.314537	Nerokhaasti	-0.146194
-5.314537	Nerokhaat	-0.1675215
-5.013507	Neskie	-1.160827
-3.314537	Net	-0.5512616
-5.013507	Nethän	-1.151811
-4.837416	Netpä	-0.2698575
-5.314537	Neuvot	-0.1570828
-5.013507	Ngasan	-1.16049
-5.314537	Ngasanian	-0.1689342
-5.314537	Ngasansk	-0.1685972
-5.314537	Nice	-0.1688626
-5.013507	Niels	-1.16082
-5.314537	Niihin	-0.1666421
